{"learner":{"attributes":{"scikit_learn":"{\"_estimator_type\": \"classifier\"}"},"feature_names":[],"feature_types":[],"gradient_booster":{"model":{"gbtree_model_param":{"num_parallel_tree":"1","num_trees":"200"},"iteration_indptr":[0,1,2,3,4,5,6,7,8,9,10,11,12,13,14,15,16,17,18,19,20,21,22,23,24,25,26,27,28,29,30,31,32,33,34,35,36,37,38,39,40,41,42,43,44,45,46,47,48,49,50,51,52,53,54,55,56,57,58,59,60,61,62,63,64,65,66,67,68,69,70,71,72,73,74,75,76,77,78,79,80,81,82,83,84,85,86,87,88,89,90,91,92,93,94,95,96,97,98,99,100,101,102,103,104,105,106,107,108,109,110,111,112,113,114,115,116,117,118,119,120,121,122,123,124,125,126,127,128,129,130,131,132,133,134,135,136,137,138,139,140,141,142,143,144,145,146,147,148,149,150,151,152,153,154,155,156,157,158,159,160,161,162,163,164,165,166,167,168,169,170,171,172,173,174,175,176,177,178,179,180,181,182,183,184,185,186,187,188,189,190,191,192,193,194,195,196,197,198,199,200],"tree_info":[0,0,0,0,0,0,0,0,0,0,0,0,0,0,0,0,0,0,0,0,0,0,0,0,0,0,0,0,0,0,0,0,0,0,0,0,0,0,0,0,0,0,0,0,0,0,0,0,0,0,0,0,0,0,0,0,0,0,0,0,0,0,0,0,0,0,0,0,0,0,0,0,0,0,0,0,0,0,0,0,0,0,0,0,0,0,0,0,0,0,0,0,0,0,0,0,0,0,0,0,0,0,0,0,0,0,0,0,0,0,0,0,0,0,0,0,0,0,0,0,0,0,0,0,0,0,0,0,0,0,0,0,0,0,0,0,0,0,0,0,0,0,0,0,0,0,0,0,0,0,0,0,0,0,0,0,0,0,0,0,0,0,0,0,0,0,0,0,0,0,0,0,0,0,0,0,0,0,0,0,0,0,0,0,0,0,0,0,0,0,0,0,0,0,0,0,0,0,0,0],"trees":[{"base_weights":[-8.529415E-8,1.4384676E0,-1.1932558E0,1.9539258E0,6.169901E-1,-2.2365816E-1,-1.3627727E0,1.9891886E0,4.2821226E-1,-1.650514E-2,9.9791336E-1,2.0029701E-1,-9.3730086E-1,6.709291E-1,-1.3989259E0,1.993933E0,8.2371354E-1,7.248336E-1,-7.4055576E-1,7.808801E-1,-7.488917E-1,1.2758427E0,3.9442304E-1,6.421456E-1,-1.2080928E-1,-1.1083984E0,-4.7599307E-1,-1.1035699E-1,1.8197427E0,-1.4458871E0,-4.2803645E-1,1.9946682E0,9.989739E-6,-5.2615803E-1,1.444622E0,9.4137156E-1,-2.4372214E-1,8.0011986E-2,-9.9981683E-1,1.07793465E-1,1.4458678E0,7.590831E-2,-1.4467812E0,1.5585153E0,1.0079513E0,-1.0389854E-1,1.3170706E0,4.7943033E-2,1.0940757E0,1.1787641E0,-2.5488412E-1,-4.9980733E-1,-1.1905229E0,4.1879514E-1,-7.714569E-1,-8.0831933E-1,4.9560532E-1,1.8761627E-1,9.989739E-6,-1.1553255E0,-1.5923481E0,-5.9582776E-1,8.688786E-1,1.9950351E-1,5.0009992E-2,-8.570002E-1,2.2233322E-2,7.5014985E-1,1.6668332E-1,-1.3316017E-1,1.1390831E0,4.6170753E-1,-1.157737E0,-4.613694E-1,-1.3844464E0,-2.7539232E-1,1.6251936E0,-7.3152703E-1,1.5854827E0,-2.8662345E-1,1.6067506E0,-1.7427481E0,3.0649891E-1,3.7054056E-1,1.5766368E0,2.5877288E-1,1.246576E0,3.522292E-1,-7.0749456E-1,9.1410446E-1,1.9363657E0,8.658595E-1,-1.2719129E-1,9.3609464E-1,1.3408548E0,-2.4985015E-1,1.3601918E0,-4.6800154E-1,2.019266E-1,-1.4998502E-1,-3.198082E-1,-8.6547583E-1,-1.2951384E0,1.2001731E0,1.8647512E-4,-9.627669E-1,2.8589505E-1,5.001748E-1,-1.3937517E0,-8.2337666E-1,7.085248E-1,-7.0433086E-1,-1.3062483E0,-1.6289177E0,-9.2085415E-1,-8.0359894E-1,4.568864E-1,1.0771141E0,-9.998668E-2,-1.1110001E-1,-2.2211123E-2,1.00013316E-1,9.989739E-6,6.0015984E-2,-1.1427144E-1,-4.6140015E-2,1.2594531E-1,-9.999001E-2,9.092544E-2,-1.4665203E-1,9.989739E-6,5.455817E-2,-9.472107E-2,-3.998801E-2,-1.5998402E-1,2.207291E-2,-7.949842E-2,1.801846E-1,-9.0896375E-2,-1.1109336E-1,1.1112221E-1,1.6557345E-1,1.8199375E-2,3.0913964E-2,-8.173214E-2,1.854738E-1,-4.9985018E-2,-1.8781559E-1,-7.4679784E-2,1.164367E-1,-9.1648355E-2,1.20011985E-1,-9.507637E-3,1.2746148E-1,1.6248904E-1,-7.2708204E-2,5.493496E-2,9.972488E-2,1.5753485E-1,-3.4691427E-2,5.601978E-2,-9.300351E-2,8.801838E-2,1.2072448E-1,2.5506136E-3,1.9567172E-1,5.0009992E-2,-9.0896375E-2,1.1335198E-1,-5.3826686E-2,2.717998E-2,9.9676065E-2,8.016783E-3,1.4685492E-1,4.287427E-2,-6.665335E-2,5.0009992E-2,1.452823E-1,-2.2211123E-2,-1.0169476E-1,-2.9557629E-2,4.5921292E-2,-3.9233103E-2,9.092181E-2,-4.514217E-2,-7.983218E-3,-9.5536016E-2,-1.3213564E-1,-1.1749428E-2,9.989739E-6,1.3847844E-1,-3.782002E-2,5.1868875E-2,-1.0289303E-1,2.85857E-2,7.060587E-2,-9.998668E-2,-9.999001E-2,8.573141E-2,-1.5482002E-1,5.0009992E-2,9.989739E-6,-1.0767847E-1,8.9674234E-2,-7.6909244E-2,-1.1211294E-1,-2.3408707E-2,-1.3291472E-1,1.02240436E-1,-1.7120074E-1,-1.4544477E-1,-1.4424264E-1,-5.650198E-2,-3.1625845E-2,-1.2748027E-1,-6.0851324E-2,1.01195514E-1,1.1726045E-1,-4.999001E-2],"categories":[],"categories_nodes":[],"categories_segments":[],"categories_sizes":[],"default_left":[0,0,0,0,0,0,0,0,0,0,0,0,0,0,0,0,0,0,0,0,0,0,0,0,0,0,0,0,0,0,0,0,0,0,0,0,0,0,0,0,0,0,0,0,0,0,0,0,0,0,0,0,0,0,0,0,0,0,0,0,0,0,0,0,0,0,0,0,0,0,0,0,0,0,0,0,0,0,0,0,0,0,0,0,0,0,0,0,0,0,0,0,0,0,0,0,0,0,0,0,0,0,0,0,0,0,0,0,0,0,0,0,0,0,0,0,0,0,0,0,0,0,0,0,0,0,0,0,0,0,0,0,0,0,0,0,0,0,0,0,0,0,0,0,0,0,0,0,0,0,0,0,0,0,0,0,0,0,0,0,0,0,0,0,0,0,0,0,0,0,0,0,0,0,0,0,0,0,0,0,0,0,0,0,0,0,0,0,0,0,0,0,0,0,0,0,0,0,0,0,0,0,0,0,0,0,0,0,0,0,0,0,0,0,0,0,0,0,0],"id":0,"left_children":[1,3,5,7,9,11,13,15,17,19,21,23,25,27,29,31,33,35,37,39,41,43,45,47,49,51,53,55,57,59,61,63,-1,65,67,69,71,-1,73,75,77,79,81,83,85,87,89,91,93,95,97,99,101,103,105,107,109,-1,-1,111,113,115,117,-1,-1,119,-1,121,-1,123,125,127,129,131,133,135,137,139,141,143,145,147,149,151,153,155,157,159,161,163,165,167,169,171,173,175,177,179,181,-1,183,185,187,189,191,193,195,197,199,201,203,205,207,209,211,213,215,217,-1,-1,-1,-1,-1,-1,-1,-1,-1,-1,-1,-1,-1,-1,-1,-1,-1,-1,-1,-1,-1,-1,-1,-1,-1,-1,-1,-1,-1,-1,-1,-1,-1,-1,-1,-1,-1,-1,-1,-1,-1,-1,-1,-1,-1,-1,-1,-1,-1,-1,-1,-1,-1,-1,-1,-1,-1,-1,-1,-1,-1,-1,-1,-1,-1,-1,-1,-1,-1,-1,-1,-1,-1,-1,-1,-1,-1,-1,-1,-1,-1,-1,-1,-1,-1,-1,-1,-1,-1,-1,-1,-1,-1,-1,-1,-1,-1,-1,-1,-1,-1],"loss_changes":[1.7178328E4,1.920248E3,8.988042E2,1.4913086E2,4.225558E2,2.4684367E2,3.432705E2,1.3423828E1,2.2811071E1,3.85145E2,1.8290686E2,7.275579E1,2.3466705E1,7.380009E1,2.0797363E2,3.975586E0,1.1446471E1,1.1082912E1,6.1923766E0,1.4117207E2,1.9797896E2,5.509082E1,1.59334E2,5.7884636E1,5.213688E1,1.0450592E1,2.2530798E1,2.1441816E1,3.4133987E0,1.8385352E2,4.676005E1,4.892578E-1,0E0,1.3667935E0,1.384983E-1,9.180695E0,7.1434608E0,0E0,1.8464918E0,9.231606E1,4.941928E1,8.84247E1,9.718167E1,7.2142334E0,6.8862366E1,6.2401993E1,2.8550888E1,1.3610994E1,3.5206757E0,7.597164E0,2.6428844E1,4.5605273E0,5.476074E0,7.032246E0,1.3120155E1,1.8698936E1,8.23619E0,0E0,0E0,9.886377E1,6.967578E1,4.1651245E1,1.0708164E1,0E0,0E0,3.1765032E-1,0E0,7.499001E-1,0E0,6.238259E0,7.5165215E0,5.1610594E0,1.698369E0,3.6967006E0,7.387066E-1,3.2913612E1,1.5963097E1,8.400791E0,1.4438995E1,4.103863E1,1.6860603E1,2.0107483E1,3.0181246E1,2.7213998E0,3.1243896E0,2.7542122E1,2.2467285E1,1.8987278E1,3.5267574E1,1.9635746E1,3.9526367E-1,8.9874115E0,1.3021517E1,3.9702911E0,4.6698303E0,1.5833E0,3.9869537E0,1.7186409E1,1.3443748E1,0E0,4.454352E0,3.4722404E0,4.31398E0,1.6614656E0,3.1390831E0,4.7552414E0,6.3783827E0,5.143114E0,5.600548E0,8.869791E-1,7.3644037E0,7.220743E1,5.9868164E1,3.7339355E1,2.7395187E1,3.5879433E1,1.9391785E1,4.0120964E0,0E0,0E0,0E0,0E0,0E0,0E0,0E0,0E0,0E0,0E0,0E0,0E0,0E0,0E0,0E0,0E0,0E0,0E0,0E0,0E0,0E0,0E0,0E0,0E0,0E0,0E0,0E0,0E0,0E0,0E0,0E0,0E0,0E0,0E0,0E0,0E0,0E0,0E0,0E0,0E0,0E0,0E0,0E0,0E0,0E0,0E0,0E0,0E0,0E0,0E0,0E0,0E0,0E0,0E0,0E0,0E0,0E0,0E0,0E0,0E0,0E0,0E0,0E0,0E0,0E0,0E0,0E0,0E0,0E0,0E0,0E0,0E0,0E0,0E0,0E0,0E0,0E0,0E0,0E0,0E0,0E0,0E0,0E0,0E0,0E0,0E0,0E0,0E0,0E0,0E0,0E0,0E0,0E0,0E0,0E0,0E0,0E0,0E0,0E0,0E0,0E0],"parents":[2147483647,0,0,1,1,2,2,3,3,4,4,5,5,6,6,7,7,8,8,9,9,10,10,11,11,12,12,13,13,14,14,15,15,16,16,17,17,18,18,19,19,20,20,21,21,22,22,23,23,24,24,25,25,26,26,27,27,28,28,29,29,30,30,31,31,33,33,34,34,35,35,36,36,38,38,39,39,40,40,41,41,42,42,43,43,44,44,45,45,46,46,47,47,48,48,49,49,50,50,51,51,52,52,53,53,54,54,55,55,56,56,59,59,60,60,61,61,62,62,65,65,67,67,69,69,70,70,71,71,72,72,73,73,74,74,75,75,76,76,77,77,78,78,79,79,80,80,81,81,82,82,83,83,84,84,85,85,86,86,87,87,88,88,89,89,90,90,91,91,92,92,93,93,94,94,95,95,96,96,97,97,98,98,100,100,101,101,102,102,103,103,104,104,105,105,106,106,107,107,108,108,109,109,110,110,111,111,112,112,113,113,114,114,115,115,116,116,117,117],"right_children":[2,4,6,8,10,12,14,16,18,20,22,24,26,28,30,32,34,36,38,40,42,44,46,48,50,52,54,56,58,60,62,64,-1,66,68,70,72,-1,74,76,78,80,82,84,86,88,90,92,94,96,98,100,102,104,106,108,110,-1,-1,112,114,116,118,-1,-1,120,-1,122,-1,124,126,128,130,132,134,136,138,140,142,144,146,148,150,152,154,156,158,160,162,164,166,168,170,172,174,176,178,180,182,-1,184,186,188,190,192,194,196,198,200,202,204,206,208,210,212,214,216,218,-1,-1,-1,-1,-1,-1,-1,-1,-1,-1,-1,-1,-1,-1,-1,-1,-1,-1,-1,-1,-1,-1,-1,-1,-1,-1,-1,-1,-1,-1,-1,-1,-1,-1,-1,-1,-1,-1,-1,-1,-1,-1,-1,-1,-1,-1,-1,-1,-1,-1,-1,-1,-1,-1,-1,-1,-1,-1,-1,-1,-1,-1,-1,-1,-1,-1,-1,-1,-1,-1,-1,-1,-1,-1,-1,-1,-1,-1,-1,-1,-1,-1,-1,-1,-1,-1,-1,-1,-1,-1,-1,-1,-1,-1,-1,-1,-1,-1,-1,-1,-1],"split_conditions":[-7.6061286E-2,-2.730283E-1,-8.749681E-1,-7.7202894E-2,-2.5841987E-1,-2.0555124E-1,-2.728718E-1,5.8537585E-1,5.865216E-1,5.879183E-1,-2.0944682E-1,-7.375525E-2,5.819386E-1,1.016953E0,1.8920293E0,7.634551E-1,-2.7436742E-1,-2.7353263E-1,-6.732886E-1,5.8537585E-1,5.842301E-1,-8.749681E-1,5.819386E-1,-2.5241998E-1,-2.728718E-1,-7.393791E-2,-4.2104724E-1,-7.3275775E-2,1.6395347E0,-1.961601E-1,6.8857503E0,4.024921E0,9.989739E-6,1.0025016E0,1.016953E0,-7.715723E-2,-5.157817E-1,8.0011986E-2,-1.0533984E-2,1.016953E0,-6.732886E-1,1.7923782E0,1.3446424E0,5.7620984E-1,5.7850134E-1,-7.7202894E-2,2.4292471E0,-2.73637E-1,-2.2348136E-1,5.773556E-1,-2.2902907E-1,-1.2541755E0,-1.4607401E-1,-1.6923882E-1,1.8491251E0,-4.9782237E-1,-1.2038467E0,1.8761627E-1,9.989739E-6,-7.3526934E-2,1.6066152E-1,3.2085127E-1,2.2846718E0,1.9950351E-1,5.0009992E-2,-8.255131E-1,2.2233322E-2,-2.7393264E-1,1.6668332E-1,-8.749681E-1,5.773556E-1,-2.7337614E-1,-7.63581E-2,1.0025016E0,8.4015965E-1,-6.235376E-1,3.1843607E0,7.634551E-1,5.865216E-1,-8.749681E-1,3.352543E0,-2.684371E-1,1.5968838E0,1.0025016E0,5.773556E-1,-2.4544618E-1,5.8308434E-1,5.773556E-1,8.4797806E-1,-7.686041E-2,3.8123937E0,-7.590146E-2,-2.6466325E-1,-2.2582914E-1,-2.1146417E-1,7.145476E-1,5.865216E-1,5.773556E-1,-6.44626E-2,-1.4998502E-1,-6.732886E-1,-7.272781E-2,8.4507537E-1,-2.000035E-1,-1.8371915E-2,1.2639012E0,-5.0962646E-2,5.773556E-1,4.1798673E0,-1.624873E0,1.8377832E0,-2.4353316E-1,7.1203904E0,5.796471E-1,5.773556E-1,-4.7749534E-2,5.773556E-1,2.5058417E0,-9.998668E-2,-1.1110001E-1,-2.2211123E-2,1.00013316E-1,9.989739E-6,6.0015984E-2,-1.1427144E-1,-4.6140015E-2,1.2594531E-1,-9.999001E-2,9.092544E-2,-1.4665203E-1,9.989739E-6,5.455817E-2,-9.472107E-2,-3.998801E-2,-1.5998402E-1,2.207291E-2,-7.949842E-2,1.801846E-1,-9.0896375E-2,-1.1109336E-1,1.1112221E-1,1.6557345E-1,1.8199375E-2,3.0913964E-2,-8.173214E-2,1.854738E-1,-4.9985018E-2,-1.8781559E-1,-7.4679784E-2,1.164367E-1,-9.1648355E-2,1.20011985E-1,-9.507637E-3,1.2746148E-1,1.6248904E-1,-7.2708204E-2,5.493496E-2,9.972488E-2,1.5753485E-1,-3.4691427E-2,5.601978E-2,-9.300351E-2,8.801838E-2,1.2072448E-1,2.5506136E-3,1.9567172E-1,5.0009992E-2,-9.0896375E-2,1.1335198E-1,-5.3826686E-2,2.717998E-2,9.9676065E-2,8.016783E-3,1.4685492E-1,4.287427E-2,-6.665335E-2,5.0009992E-2,1.452823E-1,-2.2211123E-2,-1.0169476E-1,-2.9557629E-2,4.5921292E-2,-3.9233103E-2,9.092181E-2,-4.514217E-2,-7.983218E-3,-9.5536016E-2,-1.3213564E-1,-1.1749428E-2,9.989739E-6,1.3847844E-1,-3.782002E-2,5.1868875E-2,-1.0289303E-1,2.85857E-2,7.060587E-2,-9.998668E-2,-9.999001E-2,8.573141E-2,-1.5482002E-1,5.0009992E-2,9.989739E-6,-1.0767847E-1,8.9674234E-2,-7.6909244E-2,-1.1211294E-1,-2.3408707E-2,-1.3291472E-1,1.02240436E-1,-1.7120074E-1,-1.4544477E-1,-1.4424264E-1,-5.650198E-2,-3.1625845E-2,-1.2748027E-1,-6.0851324E-2,1.01195514E-1,1.1726045E-1,-4.999001E-2],"split_indices":[1,2,7,1,2,2,2,5,5,4,2,1,5,26,2,76,2,2,4,5,5,7,5,2,2,1,4,1,76,2,2,26,0,6,26,1,7,0,0,26,4,26,4,5,5,1,23,2,2,5,2,0,2,2,4,7,0,0,0,1,1,1,76,0,0,0,0,2,0,7,5,2,1,6,4,7,26,76,5,7,50,2,4,6,5,2,5,5,2,1,14,1,2,2,2,0,5,5,1,0,4,1,1,2,2,2,2,5,81,0,76,2,25,5,5,1,5,39,0,0,0,0,0,0,0,0,0,0,0,0,0,0,0,0,0,0,0,0,0,0,0,0,0,0,0,0,0,0,0,0,0,0,0,0,0,0,0,0,0,0,0,0,0,0,0,0,0,0,0,0,0,0,0,0,0,0,0,0,0,0,0,0,0,0,0,0,0,0,0,0,0,0,0,0,0,0,0,0,0,0,0,0,0,0,0,0,0,0,0,0,0,0,0,0,0,0,0,0,0],"split_type":[0,0,0,0,0,0,0,0,0,0,0,0,0,0,0,0,0,0,0,0,0,0,0,0,0,0,0,0,0,0,0,0,0,0,0,0,0,0,0,0,0,0,0,0,0,0,0,0,0,0,0,0,0,0,0,0,0,0,0,0,0,0,0,0,0,0,0,0,0,0,0,0,0,0,0,0,0,0,0,0,0,0,0,0,0,0,0,0,0,0,0,0,0,0,0,0,0,0,0,0,0,0,0,0,0,0,0,0,0,0,0,0,0,0,0,0,0,0,0,0,0,0,0,0,0,0,0,0,0,0,0,0,0,0,0,0,0,0,0,0,0,0,0,0,0,0,0,0,0,0,0,0,0,0,0,0,0,0,0,0,0,0,0,0,0,0,0,0,0,0,0,0,0,0,0,0,0,0,0,0,0,0,0,0,0,0,0,0,0,0,0,0,0,0,0,0,0,0,0,0,0,0,0,0,0,0,0,0,0,0,0,0,0,0,0,0,0,0,0],"sum_hessian":[1.0006E4,4.53675E3,5.46925E3,2.78675E3,1.75E3,8.1425E2,4.655E3,2.7235E3,6.325E1,6.575E2,1.0925E3,5.1125E2,3.03E2,8.1E1,4.574E3,2.71175E3,1.175E1,5.075E1,1.25E1,3.1475E2,3.4275E2,7.4725E2,3.4525E2,2.1475E2,2.965E2,2.2E2,8.3E1,4.875E1,3.225E1,4.3625E3,2.115E2,2.71075E3,1E0,3.75E0,8E0,4.15E1,9.25E0,1.5E0,1.1E1,1.57E2,1.5775E2,1.575E2,1.8525E2,3.6125E2,3.86E2,2.2475E2,1.205E2,9.325E1,1.215E2,2.7E1,2.695E2,2.7E1,1.93E2,2.05E1,6.25E1,2.25E1,2.625E1,3.125E1,1E0,1.465E3,2.8975E3,1.8775E2,2.375E1,2.70975E3,1E0,2.5E0,1.25E0,3E0,5E0,6.5E0,3.5E1,5.5E0,3.75E0,5.5E0,5.5E0,1.26E2,3.1E1,9.25E0,1.485E2,1.28E2,2.95E1,1.585E2,2.675E1,5.75E0,3.555E2,9.375E1,2.9225E2,1.2825E2,9.65E1,7.45E1,4.6E1,1.575E1,7.75E1,7.7E1,4.45E1,3E0,2.4E1,1.8375E2,8.575E1,3E0,2.4E1,4.925E1,1.4375E2,6.5E0,1.4E1,5.3E1,9.5E0,7E0,1.55E1,3.25E0,2.3E1,3.6875E2,1.09625E3,2.7465E3,1.51E2,1.57E2,3.075E1,2.175E1,2E0,1.25E0,1.25E0,2E0,1E0,4E0,2.5E0,2.25E0,3.275E1,1E0,4.5E0,2.75E0,1E0,1.75E0,3.75E0,1.5E0,4E0,6.475E1,6.125E1,2.925E1,1.75E0,8E0,1.25E0,1.4125E2,7.25E0,6.05E1,6.75E1,2.65E1,3E0,1.3875E2,1.975E1,1.575E1,1.1E1,1.5E0,4.25E0,5.275E1,3.0275E2,2.1E1,7.275E1,1.685E2,1.2375E2,2.925E1,9.9E1,8.5E1,1.15E1,5.575E1,1.875E1,4.5E1,1E0,1.75E0,1.4E1,3.8E1,3.95E1,7.175E1,5.25E0,3.85E1,6E0,2E0,1E0,2.275E1,1.25E0,4.275E1,1.41E2,6E1,2.575E1,1.75E0,2.225E1,5.25E0,4.4E1,1.405E2,3.25E0,1E0,5.5E0,8.25E0,5.75E0,5.05E1,2.5E0,7.5E0,2E0,1E0,6E0,1.45E1,1E0,1E0,2.25E0,2.075E1,2.25E0,1.9475E2,1.74E2,1.086E3,1.025E1,1.8545E3,8.92E2,6E1,9.1E1,7.8E1,7.9E1,1.05E1,2.025E1,2.075E1,1E0],"tree_param":{"num_deleted":"0","num_feature":"108","num_nodes":"219","size_leaf_vector":"1"}},{"base_weights":[1.0379885E-4,1.3052138E0,-1.079598E0,1.7764091E0,5.5838764E-1,-2.0176664E-1,-1.2335777E0,1.8088499E0,3.8215134E-1,-5.9961814E-2,8.798504E-1,1.8111579E-1,-8.472663E-1,3.5325876E-1,-1.271715E0,1.8131558E0,7.562885E-1,6.52049E-1,-6.804051E-1,7.156608E-1,-7.675038E-1,3.3124378E-1,1.0946257E0,5.806333E-1,-1.0889453E-1,-1.1367302E0,-6.0943663E-1,-2.812599E-1,1.5804917E0,-1.3179166E0,-4.3575826E-1,1.813831E0,9.489059E-6,-4.973941E-1,1.3358824E0,8.5080117E-1,-2.3520106E-1,7.5285666E-2,-9.2274046E-1,1.5285157E-2,1.3411316E0,-1.0023966E0,1.4187562E0,1.0472035E0,-1.7659472E-1,1.2401283E0,7.283816E-1,4.3154493E-2,9.9034977E-1,1.0695655E0,-2.3002599E-1,-3.2080375E-2,-1.1898228E0,-2.3364893E-1,-7.213566E-1,-6.8064755E-1,5.5296075E-1,1.696718E0,-5.089093E-2,-7.71434E-1,-1.3871545E0,-7.381034E-1,1.8568128E-1,1.814201E-1,5.593732E-2,-8.103611E-1,2.0999597E-2,7.010537E-1,1.5370849E-1,1.1003952E-1,1.10601E0,4.149226E-1,-1.0763354E0,-4.2208052E-1,-1.2821374E0,-4.1446558E-1,1.525399E0,-9.877552E-1,1.4525496E0,-1.3101876E0,-1.3685916E-1,1.6448332E0,-8.2506716E-1,1.2364497E0,2.0185657E-2,1.5858296E-1,-5.740694E-1,6.1850286E-1,1.321584E0,4.661174E-1,1.7347795E0,8.195947E-1,-1.0793214E-1,8.458638E-1,1.2167511E0,-2.2919929E-1,1.2352287E0,-4.222585E-1,1.8190166E-1,-8.2430106E-1,1.3640235E-1,-9.5767224E-1,-1.3915261E0,-7.7011836E-1,5.4455644E-1,-8.53918E-1,-3.1897208E-1,-5.300818E-3,-1.2680446E0,-4.3082556E-1,8.644423E-1,1.7713152E-1,4.0141795E-2,-5.661381E-1,-1.1216307E0,-1.539598E0,-1.2492665E0,-8.6462206E-1,4.40999E-1,-3.0120286E-1,5.461767E-1,-1.999881E-2,-1.0606772E-1,9.350629E-2,9.489059E-6,5.7195652E-2,-1.1743732E-1,-6.360066E-2,1.24610916E-1,-6.9666885E-2,8.124052E-2,-1.3645442E-1,9.489059E-6,5.1111143E-2,-8.7403916E-2,-3.7598174E-2,-1.4796874E-1,7.8080283E-3,-9.2809714E-2,1.7008363E-1,-8.5228436E-2,-1.22528315E-1,-1.3150731E-2,1.5082513E-1,1.913934E-2,-1.32592395E-2,-1.5381312E-1,-1.3034019E-1,5.093837E-3,1.7687738E-1,-1.4994914E-2,-2.1415975E-2,-1.0677898E-1,3.5017308E-2,1.2803625E-1,3.4357965E-2,-6.8584554E-2,-6.919956E-2,4.913809E-2,-6.891945E-2,9.054425E-2,1.11605525E-1,2.5199441E-2,1.493609E-1,1.1626077E-1,6.84725E-2,-2.8272975E-2,6.9228224E-2,1.7646101E-1,-3.4132313E-2,1.2193E-1,-4.6092562E-2,2.4533613E-2,1.01852074E-1,5.436476E-2,1.3326268E-1,3.9215174E-2,-6.428619E-2,1.926484E-2,1.3205342E-1,-2.0978678E-2,-9.1999285E-2,-2.662876E-2,4.1121732E-2,-3.6220964E-2,-1.5597114E-2,-1.1136575E-1,-1.0360926E-1,1.0915825E-3,-1.1450279E-2,-1.4340976E-1,-1.0383723E-1,2.8973093E-4,1.19118236E-1,8.474774E-3,-6.797309E-2,-1.15686655E-1,-4.9950015E-2,4.4161703E-2,4.2386293E-2,-8.507837E-2,-1.3913172E-2,-1.3178127E-1,8.344515E-2,-9.771948E-2,-3.5480388E-2,9.9110894E-2,-8.8208504E-2,-3.510372E-4,-1.17369555E-1,-2.1937294E-2,-1.3860618E-1,-1.603832E-1,-1.2861116E-1,-3.440925E-2,-9.250057E-2,9.26274E-2,-5.1084656E-2,1.048492E-1,-6.442797E-2,6.613763E-2,7.122238E-2,-7.3257394E-2],"categories":[],"categories_nodes":[],"categories_segments":[],"categories_sizes":[],"default_left":[0,0,0,0,0,0,0,0,0,0,0,0,0,0,0,0,0,0,0,0,0,0,0,0,0,0,0,0,0,0,0,0,0,0,0,0,0,0,0,0,0,0,0,0,0,0,0,0,0,0,0,0,0,0,0,0,0,0,0,0,0,0,0,0,0,0,0,0,0,0,0,0,0,0,0,0,0,0,0,0,0,0,0,0,0,0,0,0,0,0,0,0,0,0,0,0,0,0,0,0,0,0,0,0,0,0,0,0,0,0,0,0,0,0,0,0,0,0,0,0,0,0,0,0,0,0,0,0,0,0,0,0,0,0,0,0,0,0,0,0,0,0,0,0,0,0,0,0,0,0,0,0,0,0,0,0,0,0,0,0,0,0,0,0,0,0,0,0,0,0,0,0,0,0,0,0,0,0,0,0,0,0,0,0,0,0,0,0,0,0,0,0,0,0,0,0,0,0,0,0,0,0,0,0,0,0,0,0,0,0,0,0,0,0,0,0,0,0,0,0,0,0,0],"id":1,"left_children":[1,3,5,7,9,11,13,15,17,19,21,23,25,27,29,31,33,35,37,39,41,43,45,47,49,51,53,55,57,59,61,63,-1,65,67,69,71,-1,73,75,77,79,81,83,85,87,89,91,93,95,97,99,101,103,105,107,109,111,-1,113,115,117,119,-1,-1,121,-1,123,-1,125,127,129,131,133,135,137,139,141,143,145,147,149,151,153,155,157,159,161,163,165,167,169,171,173,175,177,179,181,183,185,-1,187,189,191,193,195,197,199,201,203,205,-1,-1,207,209,211,213,215,217,219,221,-1,-1,-1,-1,-1,-1,-1,-1,-1,-1,-1,-1,-1,-1,-1,-1,-1,-1,-1,-1,-1,-1,-1,-1,-1,-1,-1,-1,-1,-1,-1,-1,-1,-1,-1,-1,-1,-1,-1,-1,-1,-1,-1,-1,-1,-1,-1,-1,-1,-1,-1,-1,-1,-1,-1,-1,-1,-1,-1,-1,-1,-1,-1,-1,-1,-1,-1,-1,-1,-1,-1,-1,-1,-1,-1,-1,-1,-1,-1,-1,-1,-1,-1,-1,-1,-1,-1,-1,-1,-1,-1,-1,-1,-1,-1,-1,-1,-1,-1,-1,-1,-1],"loss_changes":[1.4016467E4,1.5837471E3,7.3554395E2,1.2417969E2,3.466391E2,2.0122198E2,2.8070508E2,1.0855469E1,1.8810043E1,3.2835782E2,1.3481653E2,5.9324852E1,2.0171661E1,8.568863E1,1.7409668E2,3.288086E0,9.897246E0,9.296118E0,5.3703547E0,1.2503609E2,1.6208685E2,1.1806644E2,4.301001E1,4.736503E1,4.2670105E1,7.9111633E0,6.919544E0,2.4701395E1,9.960449E0,1.6106934E2,4.492104E1,2.3144531E-1,0E0,1.2208503E0,6.694412E-2,7.886013E0,6.0372143E0,0E0,1.6116056E0,8.8688095E1,4.0561768E1,7.5237885E1,1.6964314E1,2.6151917E1,2.547443E1,2.8972595E1,6.1672302E1,1.11351385E1,2.9653473E0,6.281204E0,2.1482075E1,9.1358E0,4.721817E0,1.7182905E1,6.6286774E0,1.9756828E1,7.7846594E0,2.7401505E0,0E0,3.4170288E1,7.7995605E1,2.433097E1,1.3997115E1,0E0,0E0,3.2201457E-1,0E0,6.552187E-1,0E0,7.770034E0,8.454304E0,3.432733E0,1.4691701E0,3.1840963E0,6.025553E-1,2.6993383E1,1.4077446E1,1.3601546E0,9.848907E0,5.5820282E1,1.657982E1,6.5570145E0,2.8765368E-1,3.977127E0,5.2526026E0,2.9821657E1,1.5507626E1,1.2491215E1,1.2464966E1,3.115865E1,2.888031E-1,7.5878563E0,1.0053202E1,3.5070572E0,3.805008E0,8.213587E-1,3.3440018E0,1.4086517E1,1.0967865E1,8.405106E-1,0E0,4.8208466E0,3.477066E0,5.0176506E0,4.94495E0,4.317566E0,4.841861E0,9.134115E0,1.3134384E0,5.2980375E0,3.2403555E0,0E0,0E0,5.460862E1,8.099503E0,1.5542969E1,6.631445E1,1.6572289E1,9.91432E0,1.1711023E1,1.0212104E1,0E0,0E0,0E0,0E0,0E0,0E0,0E0,0E0,0E0,0E0,0E0,0E0,0E0,0E0,0E0,0E0,0E0,0E0,0E0,0E0,0E0,0E0,0E0,0E0,0E0,0E0,0E0,0E0,0E0,0E0,0E0,0E0,0E0,0E0,0E0,0E0,0E0,0E0,0E0,0E0,0E0,0E0,0E0,0E0,0E0,0E0,0E0,0E0,0E0,0E0,0E0,0E0,0E0,0E0,0E0,0E0,0E0,0E0,0E0,0E0,0E0,0E0,0E0,0E0,0E0,0E0,0E0,0E0,0E0,0E0,0E0,0E0,0E0,0E0,0E0,0E0,0E0,0E0,0E0,0E0,0E0,0E0,0E0,0E0,0E0,0E0,0E0,0E0,0E0,0E0,0E0,0E0,0E0,0E0,0E0,0E0,0E0,0E0,0E0,0E0,0E0,0E0],"parents":[2147483647,0,0,1,1,2,2,3,3,4,4,5,5,6,6,7,7,8,8,9,9,10,10,11,11,12,12,13,13,14,14,15,15,16,16,17,17,18,18,19,19,20,20,21,21,22,22,23,23,24,24,25,25,26,26,27,27,28,28,29,29,30,30,31,31,33,33,34,34,35,35,36,36,38,38,39,39,40,40,41,41,42,42,43,43,44,44,45,45,46,46,47,47,48,48,49,49,50,50,51,51,52,52,53,53,54,54,55,55,56,56,57,57,59,59,60,60,61,61,62,62,65,65,67,67,69,69,70,70,71,71,72,72,73,73,74,74,75,75,76,76,77,77,78,78,79,79,80,80,81,81,82,82,83,83,84,84,85,85,86,86,87,87,88,88,89,89,90,90,91,91,92,92,93,93,94,94,95,95,96,96,97,97,98,98,99,99,101,101,102,102,103,103,104,104,105,105,106,106,107,107,108,108,109,109,110,110,113,113,114,114,115,115,116,116,117,117,118,118,119,119,120,120],"right_children":[2,4,6,8,10,12,14,16,18,20,22,24,26,28,30,32,34,36,38,40,42,44,46,48,50,52,54,56,58,60,62,64,-1,66,68,70,72,-1,74,76,78,80,82,84,86,88,90,92,94,96,98,100,102,104,106,108,110,112,-1,114,116,118,120,-1,-1,122,-1,124,-1,126,128,130,132,134,136,138,140,142,144,146,148,150,152,154,156,158,160,162,164,166,168,170,172,174,176,178,180,182,184,186,-1,188,190,192,194,196,198,200,202,204,206,-1,-1,208,210,212,214,216,218,220,222,-1,-1,-1,-1,-1,-1,-1,-1,-1,-1,-1,-1,-1,-1,-1,-1,-1,-1,-1,-1,-1,-1,-1,-1,-1,-1,-1,-1,-1,-1,-1,-1,-1,-1,-1,-1,-1,-1,-1,-1,-1,-1,-1,-1,-1,-1,-1,-1,-1,-1,-1,-1,-1,-1,-1,-1,-1,-1,-1,-1,-1,-1,-1,-1,-1,-1,-1,-1,-1,-1,-1,-1,-1,-1,-1,-1,-1,-1,-1,-1,-1,-1,-1,-1,-1,-1,-1,-1,-1,-1,-1,-1,-1,-1,-1,-1,-1,-1,-1,-1,-1,-1],"split_conditions":[-7.6061286E-2,-2.730283E-1,-8.749681E-1,-7.7202894E-2,-2.6170677E-1,-2.0555124E-1,-2.7182832E-1,5.8537585E-1,5.865216E-1,5.879183E-1,5.7850134E-1,-7.375525E-2,5.796471E-1,1.0951135E0,1.7153889E0,7.634551E-1,-2.7436742E-1,-2.7353263E-1,-6.732886E-1,5.8537585E-1,1.7923782E0,-8.749681E-1,-2.0944682E-1,-2.5241998E-1,-2.728718E-1,-7.542199E-2,-4.2104724E-1,-6.896052E-2,3.1843607E0,-7.393791E-2,3.6839802E0,1.0324986E1,9.489059E-6,1.0025016E0,1.016953E0,-2.7436742E-1,-5.157817E-1,7.5285666E-2,-1.0533984E-2,1.016953E0,-6.732886E-1,1.3446424E0,6.5157413E-1,-2.1045549E-1,-2.0807293E-1,-2.556199E-1,2.4292471E0,-2.7374133E-1,-2.2348136E-1,5.773556E-1,-2.2902907E-1,8.4015965E-1,-4.5832302E-2,5.8308434E-1,-5.9941854E-2,-1.2920714E-2,5.796471E-1,9.0300465E-1,-5.089093E-2,-2.0162086E-1,5.7850134E-1,8.4507537E-1,5.773556E-1,1.814201E-1,5.593732E-2,5.865216E-1,2.0999597E-2,-2.7393264E-1,1.5370849E-1,5.684205E-1,5.773556E-1,5.796471E-1,-7.63581E-2,1.0025016E0,8.4015965E-1,-6.235376E-1,3.1843607E0,-2.6941097E-1,5.865216E-1,-8.749681E-1,5.773556E-1,3.6125488E0,2.4599373E0,5.7620984E-1,-7.704307E-2,-2.4544618E-1,2.1039386E0,-8.749681E-1,-8.3904946E-1,-7.686041E-2,5.819386E-1,-7.565031E-2,-2.6466325E-1,-2.3713328E-1,-2.1146417E-1,3.356769E-1,5.865216E-1,5.773556E-1,-6.405163E-2,-1.6923882E-1,1.3640235E-1,-7.409267E-2,-7.416623E-2,3.27924E-2,-1.6923882E-1,5.140715E-3,1.8491251E0,-2.730283E-1,-1.6515993E0,-3.1822917E-1,-1.2038467E0,1.7713152E-1,4.0141795E-2,-2.3643765E-1,8.4797806E-1,-1.6209112E-1,1.6066152E-1,3.2448745E0,5.773556E-1,6.8857503E0,1.3667018E0,-1.999881E-2,-1.0606772E-1,9.350629E-2,9.489059E-6,5.7195652E-2,-1.1743732E-1,-6.360066E-2,1.24610916E-1,-6.9666885E-2,8.124052E-2,-1.3645442E-1,9.489059E-6,5.1111143E-2,-8.7403916E-2,-3.7598174E-2,-1.4796874E-1,7.8080283E-3,-9.2809714E-2,1.7008363E-1,-8.5228436E-2,-1.22528315E-1,-1.3150731E-2,1.5082513E-1,1.913934E-2,-1.32592395E-2,-1.5381312E-1,-1.3034019E-1,5.093837E-3,1.7687738E-1,-1.4994914E-2,-2.1415975E-2,-1.0677898E-1,3.5017308E-2,1.2803625E-1,3.4357965E-2,-6.8584554E-2,-6.919956E-2,4.913809E-2,-6.891945E-2,9.054425E-2,1.11605525E-1,2.5199441E-2,1.493609E-1,1.1626077E-1,6.84725E-2,-2.8272975E-2,6.9228224E-2,1.7646101E-1,-3.4132313E-2,1.2193E-1,-4.6092562E-2,2.4533613E-2,1.01852074E-1,5.436476E-2,1.3326268E-1,3.9215174E-2,-6.428619E-2,1.926484E-2,1.3205342E-1,-2.0978678E-2,-9.1999285E-2,-2.662876E-2,4.1121732E-2,-3.6220964E-2,-1.5597114E-2,-1.1136575E-1,-1.0360926E-1,1.0915825E-3,-1.1450279E-2,-1.4340976E-1,-1.0383723E-1,2.8973093E-4,1.19118236E-1,8.474774E-3,-6.797309E-2,-1.15686655E-1,-4.9950015E-2,4.4161703E-2,4.2386293E-2,-8.507837E-2,-1.3913172E-2,-1.3178127E-1,8.344515E-2,-9.771948E-2,-3.5480388E-2,9.9110894E-2,-8.8208504E-2,-3.510372E-4,-1.17369555E-1,-2.1937294E-2,-1.3860618E-1,-1.603832E-1,-1.2861116E-1,-3.440925E-2,-9.250057E-2,9.26274E-2,-5.1084656E-2,1.048492E-1,-6.442797E-2,6.613763E-2,7.122238E-2,-7.3257394E-2],"split_indices":[1,2,7,1,2,2,2,5,5,4,5,1,5,50,2,76,2,2,4,5,26,7,2,2,2,1,4,1,26,1,2,64,0,6,26,2,7,0,0,26,4,4,7,2,2,2,23,2,2,5,2,4,2,5,1,7,5,7,0,2,5,1,5,0,0,5,0,2,0,0,5,5,1,6,4,7,26,2,5,7,5,26,50,5,1,2,2,7,7,1,5,1,2,2,2,4,5,5,1,2,0,2,1,2,2,2,4,2,0,7,0,0,0,2,2,2,1,96,5,2,76,0,0,0,0,0,0,0,0,0,0,0,0,0,0,0,0,0,0,0,0,0,0,0,0,0,0,0,0,0,0,0,0,0,0,0,0,0,0,0,0,0,0,0,0,0,0,0,0,0,0,0,0,0,0,0,0,0,0,0,0,0,0,0,0,0,0,0,0,0,0,0,0,0,0,0,0,0,0,0,0,0,0,0,0,0,0,0,0,0,0,0,0,0,0,0,0,0,0,0,0,0,0],"split_type":[0,0,0,0,0,0,0,0,0,0,0,0,0,0,0,0,0,0,0,0,0,0,0,0,0,0,0,0,0,0,0,0,0,0,0,0,0,0,0,0,0,0,0,0,0,0,0,0,0,0,0,0,0,0,0,0,0,0,0,0,0,0,0,0,0,0,0,0,0,0,0,0,0,0,0,0,0,0,0,0,0,0,0,0,0,0,0,0,0,0,0,0,0,0,0,0,0,0,0,0,0,0,0,0,0,0,0,0,0,0,0,0,0,0,0,0,0,0,0,0,0,0,0,0,0,0,0,0,0,0,0,0,0,0,0,0,0,0,0,0,0,0,0,0,0,0,0,0,0,0,0,0,0,0,0,0,0,0,0,0,0,0,0,0,0,0,0,0,0,0,0,0,0,0,0,0,0,0,0,0,0,0,0,0,0,0,0,0,0,0,0,0,0,0,0,0,0,0,0,0,0,0,0,0,0,0,0,0,0,0,0,0,0,0,0,0,0,0,0,0,0,0,0],"sum_hessian":[9.944897E3,4.5023667E3,5.4425303E3,2.7597668E3,1.7426E3,8.1254694E2,4.629983E3,2.6967239E3,6.304313E1,5.9633453E2,1.1462655E3,5.1047482E2,3.020721E2,1.0846946E2,4.5215137E3,2.6850173E3,1.1706368E1,5.0581398E1,1.2461732E1,2.8447525E2,3.118593E2,3.2321378E2,8.230517E2,2.1428046E2,2.9619437E2,1.3454141E2,1.6753072E2,7.200921E1,3.6460247E1,4.2841606E3,2.373532E2,2.6840173E3,1E0,3.7458284E0,7.9605403E0,4.1357925E1,9.2234745E0,1.4976138E0,1.0964119E1,1.3468506E2,1.4979018E2,2.8209265E2,2.9766657E1,1.3368301E2,1.8953078E2,5.8732965E2,2.3572202E2,9.3166756E1,1.2111371E2,2.6877693E1,2.6931668E2,6.2434664E0,1.2829794E2,3.9153774E1,1.2837695E2,4.8820312E1,2.31889E1,3.4717E1,1.7432489E0,4.8312012E2,3.8010403E3,1.5954367E2,7.7809525E1,2.6827798E3,1.2376686E0,2.49598E0,1.2498484E0,2.995027E0,4.965513E0,1.09643345E1,3.039359E1,5.4882474E0,3.7352269E0,5.490274E0,5.473845E0,1.0541222E2,2.9272846E1,6.479924E0,1.4331026E2,2.077143E2,7.437836E1,2.7284546E1,2.482111E0,1.1271024E2,2.0972773E1,1.0314929E2,8.638148E1,6.9040886E1,5.1828876E2,1.8815306E2,4.756895E1,1.445537E1,7.871138E1,7.6822716E1,4.4290997E1,2.9971468E0,2.3880547E1,1.8360802E2,8.570865E1,4.244494E0,1.9989724E0,6.231937E1,6.597857E1,2.318274E1,1.5971033E1,9.572062E1,3.265633E1,2.3179369E1,2.5640944E1,5.4842486E0,1.770465E1,3.2479015E1,2.2379832E0,3.062208E2,1.7689935E2,1.8004114E3,2.000629E3,1.4432426E2,1.5219407E1,3.3171993E1,4.463753E1,1.2491019E0,1.2468781E0,1.995027E0,1E0,8.472161E0,2.4921732E0,1.9989265E0,2.8394663E1,1.2473186E0,4.2409286E0,2.7352269E0,1E0,1.7487079E0,3.7415657E0,1.4993944E0,3.9744503E0,5.424351E1,5.116871E1,2.7526472E1,1.7463745E0,4.735327E0,1.7445974E0,1.3706076E2,6.2494936E0,3.394263E1,1.7377167E2,9.489838E0,6.488852E1,2.5535646E1,1.7488985E0,1.2409906E0,1.2411202E0,5.7445297E0,1.0696571E2,1.4736265E1,6.236507E0,2.8704876E1,7.444442E1,8.064076E1,5.7407174E0,2.8417583E1,4.06233E1,2.4489647E2,2.733923E2,1.4570398E2,4.2449078E1,1.9967053E0,4.5572247E1,3.7397058E0,1.0715664E1,3.921857E1,3.9492813E1,4.7382687E1,2.9440027E1,3.8293728E1,5.997269E0,1.2487284E0,1.7484185E0,2.2630703E1,1.2498431E0,4.263923E1,1.409688E2,6.046846E1,2.5240187E1,1.7474396E0,2.4970543E0,5.758722E1,4.7321525E0,2.247568E0,6.3731E1,1.6955517E1,6.2272224E0,5.976175E0,9.994859E0,6.2835583E1,3.2885036E1,2.6669514E1,5.9868155E0,1.5705828E1,7.4735417E0,1.242912E0,2.4398031E1,1.4949621E0,3.9892864E0,1.4967179E0,1.6207933E1,1.9573618E2,1.1048461E2,1.6696384E2,9.935516E0,5.3771234E2,1.262699E3,1.9219744E3,7.865466E1,1.4008453E2,4.2397323E0,5.991213E0,9.228194E0,2.4699436E1,8.472557E0,3.9899563E1,4.737968E0],"tree_param":{"num_deleted":"0","num_feature":"108","num_nodes":"223","size_leaf_vector":"1"}},{"base_weights":[3.4055434E-4,1.1996514E0,-9.847767E-1,1.642354E0,5.085375E-1,-1.8267024E-1,-1.1266991E0,1.6731479E0,3.4258863E-1,-5.496465E-2,8.0070573E-1,1.6953272E-1,-7.6228446E-1,3.2183394E-1,-1.1616377E0,1.6771969E0,6.987213E-1,5.893629E-1,-6.284092E-1,6.527401E-1,-7.006441E-1,3.0048868E-1,9.975449E-1,5.318766E-1,-9.4259165E-2,-1.0212916E0,-5.4872745E-1,-2.566961E-1,1.455839E0,-1.2044697E0,-3.9401966E-1,1.677838E0,9.012222E-6,-4.7094843E-1,1.2452601E0,7.725086E-1,-2.2529724E-1,7.0967786E-2,-8.563072E-1,1.4102297E-2,1.228724E0,-9.1429996E-1,1.3049295E0,9.539437E-1,-1.5935268E-1,1.1317054E0,6.617507E-1,3.9678007E-2,9.140805E-1,9.76687E-1,-2.0483409E-1,-6.711512E-1,-1.1683044E0,-2.9014745E-1,-6.949293E-1,-8.129139E-1,2.5700137E-1,1.5655074E0,-4.7725417E-2,-7.7085286E-1,-1.2807359E0,-6.680924E-1,1.6757762E-1,1.6781762E0,5.277362E-2,-7.677674E-1,1.9836966E-2,6.5673393E-1,1.432171E-1,-1.7073847E-1,9.488735E-1,3.7623742E-1,-1.006463E0,-3.3635566E-1,-1.1507243E-1,-3.7500173E-1,1.405958E0,-9.132229E-1,1.3322917E0,-1.1990411E0,-1.24976985E-1,1.5194511E0,-7.816207E-1,1.0912045E0,-2.259768E-1,1.4286456E-1,-5.178686E-1,5.605627E-1,1.2073505E0,4.2097008E-1,1.6047047E0,1.2348693E-1,-1.2697438E0,1.0834545E0,7.048718E-1,-2.177224E-1,1.1311177E0,-6.130861E-1,-2.5180088E-2,1.8894184E-1,-7.765477E-1,-4.9716684E-1,-1.2076622E0,1.3495456E-1,-4.3273133E-1,-9.166098E-1,-4.1652575E-1,-1.02794595E-1,-1.247741E0,4.8913205E-1,-5.371491E-1,1.6352423E-1,3.742641E-2,-6.0003895E-1,-1.0967964E0,-1.3818367E0,-1.111417E0,-8.148068E-1,2.1132351E-1,2.808043E-1,-1.1370785E0,1.6785134E-1,5.3037833E-2,-1.8893648E-2,-1.0063281E-1,8.769484E-2,9.012222E-6,4.9613565E-2,-1.07301116E-1,-3.9552078E-2,1.0513415E-1,-6.577551E-2,7.491714E-2,-1.2788565E-1,9.012222E-6,-7.794635E-2,6.9411345E-2,7.042086E-3,-8.421117E-2,1.5719375E-1,-8.011161E-2,-1.13370076E-1,-1.2319473E-2,1.3843247E-1,1.7493593E-2,-4.0476207E-2,-1.497934E-1,1.3427994E-3,-1.5361784E-1,1.636703E-1,-1.4044969E-2,-2.0233367E-2,-1.0129588E-1,3.0407934E-2,1.1318537E-1,-8.2772695E-2,2.808004E-2,-6.273694E-2,4.4376567E-2,-1.3947084E-2,-9.309482E-2,1.0157424E-1,2.275092E-2,1.3697492E-1,1.0583808E-1,6.189106E-2,-2.5530899E-2,6.4610295E-2,1.6325963E-1,6.332323E-2,-5.3507327E-3,-2.1732852E-2,-1.5137525E-1,6.907574E-2,1.1705029E-1,5.1788013E-2,9.915116E-2,-6.080195E-2,1.803844E-2,-1.3463206E-2,1.21786274E-1,-7.641891E-2,1.866841E-2,1.146487E-2,-3.8125586E-2,-3.802243E-2,8.965049E-2,-9.219431E-2,1.4938164E-3,-1.23903714E-1,4.662233E-3,-9.187878E-2,-1.3039209E-1,-7.0176214E-2,8.912804E-2,-5.6488544E-2,2.418275E-2,-5.886339E-2,-1.2072048E-1,-8.678013E-2,-1.7834362E-2,1.0172319E-1,-7.106225E-2,-1.3472159E-1,-1.657479E-2,-5.4006733E-2,6.651027E-2,-1.0517186E-1,2.4014788E-2,-9.267964E-2,-2.886692E-2,-1.1427551E-1,-2.7974987E-2,-1.3993657E-1,-6.796783E-2,-1.15484096E-1,-3.2734957E-2,-9.205539E-2,3.455882E-2,-6.500555E-2,7.577552E-2,-3.1464768E-4,9.169179E-2,-1.5799768E-2,-1.3399604E-1],"categories":[],"categories_nodes":[],"categories_segments":[],"categories_sizes":[],"default_left":[0,0,0,0,0,0,0,0,0,0,0,0,0,0,0,0,0,0,0,0,0,0,0,0,0,0,0,0,0,0,0,0,0,0,0,0,0,0,0,0,0,0,0,0,0,0,0,0,0,0,0,0,0,0,0,0,0,0,0,0,0,0,0,0,0,0,0,0,0,0,0,0,0,0,0,0,0,0,0,0,0,0,0,0,0,0,0,0,0,0,0,0,0,0,0,0,0,0,0,0,0,0,0,0,0,0,0,0,0,0,0,0,0,0,0,0,0,0,0,0,0,0,0,0,0,0,0,0,0,0,0,0,0,0,0,0,0,0,0,0,0,0,0,0,0,0,0,0,0,0,0,0,0,0,0,0,0,0,0,0,0,0,0,0,0,0,0,0,0,0,0,0,0,0,0,0,0,0,0,0,0,0,0,0,0,0,0,0,0,0,0,0,0,0,0,0,0,0,0,0,0,0,0,0,0,0,0,0,0,0,0,0,0,0,0,0,0,0,0,0,0,0,0,0,0],"id":2,"left_children":[1,3,5,7,9,11,13,15,17,19,21,23,25,27,29,31,33,35,37,39,41,43,45,47,49,51,53,55,57,59,61,63,-1,65,67,69,71,-1,73,75,77,79,81,83,85,87,89,91,93,95,97,99,101,103,105,107,109,111,-1,113,115,117,119,121,-1,123,-1,125,-1,127,129,131,133,135,-1,137,139,141,143,145,147,149,151,153,155,157,159,161,163,165,167,169,171,173,175,177,179,181,183,185,187,189,191,193,195,197,199,201,203,205,207,-1,-1,209,211,213,215,217,219,221,223,-1,-1,-1,-1,-1,-1,-1,-1,-1,-1,-1,-1,-1,-1,-1,-1,-1,-1,-1,-1,-1,-1,-1,-1,-1,-1,-1,-1,-1,-1,-1,-1,-1,-1,-1,-1,-1,-1,-1,-1,-1,-1,-1,-1,-1,-1,-1,-1,-1,-1,-1,-1,-1,-1,-1,-1,-1,-1,-1,-1,-1,-1,-1,-1,-1,-1,-1,-1,-1,-1,-1,-1,-1,-1,-1,-1,-1,-1,-1,-1,-1,-1,-1,-1,-1,-1,-1,-1,-1,-1,-1,-1,-1,-1,-1,-1,-1,-1,-1,-1,-1,-1,-1,-1],"loss_changes":[1.1567825E4,1.3501289E3,6.117339E2,1.07134766E2,2.841268E2,1.6535E2,2.31521E2,9.197754E0,1.5594997E1,2.7010785E2,1.1159247E2,4.8248074E1,1.6370438E1,7.145755E1,1.4616113E2,2.8134766E0,8.635235E0,7.809862E0,4.6816225E0,1.0373329E2,1.3362563E2,9.700873E1,3.596997E1,3.995655E1,3.48566E1,6.2765045E0,6.2224426E0,2.0952005E1,8.538727E0,1.386914E2,3.661997E1,1.328125E-1,0E0,1.0930164E0,3.3560753E-2,7.1506195E0,5.156514E0,0E0,1.4297943E0,7.351119E1,3.411235E1,6.275676E1,1.4690498E1,2.1832458E1,2.0666105E1,2.4423706E1,5.2700127E1,1.046917E1,3.4750443E0,5.3302402E0,1.9501135E1,4.036646E0,1.9156952E0,3.8825912E0,6.2734146E0,1.0708752E1,7.360281E0,2.296585E0,0E0,3.465567E1,5.992627E1,2.076429E1,1.1928804E1,1.2158203E-1,0E0,2.9119897E-1,0E0,5.756453E-1,0E0,5.0241036E0,5.3124084E0,2.9885526E0,1.2875333E0,3.145437E0,0E0,2.213641E1,1.2122181E1,1.1549811E0,8.30043E0,4.819806E1,1.473146E1,5.6198425E0,2.6041937E-1,3.4813995E0,4.720556E0,2.4360294E1,1.3491753E1,1.03527355E1,1.0940613E1,2.5407967E1,2.1418762E-1,8.084264E0,1.1453848E0,1.3875122E0,2.5084152E0,7.30302E-1,2.8614864E0,9.96414E0,9.295844E0,2.551264E0,4.4353733E0,2.8721728E0,1.2845001E0,1.1136122E1,4.3695374E0,4.9316673E0,5.180255E0,1.053884E1,2.1098976E0,5.849704E0,3.9263291E0,0E0,0E0,4.2299774E1,7.824707E0,2.6667969E1,4.5499023E1,1.7127548E1,1.1607061E1,1.320952E1,1.0742636E0,0E0,0E0,0E0,0E0,0E0,0E0,0E0,0E0,0E0,0E0,0E0,0E0,0E0,0E0,0E0,0E0,0E0,0E0,0E0,0E0,0E0,0E0,0E0,0E0,0E0,0E0,0E0,0E0,0E0,0E0,0E0,0E0,0E0,0E0,0E0,0E0,0E0,0E0,0E0,0E0,0E0,0E0,0E0,0E0,0E0,0E0,0E0,0E0,0E0,0E0,0E0,0E0,0E0,0E0,0E0,0E0,0E0,0E0,0E0,0E0,0E0,0E0,0E0,0E0,0E0,0E0,0E0,0E0,0E0,0E0,0E0,0E0,0E0,0E0,0E0,0E0,0E0,0E0,0E0,0E0,0E0,0E0,0E0,0E0,0E0,0E0,0E0,0E0,0E0,0E0,0E0,0E0,0E0,0E0,0E0,0E0,0E0,0E0,0E0,0E0,0E0,0E0,0E0,0E0],"parents":[2147483647,0,0,1,1,2,2,3,3,4,4,5,5,6,6,7,7,8,8,9,9,10,10,11,11,12,12,13,13,14,14,15,15,16,16,17,17,18,18,19,19,20,20,21,21,22,22,23,23,24,24,25,25,26,26,27,27,28,28,29,29,30,30,31,31,33,33,34,34,35,35,36,36,38,38,39,39,40,40,41,41,42,42,43,43,44,44,45,45,46,46,47,47,48,48,49,49,50,50,51,51,52,52,53,53,54,54,55,55,56,56,57,57,59,59,60,60,61,61,62,62,63,63,65,65,67,67,69,69,70,70,71,71,72,72,73,73,75,75,76,76,77,77,78,78,79,79,80,80,81,81,82,82,83,83,84,84,85,85,86,86,87,87,88,88,89,89,90,90,91,91,92,92,93,93,94,94,95,95,96,96,97,97,98,98,99,99,100,100,101,101,102,102,103,103,104,104,105,105,106,106,107,107,108,108,109,109,110,110,113,113,114,114,115,115,116,116,117,117,118,118,119,119,120,120],"right_children":[2,4,6,8,10,12,14,16,18,20,22,24,26,28,30,32,34,36,38,40,42,44,46,48,50,52,54,56,58,60,62,64,-1,66,68,70,72,-1,74,76,78,80,82,84,86,88,90,92,94,96,98,100,102,104,106,108,110,112,-1,114,116,118,120,122,-1,124,-1,126,-1,128,130,132,134,136,-1,138,140,142,144,146,148,150,152,154,156,158,160,162,164,166,168,170,172,174,176,178,180,182,184,186,188,190,192,194,196,198,200,202,204,206,208,-1,-1,210,212,214,216,218,220,222,224,-1,-1,-1,-1,-1,-1,-1,-1,-1,-1,-1,-1,-1,-1,-1,-1,-1,-1,-1,-1,-1,-1,-1,-1,-1,-1,-1,-1,-1,-1,-1,-1,-1,-1,-1,-1,-1,-1,-1,-1,-1,-1,-1,-1,-1,-1,-1,-1,-1,-1,-1,-1,-1,-1,-1,-1,-1,-1,-1,-1,-1,-1,-1,-1,-1,-1,-1,-1,-1,-1,-1,-1,-1,-1,-1,-1,-1,-1,-1,-1,-1,-1,-1,-1,-1,-1,-1,-1,-1,-1,-1,-1,-1,-1,-1,-1,-1,-1,-1,-1,-1,-1,-1,-1],"split_conditions":[-7.6061286E-2,-2.730283E-1,-8.749681E-1,-7.7202894E-2,-2.6170677E-1,-2.0689034E-1,-2.7182832E-1,5.8537585E-1,5.865216E-1,5.879183E-1,5.7850134E-1,-7.375525E-2,5.796471E-1,1.0951135E0,1.7153889E0,7.634551E-1,-2.7436742E-1,-2.7353263E-1,-6.732886E-1,5.8537585E-1,1.7923782E0,-8.749681E-1,-2.0944682E-1,-2.5241998E-1,-2.728718E-1,-1.4080454E-1,-1.4080454E-1,-7.3275775E-2,3.1843607E0,-7.318445E-2,3.6839802E0,3.8125126E0,9.012222E-6,1.0025016E0,1.016953E0,-7.715723E-2,-5.157817E-1,7.0967786E-2,-7.690608E-2,1.016953E0,-6.732886E-1,1.3446424E0,6.5157413E-1,-1.9320363E-1,-2.0807293E-1,-2.556199E-1,2.4292471E0,1.5340389E0,-7.512517E-2,5.773556E-1,-2.570112E-1,-7.52165E-2,-7.462287E-2,-4.2104724E-1,-6.599235E-2,-2.2843257E-1,1.2981097E0,9.0300465E-1,-4.7725417E-2,-1.8409073E-1,5.796471E-1,3.2085127E-1,2.2846718E0,1.0324986E1,5.277362E-2,5.865216E-1,1.9836966E-2,-2.7393264E-1,1.432171E-1,-8.749681E-1,5.773556E-1,5.796471E-1,-7.63581E-2,7.687589E-2,-1.1507243E-1,-6.235376E-1,3.1843607E0,-2.6941097E-1,5.865216E-1,5.842301E-1,-7.64266E-2,3.6125488E0,2.4599373E0,5.7620984E-1,-1.4607401E-1,-2.4544618E-1,-7.715723E-2,-8.749681E-1,-8.3904946E-1,-7.686041E-2,5.819386E-1,-2.7257615E-1,8.343553E-2,5.773556E-1,-2.2348136E-1,3.356769E-1,-7.302462E-2,-5.9713535E-2,-6.405163E-2,8.4015965E-1,-1.541956E-1,-8.2614265E-2,-4.5832302E-2,5.8308434E-1,1.8491251E0,-7.149488E-2,-1.8371915E-2,-2.7384567E-1,3.1469655E0,5.7850134E-1,1.6752554E0,1.6352423E-1,3.742641E-2,-2.4353316E-1,8.4797806E-1,8.4507537E-1,1.0120683E-1,1.7516567E0,5.773556E-1,6.8857503E0,-6.7065455E-2,1.6785134E-1,5.3037833E-2,-1.8893648E-2,-1.0063281E-1,8.769484E-2,9.012222E-6,4.9613565E-2,-1.07301116E-1,-3.9552078E-2,1.0513415E-1,-6.577551E-2,7.491714E-2,-1.2788565E-1,9.012222E-6,-7.794635E-2,6.9411345E-2,7.042086E-3,-8.421117E-2,1.5719375E-1,-8.011161E-2,-1.13370076E-1,-1.2319473E-2,1.3843247E-1,1.7493593E-2,-4.0476207E-2,-1.497934E-1,1.3427994E-3,-1.5361784E-1,1.636703E-1,-1.4044969E-2,-2.0233367E-2,-1.0129588E-1,3.0407934E-2,1.1318537E-1,-8.2772695E-2,2.808004E-2,-6.273694E-2,4.4376567E-2,-1.3947084E-2,-9.309482E-2,1.0157424E-1,2.275092E-2,1.3697492E-1,1.0583808E-1,6.189106E-2,-2.5530899E-2,6.4610295E-2,1.6325963E-1,6.332323E-2,-5.3507327E-3,-2.1732852E-2,-1.5137525E-1,6.907574E-2,1.1705029E-1,5.1788013E-2,9.915116E-2,-6.080195E-2,1.803844E-2,-1.3463206E-2,1.21786274E-1,-7.641891E-2,1.866841E-2,1.146487E-2,-3.8125586E-2,-3.802243E-2,8.965049E-2,-9.219431E-2,1.4938164E-3,-1.23903714E-1,4.662233E-3,-9.187878E-2,-1.3039209E-1,-7.0176214E-2,8.912804E-2,-5.6488544E-2,2.418275E-2,-5.886339E-2,-1.2072048E-1,-8.678013E-2,-1.7834362E-2,1.0172319E-1,-7.106225E-2,-1.3472159E-1,-1.657479E-2,-5.4006733E-2,6.651027E-2,-1.0517186E-1,2.4014788E-2,-9.267964E-2,-2.886692E-2,-1.1427551E-1,-2.7974987E-2,-1.3993657E-1,-6.796783E-2,-1.15484096E-1,-3.2734957E-2,-9.205539E-2,3.455882E-2,-6.500555E-2,7.577552E-2,-3.1464768E-4,9.169179E-2,-1.5799768E-2,-1.3399604E-1],"split_indices":[1,2,7,1,2,2,2,5,5,4,5,1,5,50,2,76,2,2,4,5,26,7,2,2,2,2,2,1,26,1,2,26,0,6,26,1,7,0,1,26,4,4,7,2,2,2,23,0,1,5,2,1,1,4,1,7,7,7,0,2,5,1,76,64,0,5,0,2,0,7,5,5,1,7,0,7,26,2,5,5,1,26,50,5,2,2,1,7,7,1,5,2,4,5,2,4,1,1,1,4,2,2,2,5,4,1,2,2,18,5,7,0,0,2,2,1,1,30,5,2,1,0,0,0,0,0,0,0,0,0,0,0,0,0,0,0,0,0,0,0,0,0,0,0,0,0,0,0,0,0,0,0,0,0,0,0,0,0,0,0,0,0,0,0,0,0,0,0,0,0,0,0,0,0,0,0,0,0,0,0,0,0,0,0,0,0,0,0,0,0,0,0,0,0,0,0,0,0,0,0,0,0,0,0,0,0,0,0,0,0,0,0,0,0,0,0,0,0,0,0,0,0,0,0,0],"split_type":[0,0,0,0,0,0,0,0,0,0,0,0,0,0,0,0,0,0,0,0,0,0,0,0,0,0,0,0,0,0,0,0,0,0,0,0,0,0,0,0,0,0,0,0,0,0,0,0,0,0,0,0,0,0,0,0,0,0,0,0,0,0,0,0,0,0,0,0,0,0,0,0,0,0,0,0,0,0,0,0,0,0,0,0,0,0,0,0,0,0,0,0,0,0,0,0,0,0,0,0,0,0,0,0,0,0,0,0,0,0,0,0,0,0,0,0,0,0,0,0,0,0,0,0,0,0,0,0,0,0,0,0,0,0,0,0,0,0,0,0,0,0,0,0,0,0,0,0,0,0,0,0,0,0,0,0,0,0,0,0,0,0,0,0,0,0,0,0,0,0,0,0,0,0,0,0,0,0,0,0,0,0,0,0,0,0,0,0,0,0,0,0,0,0,0,0,0,0,0,0,0,0,0,0,0,0,0,0,0,0,0,0,0,0,0,0,0,0,0,0,0,0,0,0,0],"sum_hessian":[9.789112E3,4.4145234E3,5.374589E3,2.6900183E3,1.7245054E3,8.08343E2,4.566246E3,2.627481E3,6.25373E1,5.891088E2,1.1353966E3,5.032502E2,3.0509277E2,1.07350266E2,4.4588955E3,2.6158904E3,1.1590583E1,5.0177876E1,1.2359423E1,2.810498E2,3.08059E2,3.2133395E2,8.140626E2,2.1159186E2,2.9165836E2,1.3616557E2,1.689272E2,7.15974E1,3.575287E1,4.222705E3,2.361905E2,2.6148904E3,1E0,3.735149E0,7.8554344E0,4.1010048E1,9.167828E0,1.4910153E0,1.0868407E1,1.3376201E2,1.4728781E2,2.7889243E2,2.916658E1,1.3228152E2,1.8905244E2,5.799742E2,2.3408841E2,9.29699E1,1.1862196E2,2.6562359E1,2.6509598E2,4.1911114E1,9.425446E1,6.2092266E1,1.0683494E2,3.409633E1,3.7501064E1,3.4013374E1,1.739495E0,6.332761E2,3.5894292E3,1.5860022E2,7.7590294E1,2.6136624E3,1.2279065E0,2.4857273E0,1.2494215E0,2.9814296E0,4.874005E0,6.4650617E0,3.4544987E1,5.4722786E0,3.6955492E0,4.7037888E0,6.164619E0,1.0510865E2,2.865336E1,6.432652E0,1.4085515E2,2.045748E2,7.431761E1,2.6693922E1,2.4726577E0,1.1856408E2,1.3717437E1,1.0290684E2,8.614561E1,6.881452E1,5.1115967E2,1.8762527E2,4.6463135E1,8.822857E1,4.741334E0,6.3242455E1,5.537951E1,2.99424E0,2.356812E1,8.0271545E1,1.8482445E2,4.4886427E0,3.7422474E1,5.9763484E0,8.8278114E1,1.5608958E1,4.6483307E1,5.8200256E1,4.863468E1,1.3418644E1,2.0677685E1,2.9316048E1,8.185019E0,3.1780254E1,2.2331178E0,4.1738318E2,2.1589293E2,2.2429783E3,1.3464509E3,1.3598679E2,2.2613426E1,7.2116325E1,5.4739647E0,2.6124326E3,1.2298603E0,1.248476E0,1.2372513E0,1.9814295E0,1E0,3.9762917E0,2.4887698E0,2.2439613E0,3.2301025E1,1.2480946E0,4.224184E0,2.6955492E0,1E0,3.4596868E0,1.2441019E0,5.4238052E1,5.0870594E1,2.6916893E1,1.7364682E0,4.689041E0,1.743611E0,1.3460732E2,6.247845E0,5.657811E1,1.4799669E2,6.8581856E1,5.7357492E0,2.494578E1,1.7481427E0,1.2406373E0,1.2320204E0,6.2387366E0,1.1232535E2,5.9815707E0,7.7358656E0,2.8603594E1,7.4303246E1,4.565834E1,4.0487263E1,2.8210209E1,4.060431E1,2.4063626E2,2.7052344E2,1.4520883E2,4.2416435E1,1.996896E0,4.446624E1,2.2074903E1,6.615366E1,1.2482518E0,3.4930823E0,1.3096442E1,5.014601E1,3.5214073E1,2.0165436E1,1.2456999E0,1.7485402E0,1.476185E0,2.2091934E1,6.755303E1,1.2718507E1,1.3319687E2,5.1627575E1,2.7439933E0,1.7446492E0,3.14756E1,5.9468737E0,1.9870157E0,3.989333E0,2.469946E1,6.3578655E1,7.444887E0,8.164071E0,3.9004456E1,7.478852E0,2.8762962E1,2.9437294E1,1.5888275E1,3.2746407E1,4.483493E0,8.935151E0,1.871222E1,1.9654658E0,3.9784143E0,2.5337633E1,4.7123823E0,3.4726362E0,2.026948E2,2.1468837E2,2.040183E2,1.1874633E1,2.1873784E3,5.5599773E1,1.2753458E3,7.110502E1,1.24818726E2,1.1168064E1,8.703633E0,1.3909793E1,5.0547707E1,2.1568623E1,1.244919E0,4.229046E0],"tree_param":{"num_deleted":"0","num_feature":"108","num_nodes":"225","size_leaf_vector":"1"}},{"base_weights":[5.8517244E-4,1.1132809E0,-9.0371186E-1,1.5377185E0,4.6535003E-1,-1.6619448E-1,-1.0359601E0,1.5676007E0,3.095239E-1,-5.0787784E-2,7.319356E-1,1.496258E-1,-7.0355994E-1,5.1294243E-1,-1.06362E0,1.5715091E0,6.487752E-1,7.381218E-1,-1.8144995E-1,5.9901035E-1,-6.4356697E-1,2.7281407E-1,9.1402644E-1,4.797823E-1,-8.839117E-2,-9.5110995E-1,-5.029258E-1,-8.5478984E-2,1.4338261E0,-1.1032863E0,-3.5780728E-1,1.5721333E0,8.559227E-6,-3.4171307E-1,1.243793E0,9.185499E-1,-1.1148685E-1,4.2079774E-1,-5.162031E-1,-1.0978415E-1,1.0434923E0,-8.38662E-1,1.2128059E0,8.726128E-1,-1.4467171E-1,1.0376387E0,5.9825265E-1,3.4530282E-2,8.2469773E-1,8.962592E-1,-1.8722557E-1,-1.2678682E-2,-9.971909E-1,-1.7779188E-1,-6.000274E-1,-6.423458E-1,3.9179903E-1,1.4827324E-1,1.3850196E-2,-8.51785E-1,-1.2358472E0,-6.073022E-1,1.5067251E-1,1.5724531E0,5.008216E-2,1.0222214E-2,-6.8008125E-2,1.3962583E-1,5.728373E-2,-4.0124953E-1,1.071636E0,-4.8709415E-2,6.9531584E-1,1.1353049E-1,-8.9694333E-1,-4.7094688E-1,1.2673165E0,6.854522E-1,1.4213266E0,-1.0853825E0,2.3791846E-2,1.4194679E0,-7.419548E-1,1.0473796E0,3.0128509E-2,1.2883894E-1,-4.6926042E-1,5.5741966E-1,1.1165458E0,3.706266E-1,1.4998894E0,1.11918174E-1,-1.1804801E0,6.941972E-1,1.0330502E0,-2.0697218E-1,1.041406E0,-3.544079E-1,1.702543E-1,-7.280935E-1,1.2392302E-1,-7.9877E-1,-1.1726394E0,-7.717508E-1,3.7310693E-1,-7.149888E-1,-2.5444254E-1,3.8870737E-1,-1.1135262E0,-6.685373E-1,5.9045297E-1,-6.1539483E-1,-1.0425963E0,-1.2641027E0,-6.457491E-1,-7.143079E-1,3.8612074E-1,2.5566134E-1,-1.2275696E0,1.572772E-1,5.032835E-2,2.9856851E-2,-8.261825E-2,1.1873537E-1,4.3297872E-2,1.3286203E-1,2.1899015E-2,7.5351484E-2,-3.2339048E-2,-1.0609323E-1,-3.9381538E-2,-7.163123E-3,-9.8263815E-2,1.4792494E-1,-1.0572918E-1,-2.7744373E-2,9.46484E-2,1.5108262E-1,-1.2799308E-2,-4.5689475E-2,-1.3891882E-1,1.04500614E-1,-2.6289439E-2,1.5327463E-1,-1.3156001E-2,-1.911832E-2,-9.63768E-2,2.9495442E-2,1.0863948E-1,3.102148E-2,-5.619811E-2,-5.697903E-2,4.0112164E-2,-5.7647265E-2,8.903755E-2,8.829151E-2,3.1366386E-2,1.2799695E-1,9.700729E-2,5.6084644E-2,-2.2503536E-2,4.9350083E-2,1.5286593E-1,5.7475347E-2,-4.8238416E-3,-2.0528784E-2,-1.4074083E-1,7.490373E-2,-4.7716144E-3,1.1757737E-1,4.3614086E-2,2.5442397E-2,-5.088076E-2,1.1228242E-1,-2.5092587E-2,-8.080771E-2,-2.131608E-2,3.6643703E-2,-2.8391967E-2,-1.2203491E-2,-9.97812E-2,-1.1231009E-1,-5.400569E-2,-7.889632E-3,-1.2106081E-1,-9.221808E-2,2.6849633E-2,9.663731E-2,5.6688613E-3,-5.5564713E-2,-9.962014E-2,-4.1646864E-2,4.2031534E-2,8.88459E-2,-4.08887E-2,-1.2349963E-1,-1.6130054E-2,-1.0497712E-2,-9.608132E-2,7.576487E-2,-6.814667E-2,-6.394952E-2,1.5764579E-1,-1.0713053E-1,1.0260061E-1,-1.3646801E-1,-1.1539145E-1,-7.018747E-2,9.705851E-2,-7.6725855E-2,9.934113E-2,7.154916E-2,-8.9735016E-2,3.679383E-2,-1.02927916E-1,-1.441386E-1,-4.6928782E-2],"categories":[],"categories_nodes":[],"categories_segments":[],"categories_sizes":[],"default_left":[0,0,0,0,0,0,0,0,0,0,0,0,0,0,0,0,0,0,0,0,0,0,0,0,0,0,0,0,0,0,0,0,0,0,0,0,0,0,0,0,0,0,0,0,0,0,0,0,0,0,0,0,0,0,0,0,0,0,0,0,0,0,0,0,0,0,0,0,0,0,0,0,0,0,0,0,0,0,0,0,0,0,0,0,0,0,0,0,0,0,0,0,0,0,0,0,0,0,0,0,0,0,0,0,0,0,0,0,0,0,0,0,0,0,0,0,0,0,0,0,0,0,0,0,0,0,0,0,0,0,0,0,0,0,0,0,0,0,0,0,0,0,0,0,0,0,0,0,0,0,0,0,0,0,0,0,0,0,0,0,0,0,0,0,0,0,0,0,0,0,0,0,0,0,0,0,0,0,0,0,0,0,0,0,0,0,0,0,0,0,0,0,0,0,0,0,0,0,0,0,0,0,0,0,0,0,0,0,0,0,0,0,0,0,0,0,0],"id":3,"left_children":[1,3,5,7,9,11,13,15,17,19,21,23,25,27,29,31,33,35,37,39,41,43,45,47,49,51,53,55,57,59,61,63,-1,65,67,69,-1,71,73,75,77,79,81,83,85,87,89,91,93,95,97,99,101,103,105,107,109,-1,-1,111,113,115,117,119,-1,-1,-1,-1,-1,121,123,-1,125,127,129,131,133,135,137,139,141,143,145,147,149,151,153,155,157,159,161,163,165,167,169,171,173,175,177,179,-1,181,183,185,187,189,191,193,195,197,199,201,203,205,207,209,211,213,215,-1,-1,-1,-1,-1,-1,-1,-1,-1,-1,-1,-1,-1,-1,-1,-1,-1,-1,-1,-1,-1,-1,-1,-1,-1,-1,-1,-1,-1,-1,-1,-1,-1,-1,-1,-1,-1,-1,-1,-1,-1,-1,-1,-1,-1,-1,-1,-1,-1,-1,-1,-1,-1,-1,-1,-1,-1,-1,-1,-1,-1,-1,-1,-1,-1,-1,-1,-1,-1,-1,-1,-1,-1,-1,-1,-1,-1,-1,-1,-1,-1,-1,-1,-1,-1,-1,-1,-1,-1,-1,-1,-1,-1,-1,-1,-1,-1,-1],"loss_changes":[9.62939E3,1.1792256E3,5.147539E2,9.464258E1,2.3389755E2,1.3653984E2,1.923291E2,8.067871E0,1.3351301E1,2.2371962E2,9.345349E1,3.9896717E1,1.4310516E1,4.3774246E1,1.22742676E2,2.4702148E0,7.7449822E0,1.2302124E1,6.281063E0,8.741976E1,1.1100383E2,8.0185394E1,3.0688293E1,3.26236E1,2.8929808E1,5.703041E0,5.1526375E0,1.3263114E1,1.774704E0,1.3776367E2,2.9968697E1,7.470703E-2,0E0,8.875238E-1,1.5954971E-2,6.75156E0,0E0,3.1541586E0,4.8447127E0,5.4166473E1,2.2078812E1,5.8626602E1,1.2885475E1,1.9308334E1,1.687195E1,2.116925E1,4.6241592E1,8.956727E0,2.539215E0,4.56028E0,1.6161818E1,7.350275E0,3.4488144E0,1.3288416E1,4.897663E0,1.1593321E1,6.078395E0,0E0,0E0,6.4326904E1,4.46084E1,1.709134E1,1.1646866E1,6.640625E-2,0E0,0E0,0E0,0E0,0E0,1.4300957E0,1.5780296E0,0E0,2.4498649E0,2.5760536E0,6.086006E-1,1.7513687E1,1.2722652E1,2.2740112E1,1.15612335E1,4.025699E1,1.8495808E1,4.916046E0,2.3810792E-1,2.8721771E0,4.087557E0,1.9926844E1,1.3167793E1,6.320841E0,1.05578E1,2.0904907E1,5.668564E-1,6.6357284E0,9.738898E-1,3.1559029E0,3.2420654E0,6.849631E-1,2.8221169E0,1.1611443E1,7.8134513E0,7.300875E-1,0E0,4.6170425E0,2.5922165E0,3.290328E0,3.94119E0,3.7206993E0,3.834036E0,3.5308483E0,1.6544857E0,6.776719E-1,5.461973E0,3.5121063E1,4.834613E1,2.7226562E1,1.21601715E1,1.3707008E1,7.419033E0,1.0997586E1,2.5036335E-1,0E0,0E0,0E0,0E0,0E0,0E0,0E0,0E0,0E0,0E0,0E0,0E0,0E0,0E0,0E0,0E0,0E0,0E0,0E0,0E0,0E0,0E0,0E0,0E0,0E0,0E0,0E0,0E0,0E0,0E0,0E0,0E0,0E0,0E0,0E0,0E0,0E0,0E0,0E0,0E0,0E0,0E0,0E0,0E0,0E0,0E0,0E0,0E0,0E0,0E0,0E0,0E0,0E0,0E0,0E0,0E0,0E0,0E0,0E0,0E0,0E0,0E0,0E0,0E0,0E0,0E0,0E0,0E0,0E0,0E0,0E0,0E0,0E0,0E0,0E0,0E0,0E0,0E0,0E0,0E0,0E0,0E0,0E0,0E0,0E0,0E0,0E0,0E0,0E0,0E0,0E0,0E0,0E0,0E0,0E0,0E0,0E0,0E0],"parents":[2147483647,0,0,1,1,2,2,3,3,4,4,5,5,6,6,7,7,8,8,9,9,10,10,11,11,12,12,13,13,14,14,15,15,16,16,17,17,18,18,19,19,20,20,21,21,22,22,23,23,24,24,25,25,26,26,27,27,28,28,29,29,30,30,31,31,33,33,34,34,35,35,37,37,38,38,39,39,40,40,41,41,42,42,43,43,44,44,45,45,46,46,47,47,48,48,49,49,50,50,51,51,52,52,53,53,54,54,55,55,56,56,59,59,60,60,61,61,62,62,63,63,69,69,70,70,72,72,73,73,74,74,75,75,76,76,77,77,78,78,79,79,80,80,81,81,82,82,83,83,84,84,85,85,86,86,87,87,88,88,89,89,90,90,91,91,92,92,93,93,94,94,95,95,96,96,97,97,98,98,99,99,101,101,102,102,103,103,104,104,105,105,106,106,107,107,108,108,109,109,110,110,111,111,112,112,113,113,114,114,115,115,116,116,117,117,118,118],"right_children":[2,4,6,8,10,12,14,16,18,20,22,24,26,28,30,32,34,36,38,40,42,44,46,48,50,52,54,56,58,60,62,64,-1,66,68,70,-1,72,74,76,78,80,82,84,86,88,90,92,94,96,98,100,102,104,106,108,110,-1,-1,112,114,116,118,120,-1,-1,-1,-1,-1,122,124,-1,126,128,130,132,134,136,138,140,142,144,146,148,150,152,154,156,158,160,162,164,166,168,170,172,174,176,178,180,-1,182,184,186,188,190,192,194,196,198,200,202,204,206,208,210,212,214,216,-1,-1,-1,-1,-1,-1,-1,-1,-1,-1,-1,-1,-1,-1,-1,-1,-1,-1,-1,-1,-1,-1,-1,-1,-1,-1,-1,-1,-1,-1,-1,-1,-1,-1,-1,-1,-1,-1,-1,-1,-1,-1,-1,-1,-1,-1,-1,-1,-1,-1,-1,-1,-1,-1,-1,-1,-1,-1,-1,-1,-1,-1,-1,-1,-1,-1,-1,-1,-1,-1,-1,-1,-1,-1,-1,-1,-1,-1,-1,-1,-1,-1,-1,-1,-1,-1,-1,-1,-1,-1,-1,-1,-1,-1,-1,-1,-1,-1],"split_conditions":[-7.6061286E-2,-2.730283E-1,-8.749681E-1,-7.7202894E-2,-2.6170677E-1,-2.0555124E-1,-2.728718E-1,5.8537585E-1,5.842301E-1,5.879183E-1,5.7850134E-1,-7.375525E-2,5.796471E-1,1.016953E0,1.7153889E0,7.634551E-1,-2.7428046E-1,1.666725E-1,-4.8917803E-1,5.819386E-1,1.7923782E0,-8.749681E-1,-2.0807293E-1,-2.5241998E-1,-2.728718E-1,-7.542199E-2,-4.2104724E-1,-7.3275775E-2,1.5678473E0,-1.9464707E-1,3.6839802E0,3.8125126E0,8.559227E-6,5.865216E-1,-2.7384567E-1,5.773556E-1,-1.1148685E-1,-7.713439E-2,5.879183E-1,1.016953E0,3.356769E-1,-2.684371E-1,6.5157413E-1,-2.1268155E-1,-2.0807293E-1,-2.5415906E-1,2.4292471E0,1.5340389E0,-2.2348136E-1,5.773556E-1,-2.2902907E-1,8.4015965E-1,-4.5832302E-2,5.819386E-1,-5.9941854E-2,-4.9782237E-1,-1.1496999E0,1.4827324E-1,1.3850196E-2,3.2830638E-1,2.1445386E-1,8.4507537E-1,2.7062457E0,1.0324986E1,5.008216E-2,1.0222214E-2,-6.8008125E-2,1.3962583E-1,5.728373E-2,5.432388E-3,-2.7353263E-1,-4.8709415E-2,-7.681475E-2,-8.2109016E-1,-2.2843257E-1,-5.33741E-1,3.1843607E0,-3.361885E-1,-7.7202894E-2,5.842301E-1,-2.6798493E-1,3.6125488E0,2.4599373E0,5.7620984E-1,-7.704307E-2,-2.4544618E-1,2.1039386E0,-8.749681E-1,-8.3904946E-1,-7.690608E-2,5.819386E-1,-2.7257615E-1,8.343553E-2,-2.2582914E-1,-2.1355109E-1,-2.7393264E-1,5.865216E-1,-9.112456E-1,-6.44626E-2,-1.6923882E-1,1.2392302E-1,5.773556E-1,-7.416623E-2,6.060345E-1,-1.6923882E-1,5.140715E-3,1.8491251E0,-2.7384567E-1,3.1469655E0,-4.2104724E-1,1.8377832E0,7.122147E0,5.01045E0,5.7850134E-1,6.1450005E0,4.345505E0,1.7746408E0,2.2846718E0,1.3908459E0,1.572772E-1,5.032835E-2,2.9856851E-2,-8.261825E-2,1.1873537E-1,4.3297872E-2,1.3286203E-1,2.1899015E-2,7.5351484E-2,-3.2339048E-2,-1.0609323E-1,-3.9381538E-2,-7.163123E-3,-9.8263815E-2,1.4792494E-1,-1.0572918E-1,-2.7744373E-2,9.46484E-2,1.5108262E-1,-1.2799308E-2,-4.5689475E-2,-1.3891882E-1,1.04500614E-1,-2.6289439E-2,1.5327463E-1,-1.3156001E-2,-1.911832E-2,-9.63768E-2,2.9495442E-2,1.0863948E-1,3.102148E-2,-5.619811E-2,-5.697903E-2,4.0112164E-2,-5.7647265E-2,8.903755E-2,8.829151E-2,3.1366386E-2,1.2799695E-1,9.700729E-2,5.6084644E-2,-2.2503536E-2,4.9350083E-2,1.5286593E-1,5.7475347E-2,-4.8238416E-3,-2.0528784E-2,-1.4074083E-1,7.490373E-2,-4.7716144E-3,1.1757737E-1,4.3614086E-2,2.5442397E-2,-5.088076E-2,1.1228242E-1,-2.5092587E-2,-8.080771E-2,-2.131608E-2,3.6643703E-2,-2.8391967E-2,-1.2203491E-2,-9.97812E-2,-1.1231009E-1,-5.400569E-2,-7.889632E-3,-1.2106081E-1,-9.221808E-2,2.6849633E-2,9.663731E-2,5.6688613E-3,-5.5564713E-2,-9.962014E-2,-4.1646864E-2,4.2031534E-2,8.88459E-2,-4.08887E-2,-1.2349963E-1,-1.6130054E-2,-1.0497712E-2,-9.608132E-2,7.576487E-2,-6.814667E-2,-6.394952E-2,1.5764579E-1,-1.0713053E-1,1.0260061E-1,-1.3646801E-1,-1.1539145E-1,-7.018747E-2,9.705851E-2,-7.6725855E-2,9.934113E-2,7.154916E-2,-8.9735016E-2,3.679383E-2,-1.02927916E-1,-1.441386E-1,-4.6928782E-2],"split_indices":[1,2,7,1,2,2,2,5,5,4,5,1,5,26,2,76,2,7,0,5,26,7,2,2,2,1,4,1,89,2,2,26,0,5,2,5,0,1,4,26,4,2,7,2,2,2,23,0,2,5,2,4,2,5,1,7,0,0,0,7,1,1,39,64,0,0,0,0,0,0,2,0,1,7,7,7,26,7,1,5,2,26,50,5,1,2,2,7,7,1,5,2,4,2,2,2,5,0,1,2,0,5,1,2,2,2,4,2,18,4,76,28,25,5,30,96,76,76,89,0,0,0,0,0,0,0,0,0,0,0,0,0,0,0,0,0,0,0,0,0,0,0,0,0,0,0,0,0,0,0,0,0,0,0,0,0,0,0,0,0,0,0,0,0,0,0,0,0,0,0,0,0,0,0,0,0,0,0,0,0,0,0,0,0,0,0,0,0,0,0,0,0,0,0,0,0,0,0,0,0,0,0,0,0,0,0,0,0,0,0,0,0,0,0,0,0,0],"split_type":[0,0,0,0,0,0,0,0,0,0,0,0,0,0,0,0,0,0,0,0,0,0,0,0,0,0,0,0,0,0,0,0,0,0,0,0,0,0,0,0,0,0,0,0,0,0,0,0,0,0,0,0,0,0,0,0,0,0,0,0,0,0,0,0,0,0,0,0,0,0,0,0,0,0,0,0,0,0,0,0,0,0,0,0,0,0,0,0,0,0,0,0,0,0,0,0,0,0,0,0,0,0,0,0,0,0,0,0,0,0,0,0,0,0,0,0,0,0,0,0,0,0,0,0,0,0,0,0,0,0,0,0,0,0,0,0,0,0,0,0,0,0,0,0,0,0,0,0,0,0,0,0,0,0,0,0,0,0,0,0,0,0,0,0,0,0,0,0,0,0,0,0,0,0,0,0,0,0,0,0,0,0,0,0,0,0,0,0,0,0,0,0,0,0,0,0,0,0,0,0,0,0,0,0,0,0,0,0,0,0,0,0,0,0,0,0,0],"sum_hessian":[9.567983E3,4.289599E3,5.278385E3,2.5909692E3,1.69863E3,8.0292334E2,4.4754614E3,2.5291582E3,6.1811127E1,5.788073E2,1.1198226E3,5.0616293E2,2.9676038E2,7.821167E1,4.3972495E3,2.5177378E3,1.1420226E1,3.273317E1,2.9077957E1,2.7611862E2,3.0268872E2,3.1871555E2,8.011071E2,2.1161423E2,2.945487E2,1.3117328E2,1.6558711E2,4.7955643E1,3.0256025E1,4.162742E3,2.3450734E2,2.5167378E3,1E0,4.4456105E0,6.9746156E0,3.0288252E1,2.4449186E0,1.0296568E1,1.878139E1,1.0670853E2,1.6941008E2,2.7439905E2,2.828967E1,1.3035103E2,1.8836452E2,5.740892E2,2.2701796E2,9.285178E1,1.1876244E2,2.6132454E1,2.6841623E2,6.199368E0,1.2497391E2,3.873112E1,1.26855995E2,2.1972847E1,2.5982796E1,2.9015821E1,1.240203E0,1.4393533E3,2.723389E3,1.5718654E2,7.73208E1,2.5155193E3,1.2187167E0,2.2247112E0,2.2208993E0,4.802349E0,2.1722665E0,2.979556E0,2.7308697E1,2.2107544E0,8.0858135E0,7.3411508E0,1.1440239E1,8.505876E1,2.1649761E1,8.842846E1,8.098162E1,2.131618E2,6.1237255E1,2.5832441E1,2.4572287E0,1.07754906E2,2.259612E1,1.02552765E2,8.581175E1,8.215682E1,4.9193234E2,1.8238448E2,4.4633484E1,8.814541E1,4.7063756E0,7.568766E1,4.307479E1,2.9888527E0,2.31436E1,1.828919E2,8.552433E1,4.211233E0,1.9881347E0,6.1253204E1,6.3720703E1,1.844428E1,2.0286842E1,9.438812E1,3.246787E1,6.9467545E0,1.5026093E1,3.7265587E0,2.2256237E1,6.4478046E2,7.945728E2,2.5978545E3,1.25534584E2,1.4215536E2,1.5031177E1,7.260458E1,4.716218E0,2.5142983E3,1.2207655E0,1.2380306E0,1.7415257E0,2.239231E1,4.916387E0,2.70287E0,5.3829436E0,2.6844597E0,4.656691E0,7.7918873E0,3.6483517E0,4.8415825E1,3.664294E1,2.0174154E1,1.4756079E0,1.8846066E1,6.95824E1,7.658252E1,4.3990984E0,7.027882E1,1.4288298E2,1.2843146E1,4.8394108E1,2.4085184E1,1.7472569E0,1.2400478E0,1.2171808E0,5.733909E0,1.02020996E2,1.5663081E1,6.93304E0,2.8453493E1,7.409927E1,8.007366E1,5.738091E0,3.405709E1,4.8099728E1,2.2885469E2,2.6307764E2,1.3828326E2,4.4101204E1,1.7450147E0,4.288847E1,2.1994623E1,6.615079E1,1.2479824E0,3.4583933E0,7.046918E1,5.218481E0,3.398021E1,9.094582E0,1.2441218E0,1.7447311E0,2.1895338E1,1.2482631E0,4.2301964E1,1.4058994E2,5.9860477E1,2.5663857E1,1.7442803E0,2.4669528E0,2.5697239E1,3.5555965E1,2.241086E0,6.1479614E1,1.6213192E1,2.2310886E0,6.34195E0,1.3944893E1,6.214895E1,3.2239174E1,2.64898E1,5.97807E0,4.2007513E0,2.7460032E0,1.3062787E1,1.9633055E0,1.7368234E0,1.9897352E0,2.002787E1,2.2283666E0,6.3846844E2,6.3119807E0,7.841719E2,1.0400959E1,1.3522064E3,1.2456481E3,1.21868576E2,3.6660087E0,1.384143E2,3.7410536E0,1.23137045E1,2.717472E0,6.742656E1,5.1780205E0,2.9761584E0,1.7400599E0],"tree_param":{"num_deleted":"0","num_feature":"108","num_nodes":"217","size_leaf_vector":"1"}},{"base_weights":[1.0087735E-3,1.020044E0,-8.5052043E-1,1.448939E0,4.1375715E-1,-1.7790093E-1,-9.691809E-1,1.483375E0,2.2999464E-1,-2.0696918E-2,6.6734844E-1,1.2027344E-1,-6.5136033E-1,2.7141145E-1,-9.9897665E-1,1.4872359E0,6.0466886E-1,4.362458E-1,-6.2654614E-1,5.1307195E-1,-5.171993E-1,8.7407905E-1,2.2908781E-1,4.620429E-1,-6.384373E-2,-8.671762E-1,-4.7499514E-1,-2.0628393E-1,1.2778176E0,-1.0382015E0,-3.2503948E-1,1.4878553E0,8.130074E-6,-3.1902173E-1,1.1698363E0,-6.8380535E-1,5.384459E-1,6.583569E-2,-8.326698E-1,-1.5172157E-1,8.731071E-1,5.771135E-2,-1.0492845E0,1.0926766E0,6.765695E-1,-1.3987194E-1,9.6317714E-1,-1.2453292E-1,7.0250374E-1,8.599355E-1,-1.5867884E-1,-5.4873776E-1,-1.0053471E0,-3.1482887E-2,-5.3731924E-1,-5.5479586E-1,4.3114278E-1,1.3861725E0,-4.3729592E-2,-8.191837E-1,-1.1498746E0,-4.34778E-1,6.619031E-1,1.488167E0,4.7560498E-2,9.519733E-3,-6.358179E-2,1.315584E-1,5.371962E-2,-1.811002E-2,-1.07959166E-1,8.853892E-1,1.3269503E-1,-3.4848544E-1,-1.1804642E-1,-3.9719924E-1,1.0936525E0,3.831131E-1,1.1603044E0,-1.7230538E-1,1.1804329E0,-1.2765001E0,4.329487E-1,7.370716E-1,1.1615639E0,4.5713735E-1,1.1617986E0,2.4569416E-1,-5.8091813E-1,1.1501577E0,2.9974535E-1,6.1039513E-1,-5.1913667E-1,5.3661406E-1,1.1191514E0,5.646543E-2,1.023218E0,-5.2090174E-1,2.425113E-3,-1.0007235E0,-3.356637E-1,-1.023684E0,-2.2158323E-1,9.6044236E-1,-2.5845063E-1,-6.567593E-1,-1.9009541E-1,-4.6654984E-2,-1.0467045E0,-3.3239716E-1,6.9315E-1,1.4561574E-1,3.2066625E-2,-8.352717E-1,1.1289206E0,-1.1775535E0,-5.869502E-1,-5.792714E-1,3.1707004E-1,8.035717E-1,-7.3268704E-2,1.4884777E-1,4.779045E-2,1.0213993E-1,-6.1151005E-2,3.2131236E-2,-7.195737E-2,1.818225E-2,-9.020853E-2,-1.0435301E-2,-8.449491E-2,1.3311453E-1,-1.0047885E-1,1.2356191E-2,1.5051474E-1,1.23612486E-1,-2.477339E-2,2.6129952E-2,-5.5159714E-2,1.3540265E-1,-9.2567414E-2,-1.3381255E-1,1.5583774E-1,1.4870428E-1,-9.590605E-2,8.002609E-2,-6.438122E-2,1.17273845E-1,-5.309499E-2,-1.5673768E-2,6.6710316E-2,1.186862E-1,-4.1228373E-2,2.9335389E-2,-1.3174914E-1,-7.7075966E-2,7.302076E-2,4.4946074E-2,1.3177598E-1,1.375461E-1,-1.0679853E-3,7.6048024E-2,-2.8763443E-2,-8.8625446E-2,9.271447E-3,7.546451E-2,3.2476295E-2,1.2536843E-1,3.444449E-2,-6.1080594E-2,4.7869563E-2,1.1039399E-1,-2.369263E-2,-6.49408E-2,1.98991E-2,-3.9242238E-2,1.2178759E-2,-2.596192E-2,-1.1709841E-1,3.4324717E-2,-5.9337188E-2,-1.04228996E-1,-1.9541977E-2,6.6518597E-3,-4.068738E-2,1.9339329E-2,1.2958483E-1,-6.607963E-2,4.1370414E-2,-3.6311153E-2,-7.929901E-2,2.220777E-2,-4.3884188E-2,3.978221E-2,-9.1118835E-2,-1.1062622E-1,3.1892953E-3,7.4982755E-2,-8.871156E-2,1.5360822E-2,9.367922E-2,-6.1365385E-2,-9.938172E-2,1.849416E-2,1.4049329E-1,-1.250746E-1,-1.0280436E-1,-9.8831266E-2,-3.3447985E-2,-1.847E-2,-9.678131E-2,-5.5731088E-2,8.143685E-2,9.548455E-2,1.9554913E-2],"categories":[],"categories_nodes":[],"categories_segments":[],"categories_sizes":[],"default_left":[0,0,0,0,0,0,0,0,0,0,0,0,0,0,0,0,0,0,0,0,0,0,0,0,0,0,0,0,0,0,0,0,0,0,0,0,0,0,0,0,0,0,0,0,0,0,0,0,0,0,0,0,0,0,0,0,0,0,0,0,0,0,0,0,0,0,0,0,0,0,0,0,0,0,0,0,0,0,0,0,0,0,0,0,0,0,0,0,0,0,0,0,0,0,0,0,0,0,0,0,0,0,0,0,0,0,0,0,0,0,0,0,0,0,0,0,0,0,0,0,0,0,0,0,0,0,0,0,0,0,0,0,0,0,0,0,0,0,0,0,0,0,0,0,0,0,0,0,0,0,0,0,0,0,0,0,0,0,0,0,0,0,0,0,0,0,0,0,0,0,0,0,0,0,0,0,0,0,0,0,0,0,0,0,0,0,0,0,0,0,0,0,0,0,0,0,0,0,0,0,0,0,0,0,0,0,0,0,0,0,0,0,0,0,0],"id":4,"left_children":[1,3,5,7,9,11,13,15,17,19,21,23,25,27,29,31,33,35,37,39,41,43,45,47,49,51,53,55,57,59,61,63,-1,65,67,69,71,-1,73,75,77,79,81,83,85,87,89,91,93,95,97,99,101,103,105,107,109,111,-1,113,115,117,119,121,-1,-1,-1,-1,-1,-1,-1,123,125,127,-1,129,131,133,135,137,139,141,143,145,147,149,151,153,155,157,159,161,163,165,167,169,171,173,175,177,179,181,183,185,187,189,191,193,195,197,199,-1,-1,201,203,205,207,209,211,213,-1,-1,-1,-1,-1,-1,-1,-1,-1,-1,-1,-1,-1,-1,-1,-1,-1,-1,-1,-1,-1,-1,-1,-1,-1,-1,-1,-1,-1,-1,-1,-1,-1,-1,-1,-1,-1,-1,-1,-1,-1,-1,-1,-1,-1,-1,-1,-1,-1,-1,-1,-1,-1,-1,-1,-1,-1,-1,-1,-1,-1,-1,-1,-1,-1,-1,-1,-1,-1,-1,-1,-1,-1,-1,-1,-1,-1,-1,-1,-1,-1,-1,-1,-1,-1,-1,-1,-1,-1,-1,-1,-1,-1,-1,-1],"loss_changes":[8.0762856E3,1.1011396E3,4.045105E2,1.0380371E2,1.9357056E2,1.0759296E2,1.5957959E2,7.2856445E0,1.2524858E1,1.7212431E2,1.0030896E2,2.9487093E1,1.0795349E1,4.9237408E1,1.1092578E2,2.2124023E0,6.763016E0,6.833537E0,4.2213535E0,7.505216E1,1.0298628E2,3.1790161E1,9.6806526E1,2.3222088E1,2.6866558E1,5.221054E0,4.5230103E0,1.5776541E1,6.725525E0,9.6328125E1,2.5517765E1,4.9804688E-2,0E0,7.7333665E-1,1.3219833E-2,8.317895E-1,7.2474194E0,0E0,1.6755924E0,3.4312683E1,2.8150314E1,4.2212852E1,5.9420883E1,7.8645935E0,4.1891953E1,4.068448E1,1.4480766E1,1.4393116E1,7.450325E0,3.6894264E0,1.6197971E1,3.6996822E0,1.0709076E0,5.043292E0,5.8448715E0,1.1363058E1,5.288831E0,1.8604507E0,0E0,4.314337E1,4.0310303E1,2.3024101E1,5.2724695E0,4.1503906E-2,0E0,0E0,0E0,0E0,0E0,0E0,0E0,6.330574E0,4.296867E0,2.101523E0,0E0,1.2146098E1,1.0563869E1,2.2116245E1,1.3930252E1,2.2492172E1,1.1412846E1,2.86073E1,3.661207E1,5.7949753E0,6.2301636E0,3.5680134E1,5.3586273E0,9.915697E0,2.8315907E1,1.0315796E1,9.241146E0,2.566136E0,7.2973394E0,3.691782E0,2.9292946E0,1.9497583E0,2.670311E0,8.034077E0,9.148792E0,1.3263121E0,5.449545E0,1.1517944E0,2.053924E-1,8.2428E-1,5.1738853E0,3.980278E0,4.0190086E0,9.394134E0,1.5224972E0,4.9490304E0,2.3734188E0,0E0,0E0,4.633368E1,2.7244673E0,2.6150146E1,1.2368317E1,2.6911705E1,1.5472187E1,1.8365536E0,0E0,0E0,0E0,0E0,0E0,0E0,0E0,0E0,0E0,0E0,0E0,0E0,0E0,0E0,0E0,0E0,0E0,0E0,0E0,0E0,0E0,0E0,0E0,0E0,0E0,0E0,0E0,0E0,0E0,0E0,0E0,0E0,0E0,0E0,0E0,0E0,0E0,0E0,0E0,0E0,0E0,0E0,0E0,0E0,0E0,0E0,0E0,0E0,0E0,0E0,0E0,0E0,0E0,0E0,0E0,0E0,0E0,0E0,0E0,0E0,0E0,0E0,0E0,0E0,0E0,0E0,0E0,0E0,0E0,0E0,0E0,0E0,0E0,0E0,0E0,0E0,0E0,0E0,0E0,0E0,0E0,0E0,0E0,0E0,0E0,0E0,0E0,0E0,0E0,0E0,0E0,0E0,0E0,0E0,0E0],"parents":[2147483647,0,0,1,1,2,2,3,3,4,4,5,5,6,6,7,7,8,8,9,9,10,10,11,11,12,12,13,13,14,14,15,15,16,16,17,17,18,18,19,19,20,20,21,21,22,22,23,23,24,24,25,25,26,26,27,27,28,28,29,29,30,30,31,31,33,33,34,34,35,35,36,36,38,38,39,39,40,40,41,41,42,42,43,43,44,44,45,45,46,46,47,47,48,48,49,49,50,50,51,51,52,52,53,53,54,54,55,55,56,56,57,57,59,59,60,60,61,61,62,62,63,63,71,71,72,72,73,73,75,75,76,76,77,77,78,78,79,79,80,80,81,81,82,82,83,83,84,84,85,85,86,86,87,87,88,88,89,89,90,90,91,91,92,92,93,93,94,94,95,95,96,96,97,97,98,98,99,99,100,100,101,101,102,102,103,103,104,104,105,105,106,106,107,107,108,108,109,109,110,110,113,113,114,114,115,115,116,116,117,117,118,118,119,119],"right_children":[2,4,6,8,10,12,14,16,18,20,22,24,26,28,30,32,34,36,38,40,42,44,46,48,50,52,54,56,58,60,62,64,-1,66,68,70,72,-1,74,76,78,80,82,84,86,88,90,92,94,96,98,100,102,104,106,108,110,112,-1,114,116,118,120,122,-1,-1,-1,-1,-1,-1,-1,124,126,128,-1,130,132,134,136,138,140,142,144,146,148,150,152,154,156,158,160,162,164,166,168,170,172,174,176,178,180,182,184,186,188,190,192,194,196,198,200,-1,-1,202,204,206,208,210,212,214,-1,-1,-1,-1,-1,-1,-1,-1,-1,-1,-1,-1,-1,-1,-1,-1,-1,-1,-1,-1,-1,-1,-1,-1,-1,-1,-1,-1,-1,-1,-1,-1,-1,-1,-1,-1,-1,-1,-1,-1,-1,-1,-1,-1,-1,-1,-1,-1,-1,-1,-1,-1,-1,-1,-1,-1,-1,-1,-1,-1,-1,-1,-1,-1,-1,-1,-1,-1,-1,-1,-1,-1,-1,-1,-1,-1,-1,-1,-1,-1,-1,-1,-1,-1,-1,-1,-1,-1,-1,-1,-1,-1,-1,-1,-1],"split_conditions":[-7.583297E-2,-2.730283E-1,-8.749681E-1,-7.7202894E-2,-2.5841987E-1,-2.0689034E-1,-2.7165443E-1,5.8537585E-1,5.865216E-1,5.879183E-1,-2.0944682E-1,-7.40064E-2,5.796471E-1,1.0951135E0,1.7153889E0,7.634551E-1,-2.7428046E-1,5.773556E-1,-6.732886E-1,5.8079284E-1,5.842301E-1,-8.749681E-1,5.819386E-1,-2.6170677E-1,-2.728718E-1,-1.4080454E-1,-6.732886E-1,-6.896052E-2,3.1843607E0,-1.9464707E-1,6.8857503E0,3.8125126E0,8.130074E-6,5.865216E-1,-2.7384567E-1,2.5464663E-1,5.8308434E-1,6.583569E-2,-7.670059E-2,1.016953E0,-1.6880585E-1,1.7923782E0,-7.7202894E-2,5.773556E-1,5.8308434E-1,-7.7202894E-2,-7.686041E-2,-2.7269787E-1,-2.2295962E-1,5.7850134E-1,-2.570112E-1,-7.640773E-1,1.8920293E0,-7.393791E-2,-5.9941854E-2,1.8463181E-1,5.796471E-1,9.0300465E-1,-4.3729592E-2,7.1203904E0,2.1445386E-1,3.2085127E-1,2.2846718E0,1.0324986E1,4.7560498E-2,9.519733E-3,-6.358179E-2,1.315584E-1,5.371962E-2,-1.811002E-2,-1.07959166E-1,1.666725E-1,-2.7353263E-1,-1.0533984E-2,-1.1804642E-1,-4.0802577E-1,3.1843607E0,5.849899E0,-7.651793E-2,-8.749681E-1,-7.670059E-2,5.865216E-1,-7.670059E-2,-7.599279E-2,5.865216E-1,-2.4353316E-1,4.553015E0,2.8067994E0,8.9768153E-1,-3.9006644E-1,-2.000035E-1,5.865216E-1,8.4015965E-1,-7.512517E-2,-2.1268155E-1,-7.279631E-2,5.865216E-1,-5.9713535E-2,5.773556E-1,-2.0428169E-1,-7.295613E-2,8.4507537E-1,-5.535261E-2,-1.7402135E-1,5.8308434E-1,-1.541956E-1,-4.155939E-1,-2.730283E-1,3.1789386E0,-2.4639188E-1,-3.732483E-1,1.4561574E-1,3.2066625E-2,2.3850977E-1,-1.1632366E0,5.796471E-1,5.773556E-1,-4.7749534E-2,5.773556E-1,1.0213796E0,-7.3268704E-2,1.4884777E-1,4.779045E-2,1.0213993E-1,-6.1151005E-2,3.2131236E-2,-7.195737E-2,1.818225E-2,-9.020853E-2,-1.0435301E-2,-8.449491E-2,1.3311453E-1,-1.0047885E-1,1.2356191E-2,1.5051474E-1,1.23612486E-1,-2.477339E-2,2.6129952E-2,-5.5159714E-2,1.3540265E-1,-9.2567414E-2,-1.3381255E-1,1.5583774E-1,1.4870428E-1,-9.590605E-2,8.002609E-2,-6.438122E-2,1.17273845E-1,-5.309499E-2,-1.5673768E-2,6.6710316E-2,1.186862E-1,-4.1228373E-2,2.9335389E-2,-1.3174914E-1,-7.7075966E-2,7.302076E-2,4.4946074E-2,1.3177598E-1,1.375461E-1,-1.0679853E-3,7.6048024E-2,-2.8763443E-2,-8.8625446E-2,9.271447E-3,7.546451E-2,3.2476295E-2,1.2536843E-1,3.444449E-2,-6.1080594E-2,4.7869563E-2,1.1039399E-1,-2.369263E-2,-6.49408E-2,1.98991E-2,-3.9242238E-2,1.2178759E-2,-2.596192E-2,-1.1709841E-1,3.4324717E-2,-5.9337188E-2,-1.04228996E-1,-1.9541977E-2,6.6518597E-3,-4.068738E-2,1.9339329E-2,1.2958483E-1,-6.607963E-2,4.1370414E-2,-3.6311153E-2,-7.929901E-2,2.220777E-2,-4.3884188E-2,3.978221E-2,-9.1118835E-2,-1.1062622E-1,3.1892953E-3,7.4982755E-2,-8.871156E-2,1.5360822E-2,9.367922E-2,-6.1365385E-2,-9.938172E-2,1.849416E-2,1.4049329E-1,-1.250746E-1,-1.0280436E-1,-9.8831266E-2,-3.3447985E-2,-1.847E-2,-9.678131E-2,-5.5731088E-2,8.143685E-2,9.548455E-2,1.9554913E-2],"split_indices":[1,2,7,1,2,2,2,5,5,4,2,1,5,50,2,76,2,5,4,5,5,7,5,2,2,2,4,1,26,2,2,26,0,5,2,0,5,0,1,26,4,26,1,5,5,1,1,2,2,5,2,0,2,1,1,7,5,7,0,25,1,1,76,64,0,0,0,0,0,0,0,7,2,0,0,7,26,29,1,7,1,5,1,1,5,2,45,14,2,7,2,5,4,1,2,1,5,1,5,2,1,1,1,2,5,2,0,2,42,7,0,0,0,7,0,5,5,1,5,0,0,0,0,0,0,0,0,0,0,0,0,0,0,0,0,0,0,0,0,0,0,0,0,0,0,0,0,0,0,0,0,0,0,0,0,0,0,0,0,0,0,0,0,0,0,0,0,0,0,0,0,0,0,0,0,0,0,0,0,0,0,0,0,0,0,0,0,0,0,0,0,0,0,0,0,0,0,0,0,0,0,0,0,0,0,0,0,0,0,0,0,0,0,0,0],"split_type":[0,0,0,0,0,0,0,0,0,0,0,0,0,0,0,0,0,0,0,0,0,0,0,0,0,0,0,0,0,0,0,0,0,0,0,0,0,0,0,0,0,0,0,0,0,0,0,0,0,0,0,0,0,0,0,0,0,0,0,0,0,0,0,0,0,0,0,0,0,0,0,0,0,0,0,0,0,0,0,0,0,0,0,0,0,0,0,0,0,0,0,0,0,0,0,0,0,0,0,0,0,0,0,0,0,0,0,0,0,0,0,0,0,0,0,0,0,0,0,0,0,0,0,0,0,0,0,0,0,0,0,0,0,0,0,0,0,0,0,0,0,0,0,0,0,0,0,0,0,0,0,0,0,0,0,0,0,0,0,0,0,0,0,0,0,0,0,0,0,0,0,0,0,0,0,0,0,0,0,0,0,0,0,0,0,0,0,0,0,0,0,0,0,0,0,0,0,0,0,0,0,0,0,0,0,0,0,0,0,0,0,0,0,0,0],"sum_hessian":[9.305283E3,4.235915E3,5.0693687E3,2.480083E3,1.755832E3,7.60578E2,4.3087905E3,2.4117332E3,6.8349915E1,6.474814E2,1.1083507E3,4.6713354E2,2.934445E2,1.0086843E2,4.207922E3,2.4004932E3,1.1240087E1,5.548102E1,1.2868891E1,3.120144E2,3.3546698E2,7.524298E2,3.5592087E2,1.6301875E2,3.0411478E2,1.3020155E2,1.6324295E2,6.894052E1,3.192791E1,3.9759702E3,2.3195184E2,2.3994932E3,1E0,4.4320383E0,6.808048E0,4.1632695E0,5.1317753E1,1.4757276E0,1.1393163E1,1.0981783E2,2.0219658E2,1.6167305E2,1.7379393E2,3.5499716E2,3.9743265E2,2.3740732E2,1.1851354E2,4.7537857E1,1.1548089E2,2.7562601E1,2.765522E2,4.090362E1,8.929793E1,2.029862E1,1.4294432E2,4.465507E1,2.428545E1,3.021107E1,1.7168413E0,1.3454863E3,2.630484E3,2.0924527E2,2.2706587E1,2.3982844E3,1.2085433E0,2.2238271E0,2.2082112E0,4.6559057E0,2.152142E0,2.4759853E0,1.6872842E0,2.702636E1,2.4291393E1,5.5996118E0,5.7935514E0,9.230459E1,1.7513245E1,7.558066E1,1.2661593E2,1.348851E2,2.6787954E1,1.5081404E2,2.2979897E1,5.9508045E1,2.954891E2,2.7500906E2,1.2242359E2,1.2690707E2,1.10500244E2,9.188357E1,2.6629972E1,1.6416382E1,3.1121475E1,8.42317E1,3.1249193E1,4.8825717E0,2.2680029E1,8.44479E1,1.9210428E2,1.1920509E1,2.8983112E1,8.695737E1,2.3405623E0,3.1780124E0,1.7120607E1,1.0569521E2,3.724911E1,2.2503664E1,2.2151407E1,6.1358204E0,1.814963E1,2.8005E1,2.2060692E0,1.3350325E3,1.045385E1,2.5061643E3,1.2431948E2,1.7570673E2,3.3538532E1,2.0997375E1,1.7092128E0,2.397074E3,1.2106587E0,2.506645E1,1.9599105E0,2.0399689E1,3.8917046E0,3.2029676E0,2.3966439E0,5.655103E1,3.575356E1,1.606116E1,1.4520851E0,6.2283287E1,1.3297368E1,1.20262115E2,6.3538127E0,6.308157E1,7.180353E1,2.5078022E1,1.7099332E0,1.481221E2,2.691945E0,1.3038368E1,9.941527E0,5.730618E1,2.2018635E0,2.9385608E2,1.6330338E0,7.0154E1,2.0485506E2,1.2074699E2,1.6766034E0,1.239406E2,2.9664702E0,9.688425E1,1.3616E1,1.8446339E1,7.343723E1,5.1954155E0,2.1434557E1,1.4196867E1,2.2195144E0,1.9170483E1,1.1950993E1,4.0247746E1,4.398395E1,2.6098711E1,5.150481E0,1.7191288E0,3.1634429E0,2.1431158E1,1.2488708E0,7.173972E1,1.2708176E1,4.4061733E1,1.4804256E2,2.6986706E0,9.221839E0,7.883297E0,2.1099815E1,8.479417E1,2.1631994E0,1.167015E0,1.1735473E0,1.4465199E0,1.7314924E0,1.0720383E1,6.4002247E0,3.4656956E1,7.103826E1,1.4059583E1,2.3189528E1,1.5219038E1,7.284626E0,2.0967955E1,1.1834522E0,1.9600828E0,4.175738E0,6.1534276E0,1.1996202E1,5.588008E2,7.762317E2,2.742925E0,7.7109246E0,1.677554E3,8.2861035E2,4.6879166E1,7.7440315E1,8.790894E1,8.779778E1,1.2115549E1,2.1422985E1,1.6357323E1,4.640053E0],"tree_param":{"num_deleted":"0","num_feature":"108","num_nodes":"215","size_leaf_vector":"1"}},{"base_weights":[1.4317888E-3,9.5772266E-1,-7.863992E-1,1.3802131E0,3.8067317E-1,-1.618576E-1,-8.986645E-1,1.4148157E0,2.0621221E-1,-5.2287254E-2,5.9721506E-1,1.0570374E-1,-6.0261285E-1,2.5097737E-1,-9.264536E-1,1.418689E0,5.6551796E-1,3.9562932E-1,-5.8122677E-1,4.7944525E-1,-5.446271E-1,1.8226382E-1,7.668141E-1,3.997022E-1,-7.330455E-2,-8.1230223E-1,-4.3488267E-1,-1.892372E-1,1.2060189E0,-9.6587265E-1,-3.262881E-1,1.4193134E0,7.724762E-6,-2.981034E-1,1.1053364E0,4.6456248E-1,-1.023817E-1,6.2267244E-2,-7.7621233E-1,-2.4561027E-2,9.7612673E-1,-7.0385385E-1,1.0769826E0,7.0528185E-1,-1.6267297E-1,8.802926E-1,4.7454888E-1,3.0989105E-2,6.8758434E-1,7.6164526E-1,-1.539661E-1,1.4943612E-1,-8.504782E-1,-5.8465993E-1,-2.217894E-1,-7.40749E-1,1.6954514E-1,1.3122723E0,-4.1084E-2,-7.7255297E-1,-1.088907E0,-5.269959E-1,1.405718E-1,1.4205903E0,9.283693E-1,-5.189611E-1,2.4375236E-2,1.2469279E-1,5.04166E-2,-6.0478E-1,5.6005394E-1,-2.6509055E-1,-1.050144E-1,-3.152505E-1,1.1859825E0,-8.467905E-1,1.0773827E0,-9.590785E-1,-8.546848E-3,1.2726114E0,-6.6749024E-1,8.206427E-1,-2.3297656E-1,6.802874E-2,-4.668911E-1,4.7119176E-1,9.539344E-1,2.7770337E-1,1.3363683E0,6.2849265E-1,-1.677843E-1,8.402402E-1,4.9093002E-1,-2.499695E-2,9.331831E-1,-2.993921E-1,1.5584888E-1,-5.6434923E-1,1.1257877E-1,-6.665E-1,-1.0179589E0,-3.2084015E-1,-8.4915096E-1,-3.3847427E-1,2.828675E-1,-5.287359E-2,-1.1017243E0,4.8052222E-1,-3.3458635E-1,1.3818944E-1,2.993733E-2,-4.3979996E-1,-8.7383837E-1,-1.1214311E0,-5.4423136E-1,-6.0433143E-1,3.5747838E-1,3.387246E-2,1.4160731E-1,1.4209308E-1,4.090198E-2,-5.3598113E-2,1.2441703E-1,-9.2054985E-2,-4.6177073E-3,-6.5132114E-3,-8.785492E-2,-2.423352E-2,6.976691E-2,-9.0729296E-2,4.0774178E-2,6.774712E-3,-7.15786E-2,1.3352865E-1,-6.728676E-2,-1.10566474E-1,3.0189568E-2,1.1431464E-1,-1.0391251E-2,-4.025068E-2,-1.2531656E-1,-1.0861377E-1,1.2165507E-2,1.3891895E-1,-1.6813455E-2,-1.46530615E-2,-8.940687E-2,6.331668E-2,1.043489E-1,-7.877969E-2,2.2479491E-2,1.3301711E-2,-8.069096E-2,-5.2649673E-2,1.415383E-1,7.550552E-2,2.5370298E-2,9.651443E-2,-1.2799607E-1,4.5435987E-2,-2.9338522E-2,3.3504184E-2,1.3767484E-1,7.558708E-2,-2.6731897E-2,-5.89458E-2,1.7028876E-2,1.0801195E-1,6.451885E-2,2.2542445E-2,7.86119E-2,-8.001893E-2,4.437682E-2,1.0161251E-1,-2.2374636E-2,-7.378039E-2,-1.6455157E-2,2.1590399E-2,-1.1405897E-1,7.318654E-3,-9.835608E-2,-7.4368335E-2,2.2712318E-2,-1.6964057E-4,-1.0560574E-1,3.717953E-3,-5.67314E-2,-3.147921E-3,-9.503106E-2,-5.364224E-2,6.6800164E-3,5.968864E-2,-2.4624964E-2,5.804796E-2,-1.1571566E-1,-1.2175919E-1,-2.3008918E-2,-6.258982E-2,6.0533263E-2,-9.1409355E-2,1.9858455E-2,-8.075269E-2,-1.5516916E-2,-2.031868E-2,-9.20187E-2,-1.1944038E-1,-9.702324E-2,-9.476868E-2,-2.8719423E-2,-6.471721E-2,7.960441E-2,-5.1599735E-4,1.2238979E-1,-3.545837E-2,3.3330847E-2],"categories":[],"categories_nodes":[],"categories_segments":[],"categories_sizes":[],"default_left":[0,0,0,0,0,0,0,0,0,0,0,0,0,0,0,0,0,0,0,0,0,0,0,0,0,0,0,0,0,0,0,0,0,0,0,0,0,0,0,0,0,0,0,0,0,0,0,0,0,0,0,0,0,0,0,0,0,0,0,0,0,0,0,0,0,0,0,0,0,0,0,0,0,0,0,0,0,0,0,0,0,0,0,0,0,0,0,0,0,0,0,0,0,0,0,0,0,0,0,0,0,0,0,0,0,0,0,0,0,0,0,0,0,0,0,0,0,0,0,0,0,0,0,0,0,0,0,0,0,0,0,0,0,0,0,0,0,0,0,0,0,0,0,0,0,0,0,0,0,0,0,0,0,0,0,0,0,0,0,0,0,0,0,0,0,0,0,0,0,0,0,0,0,0,0,0,0,0,0,0,0,0,0,0,0,0,0,0,0,0,0,0,0,0,0,0,0,0,0,0,0,0,0,0,0,0,0,0,0,0,0,0,0,0,0],"id":5,"left_children":[1,3,5,7,9,11,13,15,17,19,21,23,25,27,29,31,33,35,37,39,41,43,45,47,49,51,53,55,57,59,61,63,-1,65,67,69,-1,-1,71,73,75,77,79,81,83,85,87,89,91,93,95,97,99,101,103,105,107,109,-1,111,113,115,117,119,121,123,-1,-1,-1,125,127,129,-1,131,133,135,137,139,141,143,145,147,149,151,153,155,157,159,161,163,165,167,169,171,173,175,177,179,-1,181,183,185,187,189,191,193,195,197,199,-1,-1,201,203,205,207,209,211,213,-1,-1,-1,-1,-1,-1,-1,-1,-1,-1,-1,-1,-1,-1,-1,-1,-1,-1,-1,-1,-1,-1,-1,-1,-1,-1,-1,-1,-1,-1,-1,-1,-1,-1,-1,-1,-1,-1,-1,-1,-1,-1,-1,-1,-1,-1,-1,-1,-1,-1,-1,-1,-1,-1,-1,-1,-1,-1,-1,-1,-1,-1,-1,-1,-1,-1,-1,-1,-1,-1,-1,-1,-1,-1,-1,-1,-1,-1,-1,-1,-1,-1,-1,-1,-1,-1,-1,-1,-1,-1,-1,-1,-1,-1,-1,-1,-1],"loss_changes":[6.793495E3,9.924912E2,3.465039E2,9.5217285E1,1.615717E2,8.904499E1,1.3410938E2,6.7094727E0,1.0444461E1,1.5088895E2,8.069714E1,2.4783697E1,9.67646E0,4.2140022E1,9.64895E1,2.0131836E0,5.937975E0,5.9353514E0,3.6955824E0,6.940321E1,7.801756E1,6.0475258E1,2.6614899E1,1.8889984E1,1.9863865E1,4.737808E0,4.995735E0,1.3798802E1,5.9659348E0,9.047241E1,2.3846342E1,1.0498047E-1,0E0,7.7451384E-1,1.9562721E-2,5.8428335E0,0E0,0E0,1.4328327E0,4.9123745E1,2.6682465E1,4.845079E1,1.0114496E1,1.4603439E1,1.4238655E1,1.7203308E1,3.8669407E1,9.507383E0,2.589569E0,3.5314598E0,1.2130587E1,4.5694427E0,3.0478745E0,6.265274E0,4.093794E0,6.7507153E0,6.8517656E0,1.6933708E0,0E0,5.0053467E1,4.0906982E1,1.2366428E1,1.0440281E1,1.9873047E-1,4.726492E0,7.4856174E-1,0E0,0E0,0E0,6.6664493E-1,5.690403E0,2.7906642E0,0E0,1.7306616E1,8.40168E0,2.6850162E0,1.0428329E1,3.2189163E1,1.056102E1,4.391464E0,2.6955187E-1,4.3023605E0,4.077684E0,6.7029114E0,1.0554256E1,5.4488277E0,1.3645721E1,1.9160782E1,1.2582703E0,2.4809852E0,8.680913E0,1.8715019E0,3.4364662E0,2.400286E0,2.277954E0,1.0688978E1,6.9680824E0,1.121559E0,0E0,4.3435345E0,2.3758621E0,4.302029E0,3.7898521E0,4.49624E0,2.3559978E0,8.006975E0,1.5310497E0,4.0807285E0,5.394696E0,0E0,0E0,3.663752E1,3.5444214E1,2.3231445E1,1.3624107E1,1.0337391E1,4.691373E0,8.50946E0,0E0,0E0,0E0,0E0,0E0,0E0,0E0,0E0,0E0,0E0,0E0,0E0,0E0,0E0,0E0,0E0,0E0,0E0,0E0,0E0,0E0,0E0,0E0,0E0,0E0,0E0,0E0,0E0,0E0,0E0,0E0,0E0,0E0,0E0,0E0,0E0,0E0,0E0,0E0,0E0,0E0,0E0,0E0,0E0,0E0,0E0,0E0,0E0,0E0,0E0,0E0,0E0,0E0,0E0,0E0,0E0,0E0,0E0,0E0,0E0,0E0,0E0,0E0,0E0,0E0,0E0,0E0,0E0,0E0,0E0,0E0,0E0,0E0,0E0,0E0,0E0,0E0,0E0,0E0,0E0,0E0,0E0,0E0,0E0,0E0,0E0,0E0,0E0,0E0,0E0,0E0,0E0,0E0,0E0,0E0,0E0,0E0],"parents":[2147483647,0,0,1,1,2,2,3,3,4,4,5,5,6,6,7,7,8,8,9,9,10,10,11,11,12,12,13,13,14,14,15,15,16,16,17,17,18,18,19,19,20,20,21,21,22,22,23,23,24,24,25,25,26,26,27,27,28,28,29,29,30,30,31,31,33,33,34,34,35,35,38,38,39,39,40,40,41,41,42,42,43,43,44,44,45,45,46,46,47,47,48,48,49,49,50,50,51,51,52,52,53,53,54,54,55,55,56,56,57,57,59,59,60,60,61,61,62,62,63,63,64,64,65,65,69,69,70,70,71,71,73,73,74,74,75,75,76,76,77,77,78,78,79,79,80,80,81,81,82,82,83,83,84,84,85,85,86,86,87,87,88,88,89,89,90,90,91,91,92,92,93,93,94,94,95,95,96,96,97,97,99,99,100,100,101,101,102,102,103,103,104,104,105,105,106,106,107,107,108,108,111,111,112,112,113,113,114,114,115,115,116,116,117,117],"right_children":[2,4,6,8,10,12,14,16,18,20,22,24,26,28,30,32,34,36,38,40,42,44,46,48,50,52,54,56,58,60,62,64,-1,66,68,70,-1,-1,72,74,76,78,80,82,84,86,88,90,92,94,96,98,100,102,104,106,108,110,-1,112,114,116,118,120,122,124,-1,-1,-1,126,128,130,-1,132,134,136,138,140,142,144,146,148,150,152,154,156,158,160,162,164,166,168,170,172,174,176,178,180,-1,182,184,186,188,190,192,194,196,198,200,-1,-1,202,204,206,208,210,212,214,-1,-1,-1,-1,-1,-1,-1,-1,-1,-1,-1,-1,-1,-1,-1,-1,-1,-1,-1,-1,-1,-1,-1,-1,-1,-1,-1,-1,-1,-1,-1,-1,-1,-1,-1,-1,-1,-1,-1,-1,-1,-1,-1,-1,-1,-1,-1,-1,-1,-1,-1,-1,-1,-1,-1,-1,-1,-1,-1,-1,-1,-1,-1,-1,-1,-1,-1,-1,-1,-1,-1,-1,-1,-1,-1,-1,-1,-1,-1,-1,-1,-1,-1,-1,-1,-1,-1,-1,-1,-1,-1,-1,-1,-1,-1,-1,-1],"split_conditions":[-7.583297E-2,-2.730283E-1,-8.749681E-1,-7.7202894E-2,-2.6170677E-1,-2.0555124E-1,-2.7165443E-1,5.8537585E-1,5.865216E-1,5.879183E-1,5.7850134E-1,-7.375525E-2,5.796471E-1,1.0951135E0,1.5782435E0,7.634551E-1,-2.7428046E-1,1.6592691E0,-6.732886E-1,5.8537585E-1,1.7923782E0,-8.749681E-1,-2.0689034E-1,-2.5241998E-1,-2.728718E-1,-7.542199E-2,-6.599235E-2,-7.359543E-2,3.1843607E0,-1.7824736E-1,3.6839802E0,5.842301E-1,7.724762E-6,1.0025016E0,-2.7384567E-1,5.773556E-1,-1.023817E-1,6.2267244E-2,-7.690608E-2,1.016953E0,-6.732886E-1,-2.6873273E-1,6.5157413E-1,-1.9320363E-1,-7.708873E-2,-2.5335908E-1,2.4292471E0,-2.7257615E-1,1.0025016E0,5.7850134E-1,-2.2902907E-1,8.4015965E-1,-4.5832302E-2,-7.149488E-2,1.5968838E0,-2.7374133E-1,6.874928E-1,9.0300465E-1,-4.1084E-2,-7.3367104E-2,1.6066152E-1,1.7516567E0,3.9966843E0,3.1843607E0,-2.7436742E-1,-8.255131E-1,2.4375236E-2,1.2469279E-1,5.04166E-2,-2.7393264E-1,-7.715723E-2,-7.713439E-2,-1.050144E-1,-6.235376E-1,3.1843607E0,-2.6798493E-1,5.865216E-1,5.842301E-1,5.773556E-1,3.6125488E0,2.4599373E0,5.773556E-1,-1.4607401E-1,3.0514314E0,5.448386E0,-8.749681E-1,1.0592549E1,-7.6769084E-2,5.819386E-1,5.865216E-1,-2.6466325E-1,-7.512517E-2,5.879183E-1,-7.279631E-2,5.865216E-1,5.773556E-1,-2.7040854E-2,-1.6923882E-1,1.1257877E-1,-7.409267E-2,-7.416623E-2,8.343553E-2,-1.8982977E-1,5.8308434E-1,2.838026E-1,3.6422503E-1,1.4579407E0,-1.4044677E0,5.8308434E-1,1.3818944E-1,2.993733E-2,-2.4471577E-1,-6.4149696E-1,5.796471E-1,5.773556E-1,4.950726E0,5.7850134E-1,5.773556E-1,1.4160731E-1,1.4209308E-1,4.090198E-2,-5.3598113E-2,1.2441703E-1,-9.2054985E-2,-4.6177073E-3,-6.5132114E-3,-8.785492E-2,-2.423352E-2,6.976691E-2,-9.0729296E-2,4.0774178E-2,6.774712E-3,-7.15786E-2,1.3352865E-1,-6.728676E-2,-1.10566474E-1,3.0189568E-2,1.1431464E-1,-1.0391251E-2,-4.025068E-2,-1.2531656E-1,-1.0861377E-1,1.2165507E-2,1.3891895E-1,-1.6813455E-2,-1.46530615E-2,-8.940687E-2,6.331668E-2,1.043489E-1,-7.877969E-2,2.2479491E-2,1.3301711E-2,-8.069096E-2,-5.2649673E-2,1.415383E-1,7.550552E-2,2.5370298E-2,9.651443E-2,-1.2799607E-1,4.5435987E-2,-2.9338522E-2,3.3504184E-2,1.3767484E-1,7.558708E-2,-2.6731897E-2,-5.89458E-2,1.7028876E-2,1.0801195E-1,6.451885E-2,2.2542445E-2,7.86119E-2,-8.001893E-2,4.437682E-2,1.0161251E-1,-2.2374636E-2,-7.378039E-2,-1.6455157E-2,2.1590399E-2,-1.1405897E-1,7.318654E-3,-9.835608E-2,-7.4368335E-2,2.2712318E-2,-1.6964057E-4,-1.0560574E-1,3.717953E-3,-5.67314E-2,-3.147921E-3,-9.503106E-2,-5.364224E-2,6.6800164E-3,5.968864E-2,-2.4624964E-2,5.804796E-2,-1.1571566E-1,-1.2175919E-1,-2.3008918E-2,-6.258982E-2,6.0533263E-2,-9.1409355E-2,1.9858455E-2,-8.075269E-2,-1.5516916E-2,-2.031868E-2,-9.20187E-2,-1.1944038E-1,-9.702324E-2,-9.476868E-2,-2.8719423E-2,-6.471721E-2,7.960441E-2,-5.1599735E-4,1.2238979E-1,-3.545837E-2,3.3330847E-2],"split_indices":[1,2,7,1,2,2,2,5,5,4,5,1,5,50,2,76,2,89,4,5,26,7,2,2,2,1,1,1,26,2,2,5,0,6,2,5,0,0,1,26,4,2,7,2,1,2,23,2,6,5,2,4,2,1,4,2,7,7,0,1,1,30,26,26,2,0,0,0,0,2,1,1,0,7,26,2,5,5,5,26,50,5,2,50,57,7,62,1,5,5,2,1,4,1,5,5,1,2,0,2,1,4,2,5,0,7,70,0,5,0,0,2,7,5,5,26,5,5,0,0,0,0,0,0,0,0,0,0,0,0,0,0,0,0,0,0,0,0,0,0,0,0,0,0,0,0,0,0,0,0,0,0,0,0,0,0,0,0,0,0,0,0,0,0,0,0,0,0,0,0,0,0,0,0,0,0,0,0,0,0,0,0,0,0,0,0,0,0,0,0,0,0,0,0,0,0,0,0,0,0,0,0,0,0,0,0,0,0,0,0,0,0,0,0,0],"split_type":[0,0,0,0,0,0,0,0,0,0,0,0,0,0,0,0,0,0,0,0,0,0,0,0,0,0,0,0,0,0,0,0,0,0,0,0,0,0,0,0,0,0,0,0,0,0,0,0,0,0,0,0,0,0,0,0,0,0,0,0,0,0,0,0,0,0,0,0,0,0,0,0,0,0,0,0,0,0,0,0,0,0,0,0,0,0,0,0,0,0,0,0,0,0,0,0,0,0,0,0,0,0,0,0,0,0,0,0,0,0,0,0,0,0,0,0,0,0,0,0,0,0,0,0,0,0,0,0,0,0,0,0,0,0,0,0,0,0,0,0,0,0,0,0,0,0,0,0,0,0,0,0,0,0,0,0,0,0,0,0,0,0,0,0,0,0,0,0,0,0,0,0,0,0,0,0,0,0,0,0,0,0,0,0,0,0,0,0,0,0,0,0,0,0,0,0,0,0,0,0,0,0,0,0,0,0,0,0,0,0,0,0,0,0,0],"sum_hessian":[9.01517E3,4.0721123E3,4.9430576E3,2.3500884E3,1.7220238E3,7.5353235E2,4.189525E3,2.2826057E3,6.748279E1,5.743698E2,1.1476539E3,4.693641E2,2.841682E2,9.8689545E1,4.0908354E3,2.2715754E3,1.1030214E1,5.479864E1,1.2684146E1,2.7615045E2,2.982194E2,3.3357758E2,8.1407635E2,1.7716316E2,2.9220093E2,1.2458024E2,1.5958798E2,6.810106E1,3.0588488E1,3.838136E3,2.526995E2,2.2705754E3,1E0,4.414887E0,6.615328E0,5.290224E1,1.8963971E0,1.4622637E0,1.1221883E1,1.3753635E2,1.386141E2,2.720706E2,2.6148804E1,1.32153E2,2.0142458E2,5.8494604E2,2.2913034E2,7.8162285E1,9.9000885E1,2.499794E1,2.67203E2,4.645107E0,1.19935135E2,9.2693016E1,6.689497E1,2.642167E1,4.1679386E1,2.8879055E1,1.7094326E0,1.4955333E3,2.3426028E3,1.7663394E2,7.6065544E1,2.2627969E3,7.778675E0,3.1664925E0,1.2483943E0,4.484858E0,2.1304696E0,3.8996336E0,4.900261E1,4.6022997E0,6.6195827E0,1.1150103E2,2.6035316E1,6.9068456E0,1.3170726E2,1.9874014E2,7.333043E1,2.3755325E1,2.39348E0,1.1779518E2,1.4357811E1,1.1499516E2,8.6429405E1,9.03614E1,4.9458463E2,1.876028E2,4.1527546E1,1.8971872E1,5.919041E1,5.3892975E1,4.510791E1,4.6281843E0,2.0369755E1,1.8186832E2,8.533468E1,2.9271355E0,1.7179712E0,5.952561E1,6.0409523E1,4.7513325E1,4.5179688E1,5.459989E1,1.2295081E1,9.487927E0,1.6933743E1,2.5806993E1,1.5872394E1,2.668084E1,2.1982148E0,3.50238E2,1.1452953E3,2.209602E3,1.3300064E2,1.6272273E2,1.391121E1,7.114095E1,4.9245887E0,2.2616309E3,1.1658814E0,1.2562604E0,6.5224147E0,1.2000616E0,1.966431E0,1.7291262E0,2.1705074E0,7.0625E0,4.194011E1,2.1764562E0,2.4258437E0,5.742311E1,5.407792E1,2.4360338E1,1.6749785E0,5.6671243E0,1.2397213E0,1.2479226E2,6.915003E0,6.9526695E1,1.2921344E2,7.11366E0,6.6216774E1,2.2010155E1,1.7451702E0,1.2245798E0,1.1689003E0,6.606084E1,5.173435E1,6.164943E0,8.192868E0,1.0783352E2,7.1616507E0,8.447465E1,1.9547542E0,3.8126945E1,5.2234455E1,4.9268027E2,1.9043827E0,1.434373E2,4.4165485E1,1.9701362E0,3.955741E1,1.6746809E1,2.2250617E0,2.6007744E1,3.3182667E1,2.2134201E1,3.1758774E1,2.4676487E1,2.0431423E1,1.4776288E0,3.1505554E0,1.912067E1,1.2490847E0,4.172728E1,1.4014104E2,8.235328E1,2.981399E0,1.4886378E0,1.4384977E0,5.494751E1,4.5780997E0,2.2205868E0,5.8188934E1,1.971913E1,2.7794195E1,5.1184583E0,4.006123E1,3.6465466E1,1.8134422E1,7.6355047E0,4.659577E0,6.331107E0,3.1568205E0,1.4596505E1,2.3372376E0,2.2090847E0,2.3597908E1,7.2633543E0,8.609039E0,1.5201111E2,1.9822691E2,7.438271E1,1.0709126E3,1.485675E3,7.2392706E2,5.0712833E1,8.2287796E1,1.5841434E2,4.308395E0,1.05074005E1,3.4038093E0,3.088713E1,4.0253822E1],"tree_param":{"num_deleted":"0","num_feature":"108","num_nodes":"215","size_leaf_vector":"1"}},{"base_weights":[1.763548E-3,9.273525E-1,-7.1026844E-1,1.3289431E0,3.6721897E-1,-1.1817894E-1,-8.228549E-1,1.3580818E0,2.4022579E-1,-1.3226612E-1,5.398611E-1,1.2458413E-1,-5.330236E-1,-1.010556E0,-6.696166E-1,1.3633162E0,7.090341E-1,4.1902104E-1,-4.5192957E-1,4.9287993E-1,-6.7538095E-1,2.54583E-1,7.688703E-1,3.970636E-1,-5.292383E-2,-7.388017E-1,-3.707889E-1,-1.0454835E0,-2.3515177E-1,5.107415E-1,-7.0533913E-1,1.3639563E0,7.3432925E-6,-4.8788962E-1,1.1568283E0,6.663727E-1,-1.8589064E-2,5.8957852E-2,-6.409934E-1,-1.8460799E-2,8.865844E-1,-8.801591E-1,1.0998524E0,7.072097E-1,-7.266942E-2,7.039119E-1,1.3638437E0,8.724689E-3,6.881251E-1,7.388139E-1,-1.3098581E-1,-5.5876005E-1,-9.2589283E-1,-1.6640404E-1,-4.8899508E-1,-5.307832E-1,-1.0708143E0,-3.537189E-1,1.4157812E-1,4.299909E-2,1.2565981E0,-3.3372584E-1,-7.905267E-1,1.3643097E0,3.8466576E-2,7.799973E-2,-1.3461117E-1,1.2011798E-1,3.2338157E-2,9.307509E-1,2.2003679E-1,-1.1964422E-1,4.721257E-1,-2.5711662E-1,-9.486459E-1,-4.594775E-1,1.1813606E0,9.97867E-2,1.1650513E0,-3.5888717E-1,-1.1583748E0,1.2696371E0,-6.942653E-2,7.798647E-1,8.310867E-2,-5.4452217E-1,7.0978016E-2,9.5709395E-1,5.544996E-1,2.3166433E-2,1.4000272E0,7.448898E-2,-1.1543453E-1,5.56025E-1,9.461694E-1,1.2851672E-1,9.2881423E-1,-4.5820734E-1,2.8687906E-3,-9.530754E-1,-4.0068847E-1,1.402179E-2,-9.866011E-1,1.9990046E-1,-3.2688335E-1,-6.679352E-1,-2.7159765E-1,-5.719285E-1,9.9949375E-2,-1.0864471E0,-5.0756365E-1,-4.90581E-1,9.169643E-1,-7.963734E-1,3.108706E-1,1.2840234E-1,4.097741E-2,-6.7386705E-1,-1.6577363E-1,-8.455421E-1,5.2735666E-3,1.3646558E-1,3.8925085E-2,-5.2518565E-2,9.7167544E-2,1.0442292E-1,6.345363E-3,6.0786735E-2,-2.6125154E-2,7.383987E-2,-3.752011E-2,5.0474145E-2,-6.560182E-2,-4.460293E-3,-1.1789363E-1,9.445985E-3,-8.3016366E-2,1.2892646E-1,3.529463E-2,-6.126199E-2,1.2297703E-1,1.2128836E-1,-4.663412E-2,3.8776595E-2,-5.7976287E-2,-1.2740037E-1,-9.259961E-3,1.4048765E-2,1.3296475E-1,3.898893E-2,9.0408795E-2,3.438459E-2,-6.2589176E-2,-5.949645E-2,4.2537846E-2,4.2635523E-2,-2.5386909E-2,1.0265493E-1,4.303467E-3,5.7758696E-2,-1.2295456E-1,1.4154789E-1,2.8431961E-2,-1.0831796E-2,2.942462E-2,7.143236E-2,3.219115E-2,1.08301714E-1,2.7589843E-2,-6.773725E-2,5.2669328E-2,1.0131114E-1,-2.1133147E-2,-9.581154E-2,-2.6161099E-2,-3.4218572E-2,1.06958365E-2,-1.2306257E-2,-1.07058324E-1,-7.363553E-2,-1.403403E-2,9.9081635E-2,-8.881719E-2,-1.1170681E-1,-5.7316095E-2,4.5312297E-2,-1.772099E-2,-8.744754E-2,-1.2266239E-2,-3.9145365E-2,-9.2403375E-2,-7.0179515E-2,-4.9719876E-3,-1.2727153E-1,-4.6677846E-2,-8.372182E-2,-1.1190176E-1,-7.577864E-2,1.8094847E-2,-6.802072E-2,4.0602244E-2,-3.204382E-2,1.1904649E-1,4.210232E-2,-1.0297888E-1,7.476815E-2,-2.0555902E-2,-7.269565E-2,1.3472044E-1,2.6344696E-2,-5.880804E-2,-8.595464E-2,7.539406E-2,-1.8122215E-2,7.4518934E-2],"categories":[],"categories_nodes":[],"categories_segments":[],"categories_sizes":[],"default_left":[0,0,0,0,0,0,0,0,0,0,0,0,0,0,0,0,0,0,0,0,0,0,0,0,0,0,0,0,0,0,0,0,0,0,0,0,0,0,0,0,0,0,0,0,0,0,0,0,0,0,0,0,0,0,0,0,0,0,0,0,0,0,0,0,0,0,0,0,0,0,0,0,0,0,0,0,0,0,0,0,0,0,0,0,0,0,0,0,0,0,0,0,0,0,0,0,0,0,0,0,0,0,0,0,0,0,0,0,0,0,0,0,0,0,0,0,0,0,0,0,0,0,0,0,0,0,0,0,0,0,0,0,0,0,0,0,0,0,0,0,0,0,0,0,0,0,0,0,0,0,0,0,0,0,0,0,0,0,0,0,0,0,0,0,0,0,0,0,0,0,0,0,0,0,0,0,0,0,0,0,0,0,0,0,0,0,0,0,0,0,0,0,0,0,0,0,0,0,0,0,0,0,0,0,0,0,0,0,0,0,0,0,0,0,0],"id":6,"left_children":[1,3,5,7,9,11,13,15,17,19,21,23,25,27,29,31,33,35,37,39,41,43,45,47,49,51,53,55,57,59,61,63,-1,65,67,69,71,-1,73,75,77,79,81,83,85,87,89,91,93,95,97,99,101,103,105,107,109,111,-1,113,115,117,119,121,-1,123,-1,-1,-1,125,127,-1,129,131,133,135,137,139,141,143,145,147,-1,149,151,153,155,157,159,-1,161,163,-1,165,167,169,171,173,175,177,179,181,183,185,187,189,191,193,-1,195,197,199,201,203,205,-1,-1,207,209,211,213,-1,-1,-1,-1,-1,-1,-1,-1,-1,-1,-1,-1,-1,-1,-1,-1,-1,-1,-1,-1,-1,-1,-1,-1,-1,-1,-1,-1,-1,-1,-1,-1,-1,-1,-1,-1,-1,-1,-1,-1,-1,-1,-1,-1,-1,-1,-1,-1,-1,-1,-1,-1,-1,-1,-1,-1,-1,-1,-1,-1,-1,-1,-1,-1,-1,-1,-1,-1,-1,-1,-1,-1,-1,-1,-1,-1,-1,-1,-1,-1,-1,-1,-1,-1,-1,-1,-1,-1,-1,-1,-1,-1,-1,-1],"loss_changes":[5.7422915E3,8.51687E2,3.281836E2,6.965845E1,1.3660359E2,7.942266E1,1.1833447E2,6.331787E0,7.456155E0,1.3868668E2,7.668741E1,2.4102922E1,9.443565E0,5.006726E1,9.653546E1,1.859375E0,1.0893052E1,5.1197596E0,2.8463001E0,3.8270096E1,8.038956E1,7.789393E1,2.4250061E1,2.2207253E1,1.8784775E1,3.7710419E0,3.8993397E0,2.260437E1,1.6427439E1,2.3523193E1,6.9834595E1,2.1166992E-1,0E0,2.9946907E0,1.4091873E-1,3.355566E0,1.097554E1,0E0,1.0656662E0,4.4799755E1,2.3409988E1,2.8072311E1,7.89966E0,9.938728E0,2.0773481E1,2.1793945E1,2.262268E0,6.6032443E0,3.3025894E0,3.0448132E0,1.2093849E1,3.819172E0,3.4894943E0,3.7035735E0,3.859501E0,5.945738E0,1.4355957E1,1.3790694E1,0E0,9.8192005E0,7.7949524E-2,2.3577541E1,7.883923E1,1.8725586E-1,0E0,2.952728E0,0E0,0E0,0E0,1.7681675E0,2.49826E0,0E0,3.3075192E0,2.247253E0,1.1515279E0,1.2784461E1,1.5794735E0,2.4229815E1,6.7470093E0,1.1737116E1,1.5610138E1,1.2633705E0,0E0,9.214699E0,4.6748495E0,3.751646E0,2.7283787E1,1.3773102E1,1.6094612E1,0E0,6.489258E-1,3.3094034E0,0E0,2.6130447E0,3.0587997E0,2.8080175E0,2.19866E0,7.627096E0,7.1095963E0,1.6786537E0,4.252036E0,5.0056486E0,2.4467468E0,1.9400249E0,4.747952E0,3.6241665E0,4.6024957E0,5.57753E0,0E0,1.2428223E1,8.337269E0,1.216128E1,3.023797E0,3.4398503E0,7.5957613E0,0E0,0E0,1.5651844E1,5.071418E1,3.83739E1,1.6338966E1,0E0,0E0,0E0,0E0,0E0,0E0,0E0,0E0,0E0,0E0,0E0,0E0,0E0,0E0,0E0,0E0,0E0,0E0,0E0,0E0,0E0,0E0,0E0,0E0,0E0,0E0,0E0,0E0,0E0,0E0,0E0,0E0,0E0,0E0,0E0,0E0,0E0,0E0,0E0,0E0,0E0,0E0,0E0,0E0,0E0,0E0,0E0,0E0,0E0,0E0,0E0,0E0,0E0,0E0,0E0,0E0,0E0,0E0,0E0,0E0,0E0,0E0,0E0,0E0,0E0,0E0,0E0,0E0,0E0,0E0,0E0,0E0,0E0,0E0,0E0,0E0,0E0,0E0,0E0,0E0,0E0,0E0,0E0,0E0,0E0,0E0,0E0,0E0,0E0,0E0,0E0,0E0,0E0,0E0],"parents":[2147483647,0,0,1,1,2,2,3,3,4,4,5,5,6,6,7,7,8,8,9,9,10,10,11,11,12,12,13,13,14,14,15,15,16,16,17,17,18,18,19,19,20,20,21,21,22,22,23,23,24,24,25,25,26,26,27,27,28,28,29,29,30,30,31,31,33,33,34,34,35,35,36,36,38,38,39,39,40,40,41,41,42,42,43,43,44,44,45,45,46,46,47,47,48,48,49,49,50,50,51,51,52,52,53,53,54,54,55,55,56,56,57,57,59,59,60,60,61,61,62,62,63,63,65,65,69,69,70,70,72,72,73,73,74,74,75,75,76,76,77,77,78,78,79,79,80,80,81,81,83,83,84,84,85,85,86,86,87,87,88,88,90,90,91,91,93,93,94,94,95,95,96,96,97,97,98,98,99,99,100,100,101,101,102,102,103,103,104,104,105,105,106,106,107,107,109,109,110,110,111,111,112,112,113,113,114,114,117,117,118,118,119,119,120,120],"right_children":[2,4,6,8,10,12,14,16,18,20,22,24,26,28,30,32,34,36,38,40,42,44,46,48,50,52,54,56,58,60,62,64,-1,66,68,70,72,-1,74,76,78,80,82,84,86,88,90,92,94,96,98,100,102,104,106,108,110,112,-1,114,116,118,120,122,-1,124,-1,-1,-1,126,128,-1,130,132,134,136,138,140,142,144,146,148,-1,150,152,154,156,158,160,-1,162,164,-1,166,168,170,172,174,176,178,180,182,184,186,188,190,192,194,-1,196,198,200,202,204,206,-1,-1,208,210,212,214,-1,-1,-1,-1,-1,-1,-1,-1,-1,-1,-1,-1,-1,-1,-1,-1,-1,-1,-1,-1,-1,-1,-1,-1,-1,-1,-1,-1,-1,-1,-1,-1,-1,-1,-1,-1,-1,-1,-1,-1,-1,-1,-1,-1,-1,-1,-1,-1,-1,-1,-1,-1,-1,-1,-1,-1,-1,-1,-1,-1,-1,-1,-1,-1,-1,-1,-1,-1,-1,-1,-1,-1,-1,-1,-1,-1,-1,-1,-1,-1,-1,-1,-1,-1,-1,-1,-1,-1,-1,-1,-1,-1,-1,-1],"split_conditions":[-7.610695E-2,-2.730283E-1,-8.749681E-1,-7.7202894E-2,-2.684371E-1,-2.0689034E-1,5.7850134E-1,5.842301E-1,5.865216E-1,5.879183E-1,5.796471E-1,-7.40064E-2,5.796471E-1,2.6578245E0,-2.728718E-1,7.634551E-1,-2.7436742E-1,-6.953749E-1,-6.732886E-1,5.8537585E-1,1.7923782E0,-8.749681E-1,3.3878648E0,-2.5335908E-1,-2.728718E-1,-4.5832302E-2,-1.4080454E-1,-7.5011015E-2,5.097667E0,1.016953E0,-7.318445E-2,1.0324986E1,7.3432925E-6,1.187638E0,1.666725E-1,3.3794942E-1,-7.708873E-2,5.8957852E-2,-1.0533984E-2,1.016953E0,-1.6880585E-1,5.842301E-1,5.6177753E-1,-1.9805571E-1,-2.4471577E-1,-8.570088E-1,5.8079284E-1,1.5465343E0,-2.2295962E-1,5.796471E-1,-2.5768945E-1,-8.1093514E-1,-7.416623E-2,-7.245383E-2,-6.599235E-2,3.5048E0,8.4507537E-1,2.9775624E0,1.4157812E-1,-7.512517E-2,2.7394805E0,-2.4746354E-1,1.0120683E-1,3.1843607E0,3.8466576E-2,1.0025016E0,-1.3461117E-1,1.2011798E-1,3.2338157E-2,-2.7353263E-1,5.8308434E-1,-1.1964422E-1,-2.7353263E-1,1.0025016E0,8.4015965E-1,-2.7201962E-1,3.0133612E0,-7.704307E-2,5.865216E-1,-2.72437E-1,1.3446424E0,-3.1822917E-1,-6.942653E-2,-2.5162E-1,-7.704307E-2,3.1430209E0,-2.0944682E-1,-1.6673452E-1,4.5346646E0,2.3166433E-2,3.8123937E0,-2.6521975E-1,-1.1543453E-1,-7.512517E-2,5.819386E-1,-7.279631E-2,5.865216E-1,-7.793495E-1,5.773556E-1,-2.0428169E-1,5.773556E-1,6.359186E-2,5.0953186E-1,-1.8409073E-1,-7.060443E-2,-7.149488E-2,-1.8371915E-2,-2.6346326E-1,9.9949375E-2,-3.9006644E-1,7.6093614E-1,6.8857503E0,2.2997927E-2,-1.3610808E0,1.8463181E-1,1.2840234E-1,4.097741E-2,3.075437E0,-2.0689034E-1,7.1203904E0,1.7153889E0,1.3646558E-1,3.8925085E-2,-5.2518565E-2,9.7167544E-2,1.0442292E-1,6.345363E-3,6.0786735E-2,-2.6125154E-2,7.383987E-2,-3.752011E-2,5.0474145E-2,-6.560182E-2,-4.460293E-3,-1.1789363E-1,9.445985E-3,-8.3016366E-2,1.2892646E-1,3.529463E-2,-6.126199E-2,1.2297703E-1,1.2128836E-1,-4.663412E-2,3.8776595E-2,-5.7976287E-2,-1.2740037E-1,-9.259961E-3,1.4048765E-2,1.3296475E-1,3.898893E-2,9.0408795E-2,3.438459E-2,-6.2589176E-2,-5.949645E-2,4.2537846E-2,4.2635523E-2,-2.5386909E-2,1.0265493E-1,4.303467E-3,5.7758696E-2,-1.2295456E-1,1.4154789E-1,2.8431961E-2,-1.0831796E-2,2.942462E-2,7.143236E-2,3.219115E-2,1.08301714E-1,2.7589843E-2,-6.773725E-2,5.2669328E-2,1.0131114E-1,-2.1133147E-2,-9.581154E-2,-2.6161099E-2,-3.4218572E-2,1.06958365E-2,-1.2306257E-2,-1.07058324E-1,-7.363553E-2,-1.403403E-2,9.9081635E-2,-8.881719E-2,-1.1170681E-1,-5.7316095E-2,4.5312297E-2,-1.772099E-2,-8.744754E-2,-1.2266239E-2,-3.9145365E-2,-9.2403375E-2,-7.0179515E-2,-4.9719876E-3,-1.2727153E-1,-4.6677846E-2,-8.372182E-2,-1.1190176E-1,-7.577864E-2,1.8094847E-2,-6.802072E-2,4.0602244E-2,-3.204382E-2,1.1904649E-1,4.210232E-2,-1.0297888E-1,7.476815E-2,-2.0555902E-2,-7.269565E-2,1.3472044E-1,2.6344696E-2,-5.880804E-2,-8.595464E-2,7.539406E-2,-1.8122215E-2,7.4518934E-2],"split_indices":[1,2,7,1,2,2,5,5,5,4,5,1,5,2,2,76,2,7,4,5,26,7,23,2,2,2,2,1,59,26,1,64,0,0,7,0,1,0,0,26,4,5,7,2,2,7,5,0,2,5,2,0,1,1,1,61,1,26,0,1,54,2,1,26,0,6,0,0,0,2,5,0,2,6,4,2,26,1,5,2,4,7,0,2,1,93,2,2,77,0,14,2,0,1,5,1,5,0,5,2,5,2,2,2,1,1,2,2,0,7,2,2,7,0,7,0,0,61,2,25,2,0,0,0,0,0,0,0,0,0,0,0,0,0,0,0,0,0,0,0,0,0,0,0,0,0,0,0,0,0,0,0,0,0,0,0,0,0,0,0,0,0,0,0,0,0,0,0,0,0,0,0,0,0,0,0,0,0,0,0,0,0,0,0,0,0,0,0,0,0,0,0,0,0,0,0,0,0,0,0,0,0,0,0,0,0,0,0,0,0,0,0,0,0,0],"split_type":[0,0,0,0,0,0,0,0,0,0,0,0,0,0,0,0,0,0,0,0,0,0,0,0,0,0,0,0,0,0,0,0,0,0,0,0,0,0,0,0,0,0,0,0,0,0,0,0,0,0,0,0,0,0,0,0,0,0,0,0,0,0,0,0,0,0,0,0,0,0,0,0,0,0,0,0,0,0,0,0,0,0,0,0,0,0,0,0,0,0,0,0,0,0,0,0,0,0,0,0,0,0,0,0,0,0,0,0,0,0,0,0,0,0,0,0,0,0,0,0,0,0,0,0,0,0,0,0,0,0,0,0,0,0,0,0,0,0,0,0,0,0,0,0,0,0,0,0,0,0,0,0,0,0,0,0,0,0,0,0,0,0,0,0,0,0,0,0,0,0,0,0,0,0,0,0,0,0,0,0,0,0,0,0,0,0,0,0,0,0,0,0,0,0,0,0,0,0,0,0,0,0,0,0,0,0,0,0,0,0,0,0,0,0,0],"sum_hessian":[8.710997E3,3.7873804E3,4.9236167E3,2.2050708E3,1.5823096E3,7.8697614E2,4.1366406E3,2.1473513E3,5.7719566E1,4.0649094E2,1.1758186E3,4.968967E2,2.9007947E2,1.856736E3,2.2799045E3,2.1290806E3,1.8270746E1,4.6184067E1,1.1535499E1,1.8901727E2,2.1747365E2,5.245257E2,6.5129285E2,1.9552449E2,3.013722E2,1.2631185E2,1.6376761E2,1.7763722E3,8.036371E1,6.658194E1,2.2133228E3,2.1280806E3,1E0,4.9500523E0,1.3320695E1,2.9172215E1,1.7011852E1,1.4468323E0,1.0088666E1,8.2639175E1,1.063781E2,1.9543399E2,2.2039658E1,2.1961397E2,3.0491174E2,5.89153E2,6.2139862E1,8.420576E1,1.11318726E2,2.6287619E1,2.750846E2,6.640018E1,5.9911682E1,6.089119E1,1.0287642E2,8.4352264E1,1.69202E3,7.571195E1,4.651754E0,4.15701E1,2.5011835E1,4.136736E2,1.799649E3,2.12692E3,1.1605073E0,3.5309498E0,1.4191022E0,1.222873E1,1.091965E0,1.7638868E1,1.1533346E1,4.580119E0,1.2431733E1,5.305013E0,4.783653E0,6.087901E1,2.176017E1,2.8162987E1,7.821511E1,6.880644E1,1.2662755E2,2.040133E1,1.6383274E0,1.9648991E2,2.3124052E1,7.0509995E1,2.3440175E2,2.1664238E2,3.7251062E2,2.1536846E0,5.9986176E1,8.058513E1,3.6206279E0,7.571361E1,3.5605118E1,6.6389995E0,1.9648619E1,7.91561E1,1.9592848E2,1.7561926E1,4.883825E1,3.681528E0,5.6230152E1,1.8475044E1,4.2416145E1,5.5292583E1,4.758383E1,8.275349E1,1.5987768E0,1.6454226E3,4.659742E1,6.890436E1,6.8075933E0,9.579589E0,3.199051E1,2.3727129E1,1.2847068E0,1.3574568E2,2.7792795E2,1.6832218E3,1.1642729E2,2.1257659E3,1.153989E0,2.3542695E0,1.1766804E0,1.5417604E1,2.2212636E0,6.2411323E0,5.2922144E0,9.556995E0,2.874737E0,1.731916E0,3.5730972E0,1.2135077E0,3.5701451E0,2.470544E1,3.617357E1,1.8760271E1,2.9998975E0,1.755387E1,1.0609117E1,7.6236404E1,1.9787084E0,1.5535227E1,5.3271214E1,1.1405773E2,1.256982E1,1.198148E0,1.9203182E1,4.846905E1,1.4802087E2,1.7283146E1,5.8409057E0,6.739168E1,3.1183188E0,1.1179139E2,1.2261036E2,2.0122884E2,1.5413542E1,3.684192E2,4.091458E0,5.8901752E1,1.0844238E0,4.4267735E1,3.6317398E1,4.3947098E1,3.176651E1,2.9056854E1,6.5482645E0,1.9635955E0,4.675404E0,1.8399654E1,1.2489655E0,2.1249372E1,5.7906723E1,4.4876507E1,1.5105199E2,2.4318569E0,1.5130069E1,2.053462E1,2.8303629E1,1.7205155E0,1.9610125E0,4.1448574E1,1.4781578E1,1.0932507E1,7.5425377E0,1.0630318E1,3.1785828E1,2.7804085E1,2.7488499E1,1.5455082E1,3.212875E1,9.348085E0,7.34054E1,1.9326457E2,1.452158E3,3.4102936E1,1.2494484E1,5.707475E1,1.1829608E1,1.2012306E0,5.6063623E0,1.4119097E0,8.16768E0,1.7088652E1,1.4901859E1,1.3289511E2,2.8505752E0,1.3802223E2,1.399057E2,1.6690708E3,1.4150971E1,9.359241E1,2.2834883E1],"tree_param":{"num_deleted":"0","num_feature":"108","num_nodes":"215","size_leaf_vector":"1"}},{"base_weights":[2.1736498E-3,8.77373E-1,-6.585282E-1,1.2806742E0,3.3860165E-1,-1.0830604E-1,-7.65367E-1,1.3105197E0,2.197341E-1,-1.16993915E-2,5.4720867E-1,1.2351393E-1,-4.766058E-1,-5.300749E-1,-8.8046616E-1,1.3159165E0,6.6402423E-1,5.2790207E-1,-1.3319492E-1,4.3768695E-1,-4.283256E-1,4.0711132E-1,9.9672997E-1,3.3771303E-2,5.66221E-1,-2.5778967E-1,-6.108071E-1,-5.582652E-1,1.3309884E0,-9.664235E-1,-3.9010274E-1,1.316577E0,6.9856646E-6,-4.553853E-1,1.0991298E0,6.919958E-1,-1.0208626E-1,4.2439917E-1,-3.4374863E-1,-1.1561556E-1,7.4532515E-1,4.4576608E-2,-8.761175E-1,6.191612E-1,-4.750001E-2,1.1360387E0,7.684465E-1,-3.5849345E-1,1.3118567E-1,9.67104E-1,3.074799E-1,6.1279114E-2,-3.869449E-1,-8.021474E-1,-4.4751856E-1,-5.8282155E-1,1.2460946E0,1.4071203E0,1.328702E-2,-1.071185E0,-8.590834E-1,-4.8805138E-1,4.7310016E-1,1.316941E0,3.6619257E-2,8.066778E-2,-1.2625687E-1,5.8511204E-1,1.2408326E-1,-3.3391413E-1,8.2212347E-1,6.965633E-1,-3.0619076E-2,-5.436979E-1,3.1750003E-1,-3.154128E-1,9.5542294E-1,3.2293224E-1,9.927431E-1,-1.4370243E-1,1.0012743E0,-1.0951145E0,5.5145955E-1,8.797782E-1,3.3544478E-1,1.7601481E-1,-3.8257757E-1,1.1541394E0,-5.772954E-2,3.9310297E-1,1.0299515E0,1.1829313E-1,-6.113362E-1,5.929622E-1,4.90865E-2,1.0393833E0,-2.4405709E-2,3.4940195E-1,-6.4869486E-2,-7.696629E-2,9.653277E-1,-5.001385E-1,-1.2684691E-1,-1.0380403E0,-6.722949E-1,-6.143983E-1,-2.4725977E-1,-3.516903E-1,-7.8212863E-1,1.3997955E0,4.7829697E-1,1.4739199E0,2.7929723E-2,-8.5553855E-1,-1.1071647E0,-8.833727E-1,-9.244039E-2,-5.736122E-1,1.9040766E-1,6.662496E-1,-6.2532E-1,1.317298E-1,3.7057173E-2,-6.0583737E-2,7.862004E-2,8.090749E-2,-8.909656E-3,3.0258104E-2,-7.352609E-2,9.348642E-2,2.470745E-2,2.0028362E-3,8.508713E-2,-7.931869E-2,2.3732325E-2,7.8697525E-2,-7.946447E-2,-6.034363E-3,-7.229576E-2,1.1542254E-1,-8.54514E-2,8.522323E-3,1.3370469E-1,1.0474491E-1,-5.1578254E-2,-3.5828874E-2,6.357523E-2,1.1790804E-1,-8.830591E-2,-1.1590711E-1,1.5161678E-1,1.3430397E-1,-7.926051E-2,4.9496945E-2,9.377264E-2,7.089448E-3,7.322865E-2,2.5542105E-2,-6.004789E-2,-5.6011844E-2,7.383745E-2,1.1725407E-1,-4.5043398E-2,8.228596E-2,-1.6590443E-2,6.61258E-2,1.2990429E-1,-9.848138E-2,2.3696085E-2,-1.20910466E-1,-4.0463183E-2,7.073269E-2,-4.8804462E-2,-4.3481883E-2,2.2898091E-2,2.8657263E-2,1.0580019E-1,4.771487E-2,-1.8238453E-3,9.874619E-3,-5.3132106E-2,1.2066352E-1,3.434036E-2,-5.2824724E-2,4.5338806E-2,-8.085657E-2,1.24109285E-2,-1.1955341E-1,-6.1680038E-2,4.7867406E-2,-7.103547E-2,5.827267E-2,-6.574497E-2,-8.70031E-2,-1.1010769E-2,-3.9955243E-2,4.7400963E-2,-8.024359E-2,6.481935E-2,1.498547E-1,1.5769465E-2,-7.512183E-2,1.3419418E-1,1.550517E-1,5.3070556E-2,-8.832916E-2,7.282747E-2,-1.11937165E-1,-5.919338E-2,-6.3515924E-2,-9.3260884E-2,-2.2852711E-2,1.1597978E-1,-7.208449E-2,-2.1292608E-2,6.270992E-2,-5.2064806E-2,-4.718318E-2,7.975194E-2,-1.24395445E-1,7.904773E-2],"categories":[],"categories_nodes":[],"categories_segments":[],"categories_sizes":[],"default_left":[0,0,0,0,0,0,0,0,0,0,0,0,0,0,0,0,0,0,0,0,0,0,0,0,0,0,0,0,0,0,0,0,0,0,0,0,0,0,0,0,0,0,0,0,0,0,0,0,0,0,0,0,0,0,0,0,0,0,0,0,0,0,0,0,0,0,0,0,0,0,0,0,0,0,0,0,0,0,0,0,0,0,0,0,0,0,0,0,0,0,0,0,0,0,0,0,0,0,0,0,0,0,0,0,0,0,0,0,0,0,0,0,0,0,0,0,0,0,0,0,0,0,0,0,0,0,0,0,0,0,0,0,0,0,0,0,0,0,0,0,0,0,0,0,0,0,0,0,0,0,0,0,0,0,0,0,0,0,0,0,0,0,0,0,0,0,0,0,0,0,0,0,0,0,0,0,0,0,0,0,0,0,0,0,0,0,0,0,0,0,0,0,0,0,0,0,0,0,0,0,0,0,0,0,0,0,0,0,0,0,0,0,0,0,0,0,0,0,0,0,0],"id":7,"left_children":[1,3,5,7,9,11,13,15,17,19,21,23,25,27,29,31,33,35,37,39,41,43,45,47,49,51,53,55,57,59,61,63,-1,65,67,69,-1,71,73,75,77,79,81,83,85,87,89,91,93,95,97,99,101,103,105,107,109,111,-1,113,115,117,119,121,-1,123,-1,125,-1,127,129,131,-1,133,135,137,139,141,143,145,147,149,151,153,155,157,159,161,-1,163,165,167,169,