{"learner":{"attributes":{"scikit_learn":"{\"_estimator_type\": \"classifier\"}"},"feature_names":[],"feature_types":[],"gradient_booster":{"model":{"gbtree_model_param":{"num_parallel_tree":"1","num_trees":"50"},"iteration_indptr":[0,1,2,3,4,5,6,7,8,9,10,11,12,13,14,15,16,17,18,19,20,21,22,23,24,25,26,27,28,29,30,31,32,33,34,35,36,37,38,39,40,41,42,43,44,45,46,47,48,49,50],"tree_info":[0,0,0,0,0,0,0,0,0,0,0,0,0,0,0,0,0,0,0,0,0,0,0,0,0,0,0,0,0,0,0,0,0,0,0,0,0,0,0,0,0,0,0,0,0,0,0,0,0,0],"trees":[{"base_weights":[9.088263E-5,1.6742631E0,-1.706967E0,-7.977396E-1,1.86851E0,-1.7901247E0,-1.182182E0,9.978311E-2,-1.989306E-1,3.7746593E-1,-1.22385204E-1,-3.6217463E-1,-6.0565908E-2,-2.7783626E-1,-3.9464645E-3],"categories":[],"categories_nodes":[],"categories_segments":[],"categories_sizes":[],"default_left":[0,0,0,0,0,0,0,0,0,0,0,0,0,0,0],"id":0,"left_children":[1,3,5,7,9,11,13,-1,-1,-1,-1,-1,-1,-1,-1],"loss_changes":[1.6118896E3,1.3822046E2,1.0070679E1,5.97198E0,1.3492737E1,6.8306274E0,9.872822E0,0E0,0E0,0E0,0E0,0E0,0E0,0E0,0E0],"parents":[2147483647,0,0,1,1,2,2,3,3,4,4,5,5,6,6],"right_children":[2,4,6,8,10,12,14,-1,-1,-1,-1,-1,-1,-1,-1],"split_conditions":[-3.2681155E-1,7.67047E-1,7.67047E-1,-8.9254016E-1,-1.8149444E-1,5.717335E0,2.2340839E-1,9.978311E-2,-1.989306E-1,3.7746593E-1,-1.22385204E-1,-3.6217463E-1,-6.0565908E-2,-2.7783626E-1,-3.9464645E-3],"split_indices":[0,6,6,2,3,3,3,0,0,0,0,0,0,0,0],"split_type":[0,0,0,0,0,0,0,0,0,0,0,0,0,0,0],"sum_hessian":[5.620102E2,2.837478E2,2.7826236E2,2.04458E1,2.63302E2,2.3811877E2,4.0143585E1,2.4933903E0,1.795241E1,2.6155664E2,1.7453732E0,2.3462802E2,3.4907465E0,3.3910107E1,6.2334757E0],"tree_param":{"num_deleted":"0","num_feature":"8","num_nodes":"15","size_leaf_vector":"1"}},{"base_weights":[2.665316E-3,1.4163482E0,-1.3856583E0,-6.428534E-1,1.5869275E0,-1.4543775E0,-9.563248E-1,-4.4110622E-2,-2.4636602E-1,3.2079774E-1,-1.06621064E-1,-1.74589E-1,-3.0343184E-1,1.573936E-1,-2.1304949E-1],"categories":[],"categories_nodes":[],"categories_segments":[],"categories_sizes":[],"default_left":[0,0,0,0,0,0,0,0,0,0,0,0,0,0,0],"id":1,"left_children":[1,3,5,7,9,11,13,-1,-1,-1,-1,-1,-1,-1,-1],"loss_changes":[1.0729441E3,9.616382E1,6.746643E0,5.0592604E0,9.91333E0,7.284546E0,8.6189995E0,0E0,0E0,0E0,0E0,0E0,0E0,0E0,0E0],"parents":[2147483647,0,0,1,1,2,2,3,3,4,4,5,5,6,6],"right_children":[2,4,6,8,10,12,14,-1,-1,-1,-1,-1,-1,-1,-1],"split_conditions":[-3.2681155E-1,7.67047E-1,7.67047E-1,-7.226145E-1,-1.8149444E-1,-7.5851434E-1,-3.2055593E-1,-4.4110622E-2,-2.4636602E-1,3.2079774E-1,-1.06621064E-1,-1.74589E-1,-3.0343184E-1,1.573936E-1,-2.1304949E-1],"split_indices":[0,6,6,2,3,2,0,0,0,0,0,0,0,0,0],"split_type":[0,0,0,0,0,0,0,0,0,0,0,0,0,0,0],"sum_hessian":[5.446816E2,2.69866E2,2.7481558E2,2.0433083E1,2.4943292E2,2.3483958E2,3.9976E1,1.27009115E1,7.7321706E0,2.4768307E2,1.7498343E0,2.4338762E1,2.1050082E2,1.9847814E0,3.799122E1],"tree_param":{"num_deleted":"0","num_feature":"8","num_nodes":"15","size_leaf_vector":"1"}},{"base_weights":[4.4079605E-3,1.2551789E0,-1.1768517E0,-5.343393E-1,1.4168433E0,-1.2418166E0,-7.862075E-1,-2.8547281E-2,-2.122366E-1,2.8669712E-1,-9.330116E-2,-1.4563064E-1,-2.5981876E-1,-2.1499339E-1,-1.6989332E-2],"categories":[],"categories_nodes":[],"categories_segments":[],"categories_sizes":[],"default_left":[0,0,0,0,0,0,0,0,0,0,0,0,0,0,0],"id":2,"left_children":[1,3,5,7,9,11,13,-1,-1,-1,-1,-1,-1,-1,-1],"loss_changes":[7.5210034E2,7.228522E1,5.6676025E0,4.224741E0,7.784607E0,5.607422E0,8.019657E0,0E0,0E0,0E0,0E0,0E0,0E0,0E0,0E0],"parents":[2147483647,0,0,1,1,2,2,3,3,4,4,5,5,6,6],"right_children":[2,4,6,8,10,12,14,-1,-1,-1,-1,-1,-1,-1,-1],"split_conditions":[-3.2681155E-1,7.67047E-1,7.67047E-1,1.3419273E0,-1.8149444E-1,-7.5851434E-1,-9.2896074E-2,-2.8547281E-2,-2.122366E-1,2.8669712E-1,-9.330116E-2,-1.4563064E-1,-2.5981876E-1,-2.1499339E-1,-1.6989332E-2],"split_indices":[0,6,6,5,3,2,3,0,0,0,0,0,0,0,0],"split_type":[0,0,0,0,0,0,0,0,0,0,0,0,0,0,0],"sum_hessian":[5.070411E2,2.4624416E2,2.6079697E2,2.021146E1,2.2603268E2,2.2174193E2,3.9055042E1,1.2322827E1,7.888633E0,2.2428963E2,1.7430639E0,2.3621012E1,1.9812091E2,2.7286375E1,1.1768667E1],"tree_param":{"num_deleted":"0","num_feature":"8","num_nodes":"15","size_leaf_vector":"1"}},{"base_weights":[5.5925543E-3,1.1429696E0,-1.0246286E0,-4.457538E-1,1.3031751E0,-1.0418596E0,1.8324125E-1,1.6998773E-2,-1.5788268E-1,2.6402733E-1,-8.190345E-2,-2.2195318E-1,-1.3201493E-1,-1.7181246E-1,1.7050116E-1],"categories":[],"categories_nodes":[],"categories_segments":[],"categories_sizes":[],"default_left":[0,0,0,0,0,0,0,0,0,0,0,0,0,0,0],"id":3,"left_children":[1,3,5,7,9,11,13,-1,-1,-1,-1,-1,-1,-1,-1],"loss_changes":[5.433855E2,5.667868E1,5.255371E0,3.8854976E0,6.3642273E0,5.4911804E0,3.7130504E0,0E0,0E0,0E0,0E0,0E0,0E0,0E0,0E0],"parents":[2147483647,0,0,1,1,2,2,3,3,4,4,5,5,6,6],"right_children":[2,4,6,8,10,12,14,-1,-1,-1,-1,-1,-1,-1,-1],"split_conditions":[-3.2681155E-1,7.67047E-1,5.717335E0,-8.1116736E-1,-1.8149444E-1,7.67047E-1,4.9013015E-2,1.6998773E-2,-1.5788268E-1,2.6402733E-1,-8.190345E-2,-2.2195318E-1,-1.3201493E-1,-1.7181246E-1,1.7050116E-1],"split_indices":[0,6,3,2,3,6,1,0,0,0,0,0,0,0,0],"split_type":[0,0,0,0,0,0,0,0,0,0,0,0,0,0,0],"sum_hessian":[4.6173895E2,2.1940436E2,2.423346E2,1.993462E1,1.9946974E2,2.3906168E2,3.2729278E0,8.130524E0,1.1804097E1,1.9774063E2,1.7291121E0,2.01343E2,3.7718678E1,1.1689029E0,2.1040251E0],"tree_param":{"num_deleted":"0","num_feature":"8","num_nodes":"15","size_leaf_vector":"1"}},{"base_weights":[7.542316E-3,1.0989783E0,-8.7174004E-1,-2.7233654E-1,1.2356129E0,-9.6640545E-1,-4.2007598E-1,2.3855012E-2,-1.7932715E-1,2.4906598E-1,-1.1360603E-2,-1.02928005E-1,-2.0691338E-1,-1.6664599E-1,1.13551416E-1],"categories":[],"categories_nodes":[],"categories_segments":[],"categories_sizes":[],"default_left":[0,0,0,0,0,0,0,0,0,0,0,0,0,0,0],"id":4,"left_children":[1,3,5,7,9,11,13,-1,-1,-1,-1,-1,-1,-1,-1],"loss_changes":[4.0074075E2,3.524501E1,9.482437E0,4.4344764E0,2.2007446E0,5.331421E0,1.755005E1,0E0,0E0,0E0,0E0,0E0,0E0,0E0,0E0],"parents":[2147483647,0,0,1,1,2,2,3,3,4,4,5,5,6,6],"right_children":[2,4,6,8,10,12,14,-1,-1,-1,-1,-1,-1,-1,-1],"split_conditions":[-3.295223E-1,7.67047E-1,7.67047E-1,-7.226145E-1,-1.8149444E-1,-7.441544E-1,2.3710634E-1,2.3855012E-2,-1.7932715E-1,2.4906598E-1,-1.1360603E-2,-1.02928005E-1,-2.0691338E-1,-1.6664599E-1,1.13551416E-1],"split_indices":[0,6,6,2,3,2,2,0,0,0,0,0,0,0,0],"split_type":[0,0,0,0,0,0,0,0,0,0,0,0,0,0,0],"sum_hessian":[4.1557907E2,1.853089E2,2.3027017E2,1.6700754E1,1.6860814E2,1.8942786E2,4.0842308E1,1.076009E1,5.940665E0,1.6738608E2,1.2220576E0,2.595459E1,1.6347327E2,2.890818E1,1.1934127E1],"tree_param":{"num_deleted":"0","num_feature":"8","num_nodes":"15","size_leaf_vector":"1"}},{"base_weights":[9.041433E-3,1.0316241E0,-7.706906E-1,-2.3247863E-1,1.1756979E0,-8.630163E-1,-3.5425395E-1,-1.0247518E-1,1.0342842E-1,2.3728524E-1,-1.0121706E-2,-1.7726861E-1,6.2106844E-2,1.6472635E-1,-1.2631667E-1],"categories":[],"categories_nodes":[],"categories_segments":[],"categories_sizes":[],"default_left":[0,0,0,0,0,0,0,0,0,0,0,0,0,0,0],"id":5,"left_children":[1,3,5,7,9,11,13,-1,-1,-1,-1,-1,-1,-1,-1],"loss_changes":[2.9815234E2,2.9735626E1,7.8515778E0,3.9128504E0,1.9727478E0,5.010254E0,1.3651464E1,0E0,0E0,0E0,0E0,0E0,0E0,0E0,0E0],"parents":[2147483647,0,0,1,1,2,2,3,3,4,4,5,5,6,6],"right_children":[2,4,6,8,10,12,14,-1,-1,-1,-1,-1,-1,-1,-1],"split_conditions":[-3.295223E-1,7.67047E-1,7.67047E-1,-1.8066642E-1,-1.8149444E-1,5.717335E0,-1.8315049E-1,-1.0247518E-1,1.0342842E-1,2.3728524E-1,-1.0121706E-2,-1.7726861E-1,6.2106844E-2,1.6472635E-1,-1.2631667E-1],"split_indices":[0,6,6,3,3,3,3,0,0,0,0,0,0,0,0],"split_type":[0,0,0,0,0,0,0,0,0,0,0,0,0,0,0],"sum_hessian":[3.7193643E2,1.607704E2,2.1116602E2,1.6386023E1,1.4438438E2,1.7196771E2,3.919831E1,1.2161563E1,4.22446E0,1.4316444E2,1.2199452E0,1.6885608E2,3.1116261E0,7.0948567E0,3.2103455E1],"tree_param":{"num_deleted":"0","num_feature":"8","num_nodes":"15","size_leaf_vector":"1"}},{"base_weights":[1.1861707E-2,9.753446E-1,-6.8053186E-1,-1.8904017E-1,1.129392E0,-7.7063394E-1,-2.9622507E-1,6.601528E-2,-1.1773779E-1,2.2828999E-1,-9.018028E-3,-5.839594E-2,-1.7012034E-1,1.15932845E-1,-1.2548912E-1],"categories":[],"categories_nodes":[],"categories_segments":[],"categories_sizes":[],"default_left":[0,0,0,0,0,0,0,0,0,0,0,0,0,0,0],"id":6,"left_children":[1,3,5,7,9,11,13,-1,-1,-1,-1,-1,-1,-1,-1],"loss_changes":[2.230218E2,2.5286758E1,6.5077057E0,3.7604706E0,1.8018036E0,5.759613E0,1.155355E1,0E0,0E0,0E0,0E0,0E0,0E0,0E0,0E0],"parents":[2147483647,0,0,1,1,2,2,3,3,4,4,5,5,6,6],"right_children":[2,4,6,8,10,12,14,-1,-1,-1,-1,-1,-1,-1,-1],"split_conditions":[-3.295223E-1,7.67047E-1,7.67047E-1,-8.1116736E-1,-1.8149444E-1,-7.441544E-1,-4.1512508E-2,6.601528E-2,-1.1773779E-1,2.2828999E-1,-9.018028E-3,-5.839594E-2,-1.7012034E-1,1.15932845E-1,-1.2548912E-1],"split_indices":[0,6,6,2,3,2,1,0,0,0,0,0,0,0,0],"split_type":[0,0,0,0,0,0,0,0,0,0,0,0,0,0,0],"sum_hessian":[3.3231573E2,1.3878471E2,1.9353104E2,1.618926E1,1.2259545E2,1.5596034E2,3.7570698E1,7.117803E0,9.071458E0,1.2137745E2,1.2180017E0,2.299184E1,1.3296849E2,1.0103258E1,2.746744E1],"tree_param":{"num_deleted":"0","num_feature":"8","num_nodes":"15","size_leaf_vector":"1"}},{"base_weights":[1.3523031E-2,9.260674E-1,-6.002511E-1,-1.584743E-1,1.092296E0,-6.8755674E-1,-2.4855943E-1,-8.1522934E-2,9.562418E-2,2.212049E-1,-8.034759E-3,-1.4177561E-1,1.5703748E-1,-1.1730456E-1,1.0252305E-1],"categories":[],"categories_nodes":[],"categories_segments":[],"categories_sizes":[],"default_left":[0,0,0,0,0,0,0,0,0,0,0,0,0,0,0],"id":7,"left_children":[1,3,5,7,9,11,13,-1,-1,-1,-1,-1,-1,-1,-1],"loss_changes":[1.6761406E2,2.1867226E1,5.3231583E0,2.869843E0,1.6686325E0,5.0400467E0,9.857832E0,0E0,0E0,0E0,0E0,0E0,0E0,0E0,0E0],"parents":[2147483647,0,0,1,1,2,2,3,3,4,4,5,5,6,6],"right_children":[2,4,6,8,10,12,14,-1,-1,-1,-1,-1,-1,-1,-1],"split_conditions":[-3.295223E-1,7.67047E-1,7.67047E-1,-1.8066642E-1,-1.8149444E-1,4.8131323E0,2.3710634E-1,-8.1522934E-2,9.562418E-2,2.212049E-1,-8.034759E-3,-1.4177561E-1,1.5703748E-1,-1.1730456E-1,1.0252305E-1],"split_indices":[0,6,6,3,3,2,2,0,0,0,0,0,0,0,0],"split_type":[0,0,0,0,0,0,0,0,0,0,0,0,0,0,0],"sum_hessian":[2.97267E2,1.1933453E2,1.7793248E2,1.586587E1,1.0346866E2,1.4178107E2,3.6151417E1,1.1661627E1,4.204244E0,1.0225244E2,1.2162213E0,1.4026903E2,1.5120418E0,2.5194464E1,1.0956952E1],"tree_param":{"num_deleted":"0","num_feature":"8","num_nodes":"15","size_leaf_vector":"1"}},{"base_weights":[1.6182717E-2,8.803269E-1,-5.2578515E-1,-1.2815008E-1,1.0614895E0,-6.1467797E-1,-1.6478583E-1,4.596508E-2,-1.1828571E-1,2.1545331E-1,-7.1587465E-3,-6.160226E-2,-1.5817037E-1,2.1388085E-1,-7.6037236E-2],"categories":[],"categories_nodes":[],"categories_segments":[],"categories_sizes":[],"default_left":[0,0,0,0,0,0,0,0,0,0,0,0,0,0,0],"id":8,"left_children":[1,3,5,7,9,11,13,-1,-1,-1,-1,-1,-1,-1,-1],"loss_changes":[1.2592878E2,1.906923E1,5.202099E0,2.901109E0,1.5612793E0,6.9011307E0,9.450742E0,0E0,0E0,0E0,0E0,0E0,0E0,0E0,0E0],"parents":[2147483647,0,0,1,1,2,2,3,3,4,4,5,5,6,6],"right_children":[2,4,6,8,10,12,14,-1,-1,-1,-1,-1,-1,-1,-1],"split_conditions":[-3.295223E-1,7.67047E-1,7.933253E-2,-7.824475E-1,-1.8149444E-1,-2.4861623E-1,-3.7153874E-2,4.596508E-2,-1.1828571E-1,2.1545331E-1,-7.1587465E-3,-6.160226E-2,-1.5817037E-1,2.1388085E-1,-7.6037236E-2],"split_indices":[0,6,3,2,3,0,1,0,0,0,0,0,0,0,0],"split_type":[0,0,0,0,0,0,0,0,0,0,0,0,0,0,0],"sum_hessian":[2.6689587E2,1.0263095E2,1.6426491E2,1.5673573E1,8.695738E1,1.3124445E2,3.3020466E1,9.1259E0,6.5476723E0,8.574278E1,1.214597E0,4.8889908E1,8.2354546E1,4.317506E0,2.8702957E1],"tree_param":{"num_deleted":"0","num_feature":"8","num_nodes":"15","size_leaf_vector":"1"}},{"base_weights":[1.7524028E-2,8.3619803E-1,-4.557798E-1,-1.0982308E-1,1.03492E0,-5.443642E-1,-1.3009721E-1,3.9554935E-2,-1.1650448E-1,2.1063402E-1,-6.378223E-3,-8.490168E-3,-1.2827554E-1,1.4647365E-1,-7.037228E-2],"categories":[],"categories_nodes":[],"categories_segments":[],"categories_sizes":[],"default_left":[0,0,0,0,0,0,0,0,0,0,0,0,0,0,0],"id":9,"left_children":[1,3,5,7,9,11,13,-1,-1,-1,-1,-1,-1,-1,-1],"loss_changes":[9.4435455E1,1.6897015E1,4.3853264E0,2.5000598E0,1.4718628E0,5.8701324E0,6.8261175E0,0E0,0E0,0E0,0E0,0E0,0E0,0E0,0E0],"parents":[2147483647,0,0,1,1,2,2,3,3,4,4,5,5,6,6],"right_children":[2,4,6,8,10,12,14,-1,-1,-1,-1,-1,-1,-1,-1],"split_conditions":[-3.295223E-1,7.67047E-1,7.67047E-1,1.3419273E0,-1.8149444E-1,-7.441544E-1,-1.8315049E-1,3.9554935E-2,-1.1650448E-1,2.1063402E-1,-6.378223E-3,-8.490168E-3,-1.2827554E-1,1.4647365E-1,-7.037228E-2],"split_indices":[0,6,6,5,3,2,3,0,0,0,0,0,0,0,0],"split_type":[0,0,0,0,0,0,0,0,0,0,0,0,0,0,0],"sum_hessian":[2.4173242E2,8.82755E1,1.5345692E2,1.5401866E1,7.2873634E1,1.2011472E2,3.3342197E1,9.682692E0,5.719174E0,7.1660515E1,1.2131194E0,1.9688906E1,1.0042582E2,6.348749E0,2.6993446E1],"tree_param":{"num_deleted":"0","num_feature":"8","num_nodes":"15","size_leaf_vector":"1"}},{"base_weights":[1.877217E-2,7.915166E-1,-3.949318E-1,-9.425804E-2,1.0110701E0,-4.8969433E-1,-3.083537E-2,3.4241825E-2,-1.2012257E-1,2.0645419E-1,-5.6827846E-3,-4.319682E-2,-1.325992E-1,1.8621151E-1,-4.6171986E-2],"categories":[],"categories_nodes":[],"categories_segments":[],"categories_sizes":[],"default_left":[0,0,0,0,0,0,0,0,0,0,0,0,0,0,0],"id":10,"left_children":[1,3,5,7,9,11,13,-1,-1,-1,-1,-1,-1,-1,-1],"loss_changes":[7.080365E1,1.5112507E1,4.9629765E0,2.287559E0,1.3949356E0,5.284107E0,6.1531944E0,0E0,0E0,0E0,0E0,0E0,0E0,0E0,0E0],"parents":[2147483647,0,0,1,1,2,2,3,3,4,4,5,5,6,6],"right_children":[2,4,6,8,10,12,14,-1,-1,-1,-1,-1,-1,-1,-1],"split_conditions":[-3.295223E-1,7.67047E-1,7.933253E-2,-7.226145E-1,-1.8149444E-1,-2.4861623E-1,-3.7153874E-2,3.4241825E-2,-1.2012257E-1,2.0645419E-1,-5.6827846E-3,-4.319682E-2,-1.325992E-1,1.8621151E-1,-4.6171986E-2],"split_indices":[0,6,3,2,3,0,1,0,0,0,0,0,0,0,0],"split_type":[0,0,0,0,0,0,0,0,0,0,0,0,0,0,0],"sum_hessian":[2.1949994E2,7.621922E1,1.4328072E2,1.5252932E1,6.0966293E1,1.1341698E2,2.9863733E1,1.0440932E1,4.8119993E0,5.9754513E1,1.2117792E0,4.4841393E1,6.8575584E1,4.511893E0,2.5351841E1],"tree_param":{"num_deleted":"0","num_feature":"8","num_nodes":"15","size_leaf_vector":"1"}},{"base_weights":[1.9462677E-2,7.4733186E-1,-3.379327E-1,-8.3035186E-2,9.887646E-1,-4.6386385E-1,-1.0300078E-1,-5.2212596E-2,1.2575497E-1,2.0269005E-1,-5.063199E-3,-5.0425418E-2,-1.4321981E-1,1.5870892E-1,-4.669423E-2],"categories":[],"categories_nodes":[],"categories_segments":[],"categories_sizes":[],"default_left":[0,0,0,0,0,0,0,0,0,0,0,0,0,0,0],"id":11,"left_children":[1,3,5,7,9,11,13,-1,-1,-1,-1,-1,-1,-1,-1],"loss_changes":[5.2912277E1,1.3509125E1,3.989295E0,2.1928778E0,1.3265305E0,4.548731E0,5.9057693E0,0E0,0E0,0E0,0E0,0E0,0E0,0E0,0E0],"parents":[2147483647,0,0,1,1,2,2,3,3,4,4,5,5,6,6],"right_children":[2,4,6,8,10,12,14,-1,-1,-1,-1,-1,-1,-1,-1],"split_conditions":[-3.295223E-1,7.67047E-1,-1.0366036E-1,-1.7901038E-1,-1.8149444E-1,-2.1692106E-1,-3.916555E-2,-5.2212596E-2,1.2575497E-1,2.0269005E-1,-5.063199E-3,-5.0425418E-2,-1.4321981E-1,1.5870892E-1,-4.669423E-2],"split_indices":[0,6,3,3,3,0,1,0,0,0,0,0,0,0,0],"split_type":[0,0,0,0,0,0,0,0,0,0,0,0,0,0,0],"sum_hessian":[2.014307E2,6.597512E1,1.3545557E2,1.5009287E1,5.0965836E1,8.755095E1,4.7904617E1,1.2512963E1,2.4963236E0,4.975527E1,1.2105662E0,4.8683525E1,3.8867424E1,5.44009E0,4.2464527E1],"tree_param":{"num_deleted":"0","num_feature":"8","num_nodes":"15","size_leaf_vector":"1"}},{"base_weights":[2.0342087E-2,6.417294E-1,-3.2061115E-1,-1.4265491E-1,9.478569E-1,2.3410828E-1,-4.0807003E-1,2.7515674E-2,-1.2157589E-1,2.0110333E-1,-2.2234038E-2,-2.6480114E-2,2.1773775E-1,-1.22223966E-1,-2.4844926E-2],"categories":[],"categories_nodes":[],"categories_segments":[],"categories_sizes":[],"default_left":[0,0,0,0,0,0,0,0,0,0,0,0,0,0,0],"id":12,"left_children":[1,3,5,7,9,11,13,-1,-1,-1,-1,-1,-1,-1,-1],"loss_changes":[3.994792E1,1.61737E1,6.004201E0,2.6414275E0,3.0534363E0,5.5383215E0,6.0084743E0,0E0,0E0,0E0,0E0,0E0,0E0,0E0,0E0],"parents":[2147483647,0,0,1,1,2,2,3,3,4,4,5,5,6,6],"right_children":[2,4,6,8,10,12,14,-1,-1,-1,-1,-1,-1,-1,-1],"split_conditions":[-3.2326669E-1,7.67047E-1,-7.5851434E-1,1.3419273E0,-1.8315049E-1,-4.028315E-2,-1.0366036E-1,2.7515674E-2,-1.2157589E-1,2.0110333E-1,-2.2234038E-2,-2.6480114E-2,2.1773775E-1,-1.22223966E-1,-2.4844926E-2],"split_indices":[0,6,2,5,3,1,3,0,0,0,0,0,0,0,0],"split_type":[0,0,0,0,0,0,0,0,0,0,0,0,0,0,0],"sum_hessian":[1.865834E2,6.5793175E1,1.2079023E2,1.8619303E1,4.717387E1,1.622217E1,1.04568054E2,1.2059439E1,6.559864E0,4.478598E1,2.3878891E0,1.1944523E1,4.277647E0,6.0287895E1,4.4280163E1],"tree_param":{"num_deleted":"0","num_feature":"8","num_nodes":"15","size_leaf_vector":"1"}},{"base_weights":[2.0155508E-2,6.6345423E-1,-2.4619998E-1,-3.985911E-2,9.458589E-1,-3.0101764E-1,3.4322405E-1,6.2548004E-2,-7.114293E-2,1.9572984E-1,-2.0865954E-3,-8.108216E-2,7.2334646E-3,-5.743608E-2,2.323381E-1],"categories":[],"categories_nodes":[],"categories_segments":[],"categories_sizes":[],"default_left":[0,0,0,0,0,0,0,0,0,0,0,0,0,0,0],"id":13,"left_children":[1,3,5,7,9,11,13,-1,-1,-1,-1,-1,-1,-1,-1],"loss_changes":[3.0030642E1,1.0228884E1,4.1098466E0,1.8552787E0,1.159462E0,4.026782E0,6.0186167E0,0E0,0E0,0E0,0E0,0E0,0E0,0E0,0E0],"parents":[2147483647,0,0,1,1,2,2,3,3,4,4,5,5,6,6],"right_children":[2,4,6,8,10,12,14,-1,-1,-1,-1,-1,-1,-1,-1],"split_conditions":[-3.295223E-1,7.67047E-1,5.448925E-2,-8.1116736E-1,-1.8149444E-1,7.67047E-1,1.2335954E0,6.2548004E-2,-7.114293E-2,1.9572984E-1,-2.0865954E-3,-8.108216E-2,7.2334646E-3,-5.743608E-2,2.323381E-1],"split_indices":[0,6,1,2,3,6,3,0,0,0,0,0,0,0,0],"split_type":[0,0,0,0,0,0,0,0,0,0,0,0,0,0,0],"sum_hessian":[1.7330972E2,5.031021E1,1.2299951E2,1.4659755E1,3.5650455E1,1.1298131E2,1.0018197E1,6.931629E0,7.728125E0,3.444596E1,1.204494E0,8.611698E1,2.6864328E1,6.025964E0,3.992233E0],"tree_param":{"num_deleted":"0","num_feature":"8","num_nodes":"15","size_leaf_vector":"1"}},{"base_weights":[2.07332E-2,5.8932894E-1,-2.243558E-1,-2.428787E-1,9.363113E-1,-4.5495003E-1,-4.8846424E-2,1.4022104E-1,-8.258518E-2,2.016264E-1,-1.3353929E-1,-1.8611023E-2,-1.415195E-1,9.187286E-2,-3.6936905E-2],"categories":[],"categories_nodes":[],"categories_segments":[],"categories_sizes":[],"default_left":[0,0,0,0,0,0,0,0,0,0,0,0,0,0,0],"id":14,"left_children":[1,3,5,7,9,11,13,-1,-1,-1,-1,-1,-1,-1,-1],"loss_changes":[2.2914518E1,1.4526281E1,4.630542E0,2.7559106E0,4.722788E0,4.465951E0,4.668674E0,0E0,0E0,0E0,0E0,0E0,0E0,0E0,0E0],"parents":[2147483647,0,0,1,1,2,2,3,3,4,4,5,5,6,6],"right_children":[2,4,6,8,10,12,14,-1,-1,-1,-1,-1,-1,-1,-1],"split_conditions":[-1.8315049E-1,7.67047E-1,-1.6244994E-1,-8.8775355E-1,-4.095371E-2,-6.8432146E-1,-2.1692106E-1,1.4022104E-1,-8.258518E-2,2.016264E-1,-1.3353929E-1,-1.8611023E-2,-1.415195E-1,9.187286E-2,-3.6936905E-2],"split_indices":[3,6,3,2,1,2,0,0,0,0,0,0,0,0,0],"split_type":[0,0,0,0,0,0,0,0,0,0,0,0,0,0,0],"sum_hessian":[1.6248206E2,4.851796E1,1.13964096E2,1.4364927E1,3.4153034E1,4.8564766E1,6.539933E1,1.7159823E0,1.2648945E1,3.3044914E1,1.108119E0,2.052823E1,2.8036537E1,1.3291221E1,5.210811E1],"tree_param":{"num_deleted":"0","num_feature":"8","num_nodes":"15","size_leaf_vector":"1"}},{"base_weights":[1.9331064E-2,5.862587E-1,-1.785296E-1,3.3380918E-3,9.033705E-1,-2.295355E-1,3.3129102E-1,-3.039338E-2,1.399301E-1,1.8855377E-1,8.181489E-3,-4.7504487E-3,-7.8452535E-2,1.5196493E-1,-7.7467166E-2],"categories":[],"categories_nodes":[],"categories_segments":[],"categories_sizes":[],"default_left":[0,0,0,0,0,0,0,0,0,0,0,0,0,0,0],"id":15,"left_children":[1,3,5,7,9,11,13,-1,-1,-1,-1,-1,-1,-1,-1],"loss_changes":[1.7386786E1,7.40814E0,3.065824E0,1.7424595E0,8.436413E-1,3.5104032E0,3.6405392E0,0E0,0E0,0E0,0E0,0E0,0E0,0E0,0E0],"parents":[2147483647,0,0,1,1,2,2,3,3,4,4,5,5,6,6],"right_children":[2,4,6,8,10,12,14,-1,-1,-1,-1,-1,-1,-1,-1],"split_conditions":[-3.295223E-1,7.67047E-1,1.8697469E0,-8.000567E-2,-1.8149444E-1,-2.1692106E-1,2.2331343E0,-3.039338E-2,1.399301E-1,1.8855377E-1,8.181489E-3,-4.7504487E-3,-7.8452535E-2,1.5196493E-1,-7.7467166E-2],"split_indices":[0,6,0,4,3,0,2,0,0,0,0,0,0,0,0],"split_type":[0,0,0,0,0,0,0,0,0,0,0,0,0,0,0],"sum_hessian":[1.530671E2,3.9092594E1,1.13974495E2,1.4129682E1,2.4962912E1,1.0410855E2,9.865951E0,1.2192116E1,1.9375656E0,2.378335E1,1.1795623E0,4.647838E1,5.763017E1,6.1445103E0,3.7214403E0],"tree_param":{"num_deleted":"0","num_feature":"8","num_nodes":"15","size_leaf_vector":"1"}},{"base_weights":[1.949618E-2,5.1209533E-1,-1.6039842E-1,-1.8271565E-1,8.8566613E-1,-3.8202304E-1,2.4663247E-4,1.2042347E-1,-7.369076E-2,1.9404687E-1,-1.2190169E-1,-1.331524E-2,-1.2587145E-1,-1.0101409E-2,2.7275398E-1],"categories":[],"categories_nodes":[],"categories_segments":[],"categories_sizes":[],"default_left":[0,0,0,0,0,0,0,0,0,0,0,0,0,0,0],"id":16,"left_children":[1,3,5,7,9,11,13,-1,-1,-1,-1,-1,-1,-1,-1],"loss_changes":[1.3121546E1,1.0440549E1,3.8646026E0,2.3611746E0,3.8694E0,3.5170588E0,4.4930286E0,0E0,0E0,0E0,0E0,0E0,0E0,0E0,0E0],"parents":[2147483647,0,0,1,1,2,2,3,3,4,4,5,5,6,6],"right_children":[2,4,6,8,10,12,14,-1,-1,-1,-1,-1,-1,-1,-1],"split_conditions":[-1.8315049E-1,7.67047E-1,-1.6244994E-1,-3.4099096E-1,-4.095371E-2,-6.8432146E-1,2.5081587E0,1.2042347E-1,-7.369076E-2,1.9404687E-1,-1.2190169E-1,-1.331524E-2,-1.2587145E-1,-1.0101409E-2,2.7275398E-1],"split_indices":[3,6,3,0,1,2,6,0,0,0,0,0,0,0,0],"split_type":[0,0,0,0,0,0,0,0,0,0,0,0,0,0,0],"sum_hessian":[1.4614517E2,3.86004E1,1.0754477E2,1.367567E1,2.4924728E1,4.4615513E1,6.2929256E1,2.1881073E0,1.1487562E1,2.392273E1,1.0019985E0,2.0165663E1,2.4449852E1,6.159934E1,1.3299198E0],"tree_param":{"num_deleted":"0","num_feature":"8","num_nodes":"15","size_leaf_vector":"1"}},{"base_weights":[1.9284347E-2,5.048372E-1,-1.2666784E-1,3.0748215E-2,8.5556525E-1,-1.7883077E-1,3.6805674E-1,-3.5789274E-2,9.746789E-2,1.8041274E-1,1.601595E-2,-5.222785E-2,1.3485341E-2,1.2628694E-1,-1.4225382E-1],"categories":[],"categories_nodes":[],"categories_segments":[],"categories_sizes":[],"default_left":[0,0,0,0,0,0,0,0,0,0,0,0,0,0,0],"id":17,"left_children":[1,3,5,7,9,11,13,-1,-1,-1,-1,-1,-1,-1,-1],"loss_changes":[1.0004311E1,5.397423E0,2.8696241E0,1.5145131E0,6.0247326E-1,2.0233963E0,3.487976E0,0E0,0E0,0E0,0E0,0E0,0E0,0E0,0E0],"parents":[2147483647,0,0,1,1,2,2,3,3,4,4,5,5,6,6],"right_children":[2,4,6,8,10,12,14,-1,-1,-1,-1,-1,-1,-1,-1],"split_conditions":[-3.295223E-1,7.67047E-1,5.448925E-2,-1.8066642E-1,-1.8149444E-1,7.67047E-1,7.2438866E-1,-3.5789274E-2,9.746789E-2,1.8041274E-1,1.601595E-2,-5.222785E-2,1.3485341E-2,1.2628694E-1,-1.4225382E-1],"split_indices":[0,6,1,3,3,6,5,0,0,0,0,0,0,0,0],"split_type":[0,0,0,0,0,0,0,0,0,0,0,0,0,0,0],"sum_hessian":[1.3926688E2,3.1618778E1,1.07648094E2,1.3907409E1,1.771137E1,9.7958084E1,9.690013E0,9.947151E0,3.9602575E0,1.6555473E1,1.1558974E0,7.337349E1,2.4584595E1,8.122844E0,1.5671694E0],"tree_param":{"num_deleted":"0","num_feature":"8","num_nodes":"15","size_leaf_vector":"1"}},{"base_weights":[1.8334929E-2,4.4679996E-1,-1.1577343E-1,6.468247E-1,-5.868811E-1,-3.1561348E-1,2.1111026E-2,1.8753074E-3,2.065277E-1,-2.1978346E-1,1.660031E-1,-6.9978232E-3,-1.11414194E-1,1.2597108E-1,-1.5752371E-2],"categories":[],"categories_nodes":[],"categories_segments":[],"categories_sizes":[],"default_left":[0,0,0,0,0,0,0,0,0,0,0,0,0,0,0],"id":18,"left_children":[1,3,5,7,9,11,13,-1,-1,-1,-1,-1,-1,-1,-1],"loss_changes":[7.8199873E0,7.085614E0,2.8449903E0,6.790613E0,5.107583E0,2.8428159E0,3.8504233E0,0E0,0E0,0E0,0E0,0E0,0E0,0E0,0E0],"parents":[2147483647,0,0,1,1,2,2,3,3,4,4,5,5,6,6],"right_children":[2,4,6,8,10,12,14,-1,-1,-1,-1,-1,-1,-1,-1],"split_conditions":[-1.8315049E-1,-4.095371E-2,-1.6244994E-1,-5.598689E-1,-2.4748523E-2,-6.8432146E-1,-1.4920159E-1,1.8753074E-3,2.065277E-1,-2.1978346E-1,1.660031E-1,-6.9978232E-3,-1.11414194E-1,1.2597108E-1,-1.5752371E-2],"split_indices":[3,1,3,2,1,2,3,0,0,0,0,0,0,0,0],"split_type":[0,0,0,0,0,0,0,0,0,0,0,0,0,0,0],"sum_hessian":[1.3419247E2,3.1433483E1,1.0275899E2,2.6650642E1,4.7828407E0,4.1242558E1,6.151643E1,1.0434645E1,1.6215998E1,3.6780806E0,1.1047602E0,1.9603767E1,2.163879E1,7.922247E0,5.3594185E1],"tree_param":{"num_deleted":"0","num_feature":"8","num_nodes":"15","size_leaf_vector":"1"}},{"base_weights":[1.6519677E-2,5.070784E-1,-8.3416976E-2,1.0901865E-1,1.8226178E-1,-1.24351025E-1,2.906223E-1,6.881313E-2,-6.50958E-2,8.129367E-3,-4.9793806E-2,-4.323865E-2,1.6695909E-1],"categories":[],"categories_nodes":[],"categories_segments":[],"categories_sizes":[],"default_left":[0,0,0,0,0,0,0,0,0,0,0,0,0],"id":19,"left_children":[1,3,5,7,-1,9,11,-1,-1,-1,-1,-1,-1],"loss_changes":[6.4460034E0,3.4805226E0,1.7107545E0,1.3727914E0,0E0,2.0515928E0,3.2386549E0,0E0,0E0,0E0,0E0,0E0,0E0],"parents":[2147483647,0,0,1,1,2,2,3,3,5,5,6,6],"right_children":[2,4,6,8,-1,10,12,-1,-1,-1,-1,-1,-1],"split_conditions":[-3.3306718E-1,7.67047E-1,5.448925E-2,-4.3635946E-2,1.8226178E-1,-3.916555E-2,1.2335954E0,6.881313E-2,-6.50958E-2,8.129367E-3,-4.9793806E-2,-4.323865E-2,1.6695909E-1],"split_indices":[0,6,1,1,0,1,3,0,0,0,0,0,0],"split_type":[0,0,0,0,0,0,0,0,0,0,0,0,0],"sum_hessian":[1.2962173E2,2.1247955E1,1.0837377E2,1.1345421E1,9.9025345E0,9.82852E1,1.0088573E1,7.4976187E0,3.8478017E0,4.2580807E1,5.570439E1,5.5356545E0,4.552919E0],"tree_param":{"num_deleted":"0","num_feature":"8","num_nodes":"13","size_leaf_vector":"1"}},{"base_weights":[1.6064495E-2,4.5531562E-1,-6.7301445E-2,9.716559E-2,1.7591979E-1,-1.9862573E-1,3.6818247E-2,-3.491992E-2,9.583101E-2,-1.8047098E-3,-1.3058527E-1,-1.9439139E-3,2.2693495E-1],"categories":[],"categories_nodes":[],"categories_segments":[],"categories_sizes":[],"default_left":[0,0,0,0,0,0,0,0,0,0,0,0,0],"id":20,"left_children":[1,3,5,7,-1,9,11,-1,-1,-1,-1,-1,-1],"loss_changes":[4.6907015E0,3.0188227E0,1.4817296E0,1.3503559E0,0E0,4.115046E0,3.127051E0,0E0,0E0,0E0,0E0,0E0,0E0],"parents":[2147483647,0,0,1,1,2,2,3,3,5,5,6,6],"right_children":[2,4,6,8,-1,10,12,-1,-1,-1,-1,-1,-1],"split_conditions":[-3.332757E-1,7.67047E-1,-1.6244994E-1,-3.3744612E-1,1.7591979E-1,-1.7735434E-1,2.5081587E0,-3.491992E-2,9.583101E-2,-1.8047098E-3,-1.3058527E-1,-1.9439139E-3,2.2693495E-1],"split_indices":[0,6,3,0,0,3,6,0,0,0,0,0,0],"split_type":[0,0,0,0,0,0,0,0,0,0,0,0,0],"sum_hessian":[1.26259384E2,1.9428724E1,1.06830666E2,1.1201889E1,8.226834E0,4.684201E1,5.998865E1,6.862503E0,4.339386E0,3.3768574E1,1.3073438E1,5.85E1,1.488651E0],"tree_param":{"num_deleted":"0","num_feature":"8","num_nodes":"13","size_leaf_vector":"1"}},{"base_weights":[1.5786113E-2,-9.2452995E-2,2.8170812E-1,5.6075692E-2,-4.0272033E-1,-2.5089157E-1,5.7683235E-1,-2.1757888E-2,2.4112721E-1,-1.3194332E-1,5.4519113E-2,-1.2597017E-1,1.6487609E-1,2.3501275E-1,-3.161654E-2],"categories":[],"categories_nodes":[],"categories_segments":[],"categories_sizes":[],"default_left":[0,0,0,0,0,0,0,0,0,0,0,0,0,0,0],"id":21,"left_children":[1,3,5,7,9,11,13,-1,-1,-1,-1,-1,-1,-1,-1],"loss_changes":[3.619978E0,4.146811E0,5.861137E0,1.1767778E1,5.229342E0,6.08703E0,1.0607225E1,0E0,0E0,0E0,0E0,0E0,0E0,0E0,0E0],"parents":[2147483647,0,0,1,1,2,2,3,3,4,4,5,5,6,6],"right_children":[2,4,6,8,10,12,14,-1,-1,-1,-1,-1,-1,-1,-1],"split_conditions":[7.67047E-1,-2.0805098E-1,-3.3250356E-1,-2.8995398E-2,5.448925E-2,-2.5900425E-2,-4.039491E-2,-2.1757888E-2,2.4112721E-1,-1.3194332E-1,5.4519113E-2,-1.2597017E-1,1.6487609E-1,2.3501275E-1,-3.161654E-2],"split_indices":[6,2,2,1,1,4,1,0,0,0,0,0,0,0,0],"split_type":[0,0,0,0,0,0,0,0,0,0,0,0,0,0,0],"sum_hessian":[1.2386236E2,8.8494484E1,3.536787E1,6.0399696E1,2.809479E1,1.2663822E1,2.2704048E1,5.361572E1,6.7839775E0,2.0367062E1,7.727729E0,9.67004E0,2.9937818E0,1.2185757E1,1.0518291E1],"tree_param":{"num_deleted":"0","num_feature":"8","num_nodes":"15","size_leaf_vector":"1"}},{"base_weights":[1.4934181E-2,1.762366E-1,-1.5724164E-1,4.368143E-2,1.3745615E0,1.903554E-1,-2.0046313E-1,-2.1160204E-2,1.0466613E-1,3.5747978E-1,-3.173983E-2,-7.507395E-2,1.5684789E-2],"categories":[],"categories_nodes":[],"categories_segments":[],"categories_sizes":[],"default_left":[0,0,0,0,0,0,0,0,0,0,0,0,0],"id":22,"left_children":[1,3,5,7,9,-1,11,-1,-1,-1,-1,-1,-1],"loss_changes":[3.404195E0,9.985598E0,3.034924E0,4.2122006E0,4.250004E0,0E0,2.8554726E0,0E0,0E0,0E0,0E0,0E0,0E0],"parents":[2147483647,0,0,1,1,2,2,3,3,4,4,6,6],"right_children":[2,4,6,8,10,-1,12,-1,-1,-1,-1,-1,-1],"split_conditions":[-2.1692106E-1,-2.5900425E-2,-8.2313395E-1,-2.7745724E-1,-2.4319468E-1,1.903554E-1,-1.1449093E-2,-2.1160204E-2,1.0466613E-1,3.5747978E-1,-3.173983E-2,-7.507395E-2,1.5684789E-2],"split_indices":[0,4,2,2,0,0,1,0,0,0,0,0,0],"split_type":[0,0,0,0,0,0,0,0,0,0,0,0,0],"sum_hessian":[1.2057704E2,6.2242115E1,5.833493E1,5.6976044E1,5.26607E0,1.39968E0,5.693525E1,4.4032696E1,1.2943349E1,4.018358E0,1.2477114E0,3.477797E1,2.2157282E1],"tree_param":{"num_deleted":"0","num_feature":"8","num_nodes":"13","size_leaf_vector":"1"}},{"base_weights":[1.4516534E-2,4.4452077E-1,-4.754884E-2,6.289591E-1,-1.10170364E-1,-1.8854965E-1,-2.6787717E-2,8.255796E-2,2.0053597E-1,1.9357083E-2,-2.569834E-2],"categories":[],"categories_nodes":[],"categories_segments":[],"categories_sizes":[],"default_left":[0,0,0,0,0,0,0,0,0,0,0],"id":23,"left_children":[1,3,5,7,-1,-1,9,-1,-1,-1,-1],"loss_changes":[3.228854E0,3.147334E0,1.9435849E0,6.636739E-1,0E0,0E0,1.3265731E0,0E0,0E0,0E0,0E0],"parents":[2147483647,0,0,1,1,2,2,3,3,6,6],"right_children":[2,4,6,8,-1,-1,10,-1,-1,-1,-1],"split_conditions":[-3.353609E-1,-4.274187E-2,-8.9972013E-1,-3.3786315E-1,-1.10170364E-1,-1.8854965E-1,-2.1692106E-1,8.255796E-2,2.0053597E-1,1.9357083E-2,-2.569834E-2],"split_indices":[0,1,2,0,0,0,0,0,0,0,0],"split_type":[0,0,0,0,0,0,0,0,0,0,0],"sum_hessian":[1.1919157E2,1.4256547E1,1.0493502E2,1.2338409E1,1.918138E0,1.3718733E0,1.0356314E2,9.150231E0,3.1881783E0,4.6776627E1,5.678652E1],"tree_param":{"num_deleted":"0","num_feature":"8","num_nodes":"11","size_leaf_vector":"1"}},{"base_weights":[1.15259765E-2,3.811176E-1,-4.0385198E-2,5.430236E-1,-9.950733E-2,-1.926045E-1,8.2187325E-2,6.91276E-2,1.8018033E-1,-1.5273874E-1,-2.1219036E-2,1.0601001E-1,-6.5022423E-3],"categories":[],"categories_nodes":[],"categories_segments":[],"categories_sizes":[],"default_left":[0,0,0,0,0,0,0,0,0,0,0,0,0],"id":24,"left_children":[1,3,5,7,-1,9,11,-1,-1,-1,-1,-1,-1],"loss_changes":[2.2986856E0,2.3688717E0,1.9796882E0,6.023655E-1,0E0,2.2533004E0,3.0483704E0,0E0,0E0,0E0,0E0,0E0,0E0],"parents":[2147483647,0,0,1,1,2,2,3,3,5,5,6,6],"right_children":[2,4,6,8,-1,10,12,-1,-1,-1,-1,-1,-1],"split_conditions":[-3.353609E-1,-4.274187E-2,-1.6244994E-1,-3.3786315E-1,-9.950733E-2,-4.4418268E-2,-3.983611E-2,6.91276E-2,1.8018033E-1,-1.5273874E-1,-2.1219036E-2,1.0601001E-1,-6.5022423E-3],"split_indices":[0,1,3,0,0,1,1,0,0,0,0,0,0],"split_type":[0,0,0,0,0,0,0,0,0,0,0,0,0],"sum_hessian":[1.18008736E2,1.3752614E1,1.0425612E2,1.1935325E1,1.8172901E0,4.6249207E1,5.8006912E1,8.959539E0,2.975785E0,5.054457E0,4.119475E1,1.1088493E1,4.691842E1],"tree_param":{"num_deleted":"0","num_feature":"8","num_nodes":"13","size_leaf_vector":"1"}},{"base_weights":[9.492056E-3,-7.2208375E-2,2.2765847E-1,2.408803E-1,-1.8962722E-1,-2.0690982E-1,5.0344515E-1,-4.215316E-2,1.1333118E-1,-7.8695334E-2,1.325954E-2,-9.302174E-2,1.8695295E-1,2.261918E-1,-2.135486E-2],"categories":[],"categories_nodes":[],"categories_segments":[],"categories_sizes":[],"default_left":[0,0,0,0,0,0,0,0,0,0,0,0,0,0,0],"id":25,"left_children":[1,3,5,7,9,11,13,-1,-1,-1,-1,-1,-1,-1,-1],"loss_changes":[2.1220152E0,3.2331243E0,3.9903512E0,3.6636996E0,3.3449032E0,4.3546457E0,7.828275E0,0E0,0E0,0E0,0E0,0E0,0E0,0E0,0E0],"parents":[2147483647,0,0,1,1,2,2,3,3,4,4,5,5,6,6],"right_children":[2,4,6,8,10,12,14,-1,-1,-1,-1,-1,-1,-1,-1],"split_conditions":[7.67047E-1,-7.5851434E-1,-3.3250356E-1,-4.4194747E-2,-2.8995398E-2,-2.2736844E-2,-4.039491E-2,-4.215316E-2,1.1333118E-1,-7.8695334E-2,1.325954E-2,-9.302174E-2,1.8695295E-1,2.261918E-1,-2.135486E-2],"split_indices":[6,2,2,1,1,1,1,0,0,0,0,0,0,0,0],"split_type":[0,0,0,0,0,0,0,0,0,0,0,0,0,0,0],"sum_hessian":[1.1712962E2,8.5703735E1,3.142589E1,2.3088497E1,6.2615234E1,1.2297682E1,1.9128208E1,9.823084E0,1.3265413E1,3.4554443E1,2.8060793E1,1.0512748E1,1.7849339E0,9.0097475E0,1.0118461E1],"tree_param":{"num_deleted":"0","num_feature":"8","num_nodes":"15","size_leaf_vector":"1"}},{"base_weights":[1.0334887E-2,2.7377805E-1,-5.169091E-2,-2.0219276E-2,9.95094E-1,-7.562457E-2,1.5014732E-1,-5.716079E-2,1.7678285E-1,2.631159E-1,-2.0770615E-2,8.906519E-2,-2.1822795E-2],"categories":[],"categories_nodes":[],"categories_segments":[],"categories_sizes":[],"default_left":[0,0,0,0,0,0,0,0,0,0,0,0,0],"id":26,"left_children":[1,3,5,7,9,11,-1,-1,-1,-1,-1,-1,-1],"loss_changes":[1.8991458E0,4.715909E0,1.8661876E0,4.265435E0,2.4018703E0,1.6605508E0,0E0,0E0,0E0,0E0,0E0,0E0,0E0],"parents":[2147483647,0,0,1,1,2,2,3,3,4,4,5,5],"right_children":[2,4,6,8,10,12,-1,-1,-1,-1,-1,-1,-1],"split_conditions":[-4.374771E-2,-4.4194747E-2,4.2492704E0,-3.11381E-1,-2.9323968E-1,-8.2313395E-1,1.5014732E-1,-5.716079E-2,1.7678285E-1,2.631159E-1,-2.0770615E-2,8.906519E-2,-2.1822795E-2],"split_indices":[1,1,6,0,0,2,0,0,0,0,0,0,0],"split_type":[0,0,0,0,0,0,0,0,0,0,0,0,0],"sum_hessian":[1.1435879E2,2.1143162E1,9.321562E1,1.5711403E1,5.4317584E0,9.139537E1,1.8202549E0,1.2672741E1,3.0386622E0,4.0527334E0,1.3790247E0,4.777687E0,8.661768E1],"tree_param":{"num_deleted":"0","num_feature":"8","num_nodes":"13","size_leaf_vector":"1"}},{"base_weights":[1.2937242E-2,5.43095E-1,-1.35163795E-2,1.3811953E-1,8.949842E-3,6.502216E-2,-1.8491314E-1,-1.931654E-2,5.8797907E-2,-5.7665672E-2,7.689916E-2],"categories":[],"categories_nodes":[],"categories_segments":[],"categories_sizes":[],"default_left":[0,0,0,0,0,0,0,0,0,0,0],"id":27,"left_children":[1,3,5,-1,-1,7,9,-1,-1,-1,-1],"loss_changes":[1.6152768E0,3.71418E-1,1.4951569E0,0E0,0E0,2.8515167E0,2.164906E0,0E0,0E0,0E0,0E0],"parents":[2147483647,0,0,1,1,2,2,5,5,6,6],"right_children":[2,4,6,-1,-1,8,10,-1,-1,-1,-1],"split_conditions":[-3.4099096E-1,-8.2792056E-1,1.3419273E0,1.3811953E-1,8.949842E-3,-1.0366036E-1,1.9052055E-1,-1.931654E-2,5.8797907E-2,-5.7665672E-2,7.689916E-2],"split_indices":[0,2,5,0,0,3,4,0,0,0,0],"split_type":[0,0,0,0,0,0,0,0,0,0,0],"sum_hessian":[1.1365119E2,4.473219E0,1.0917797E2,3.1539254E0,1.3192934E0,7.529599E1,3.388199E1,4.4480145E1,3.0815844E1,2.909198E1,4.790007E0],"tree_param":{"num_deleted":"0","num_feature":"8","num_nodes":"11","size_leaf_vector":"1"}},{"base_weights":[1.1606005E-2,1.2568085E-1,-1.10307105E-1,4.91985E-3,1.0286741E0,4.054667E-2,-4.193336E-1,5.846086E-2,-3.071162E-2,2.5695187E-1,-2.5746867E-2,-4.295076E-2,1.7984737E-1,-1.1158065E-1,5.5383008E-2],"categories":[],"categories_nodes":[],"categories_segments":[],"categories_sizes":[],"default_left":[0,0,0,0,0,0,0,0,0,0,0,0,0,0,0],"id":28,"left_children":[1,3,5,7,9,11,13,-1,-1,-1,-1,-1,-1,-1,-1],"loss_changes":[1.6054336E0,6.4929037E0,2.620747E0,2.4844441E0,2.2473469E0,8.620845E0,1.930623E0,0E0,0E0,0E0,0E0,0E0,0E0,0E0,0E0],"parents":[2147483647,0,0,1,1,2,2,3,3,4,4,5,5,6,6],"right_children":[2,4,6,8,10,12,14,-1,-1,-1,-1,-1,-1,-1,-1],"split_conditions":[-2.1692106E-1,-2.5900425E-2,4.0703198E-1,-1.8315049E-1,-2.4319468E-1,-1.1449093E-2,3.2663898E0,5.846086E-2,-3.071162E-2,2.5695187E-1,-2.5746867E-2,-4.295076E-2,1.7984737E-1,-1.1158065E-1,5.5383008E-2],"split_indices":[0,4,2,3,0,1,3,0,0,0,0,0,0,0,0],"split_type":[0,0,0,0,0,0,0,0,0,0,0,0,0,0,0],"sum_hessian":[1.1344199E2,5.8589E1,5.4852993E1,5.256475E1,6.024252E0,3.744346E1,1.7409534E1,1.8383533E1,3.4181213E1,4.842731E0,1.1815212E0,2.9440344E1,8.003116E0,1.4685485E1,2.7240505E0],"tree_param":{"num_deleted":"0","num_feature":"8","num_nodes":"15","size_leaf_vector":"1"}},{"base_weights":[9.99121E-3,2.3117895E-1,-4.223535E-2,-2.563474E-2,8.6889064E-1,-2.3608895E-1,3.5528954E-2,-5.3690154E-2,1.4811167E-1,2.2922085E-1,-1.702497E-2,3.5605576E-2,-7.842471E-2,-5.0338518E-2,2.3750521E-2],"categories":[],"categories_nodes":[],"categories_segments":[],"categories_sizes":[],"default_left":[0,0,0,0,0,0,0,0,0,0,0,0,0,0,0],"id":29,"left_children":[1,3,5,7,9,11,13,-1,-1,-1,-1,-1,-1,-1,-1],"loss_changes":[1.3193771E0,3.5941E0,1.4036963E0,3.2721603E0,1.7610755E0,1.7905679E0,1.6297138E0,0E0,0E0,0E0,0E0,0E0,0E0,0E0,0E0],"parents":[2147483647,0,0,1,1,2,2,3,3,4,4,5,5,6,6],"right_children":[2,4,6,8,10,12,14,-1,-1,-1,-1,-1,-1,-1,-1],"split_conditions":[-4.374771E-2,-4.4194747E-2,1.06850065E-1,-3.11381E-1,-2.9323968E-1,-4.1177228E-2,-2.9052892E-1,-5.3690154E-2,1.4811167E-1,2.2922085E-1,-1.702497E-2,3.5605576E-2,-7.842471E-2,-5.0338518E-2,2.3750521E-2],"split_indices":[1,1,5,0,0,1,0,0,0,0,0,0,0,0,0],"split_type":[0,0,0,0,0,0,0,0,0,0,0,0,0,0,0],"sum_hessian":[1.1236804E2,2.0809605E1,9.155843E1,1.551952E1,5.290084E0,2.5630318E1,6.5928116E1,1.2278077E1,3.2414432E0,3.9429977E0,1.3470862E0,6.97573E0,1.8654587E1,1.4356536E1,5.1571583E1],"tree_param":{"num_deleted":"0","num_feature":"8","num_nodes":"15","size_leaf_vector":"1"}},{"base_weights":[9.407046E-3,3.0492133E-1,-3.003008E-2,4.4103947E-1,-8.429516E-2,-1.6444239E-1,7.180322E-2,4.7378134E-2,1.4160724E-1,-1.8700028E-2,-1.6407456E-1,7.496452E-2,-1.3095453E-2],"categories":[],"categories_nodes":[],"categories_segments":[],"categories_sizes":[],"default_left":[0,0,0,0,0,0,0,0,0,0,0,0,0],"id":30,"left_children":[1,3,5,7,-1,9,11,-1,-1,-1,-1,-1,-1],"loss_changes":[1.3277832E0,1.5119522E0,1.3906231E0,4.745593E-1,0E0,1.9579715E0,2.4376388E0,0E0,0E0,0E0,0E0,0E0,0E0],"parents":[2147483647,0,0,1,1,2,2,3,3,5,5,6,6],"right_children":[2,4,6,8,-1,10,12,-1,-1,-1,-1,-1,-1],"split_conditions":[-3.353609E-1,-4.274187E-2,-1.6244994E-1,7.67047E-1,-8.429516E-2,1.6362947E-1,-3.637155E-2,4.7378134E-2,1.4160724E-1,-1.8700028E-2,-1.6407456E-1,7.496452E-2,-1.3095453E-2],"split_indices":[0,1,3,6,0,0,1,0,0,0,0,0,0],"split_type":[0,0,0,0,0,0,0,0,0,0,0,0,0],"sum_hessian":[1.121457E2,1.2411412E1,9.973429E1,1.0783544E1,1.6278679E0,4.2725292E1,5.7009E1,7.180495E0,3.6030493E0,3.958637E1,3.138924E0,1.7235254E1,3.9773743E1],"tree_param":{"num_deleted":"0","num_feature":"8","num_nodes":"13","size_leaf_vector":"1"}},{"base_weights":[7.063086E-3,7.540547E-2,-1.4556432E-1,-1.1664718E-1,1.9658628E-1,1.257256E-2,-5.6102914E-1,2.604643E-2,-7.731601E-2,6.464163E-2,-1.9605862E-2,-3.780042E-2,1.5458654E-1,-1.6803123E-1,5.6878936E-2],"categories":[],"categories_nodes":[],"categories_segments":[],"categories_sizes":[],"default_left":[0,0,0,0,0,0,0,0,0,0,0,0,0,0,0],"id":31,"left_children":[1,3,5,7,9,11,13,-1,-1,-1,-1,-1,-1,-1,-1],"loss_changes":[1.1817033E0,1.8424712E0,2.3101182E0,2.1078124E0,1.8338088E0,4.1875024E0,2.5246491E0,0E0,0E0,0E0,0E0,0E0,0E0,0E0,0E0],"parents":[2147483647,0,0,1,1,2,2,3,3,4,4,5,5,6,6],"right_children":[2,4,6,8,10,12,14,-1,-1,-1,-1,-1,-1,-1,-1],"split_conditions":[1.3419273E0,1.06850065E-1,-1.16908714E-1,-3.916555E-2,2.820482E-2,-2.8995398E-2,7.67047E-1,2.604643E-2,-7.731601E-2,6.464163E-2,-1.9605862E-2,-3.780042E-2,1.5458654E-1,-1.6803123E-1,5.6878936E-2],"split_indices":[5,5,3,1,4,1,6,0,0,0,0,0,0,0,0],"split_type":[0,0,0,0,0,0,0,0,0,0,0,0,0,0,0],"sum_hessian":[1.11236206E2,7.718211E1,3.4054092E1,2.9873966E1,4.730815E1,2.5368074E1,8.68602E0,1.5873592E1,1.4000374E1,3.301968E1,1.4288468E1,2.064613E1,4.721945E0,6.5347295E0,2.1512902E0],"tree_param":{"num_deleted":"0","num_feature":"8","num_nodes":"15","size_leaf_vector":"1"}},{"base_weights":[3.947409E-3,4.235162E-1,-1.5859758E-2,5.657582E-1,1.9172676E-3,-9.0857364E-2,1.2184932E-1,1.4088409E-1,3.765391E-2,-3.1723276E-2,1.8184075E-1,1.279134E-1,-4.0673368E-2],"categories":[],"categories_nodes":[],"categories_segments":[],"categories_sizes":[],"default_left":[0,0,0,0,0,0,0,0,0,0,0,0,0],"id":32,"left_children":[1,3,5,7,-1,9,11,-1,-1,-1,-1,-1,-1],"loss_changes":[9.3575865E-1,2.9342437E-1,1.1235462E0,6.420791E-2,0E0,4.908616E0,6.596562E0,0E0,0E0,0E0,0E0,0E0,0E0],"parents":[2147483647,0,0,1,1,2,2,3,3,5,5,6,6],"right_children":[2,4,6,8,-1,10,12,-1,-1,-1,-1,-1,-1],"split_conditions":[-3.4099096E-1,-8.2792056E-1,-2.8995398E-2,-3.4265912E-1,1.9172676E-3,6.4397055E-1,-1.218915E-1,1.4088409E-1,3.765391E-2,-3.1723276E-2,1.8184075E-1,1.279134E-1,-4.0673368E-2],"split_indices":[0,2,1,0,0,2,2,0,0,0,0,0,0],"split_type":[0,0,0,0,0,0,0,0,0,0,0,0,0],"sum_hessian":[1.1079174E2,4.075693E0,1.0671605E2,2.7603383E0,1.3153546E0,6.930962E1,3.7406425E1,1.3853791E0,1.3749592E0,6.5699554E1,3.6100717E0,1.4059019E1,2.3347404E1],"tree_param":{"num_deleted":"0","num_feature":"8","num_nodes":"13","size_leaf_vector":"1"}},{"base_weights":[6.212383E-3,2.4918614E-1,-2.5058938E-2,7.631663E-2,1.6052936E-1,-2.168142E-1,3.9911073E-2,6.258949E-2,-1.2667331E-1,-8.1750624E-2,1.15185164E-1,5.2657723E-2,-3.5308447E-2],"categories":[],"categories_nodes":[],"categories_segments":[],"categories_sizes":[],"default_left":[0,0,0,0,0,0,0,0,0,0,0,0,0],"id":33,"left_children":[1,3,5,7,-1,9,11,-1,-1,-1,-1,-1,-1],"loss_changes":[8.4881276E-1,1.1572831E0,1.2439704E0,2.013544E0,0E0,4.0772448E0,3.6682851E0,0E0,0E0,0E0,0E0,0E0,0E0],"parents":[2147483647,0,0,1,1,2,2,3,3,5,5,6,6],"right_children":[2,4,6,8,-1,10,12,-1,-1,-1,-1,-1,-1],"split_conditions":[-3.353609E-1,-3.2293028E-1,-2.974101E-1,-4.3635946E-2,1.6052936E-1,2.3710634E-1,-3.253236E-1,6.258949E-2,-1.2667331E-1,-8.1750624E-2,1.15185164E-1,5.2657723E-2,-3.5308447E-2],"split_indices":[0,2,0,1,0,2,2,0,0,0,0,0,0],"split_type":[0,0,0,0,0,0,0,0,0,0,0,0,0],"sum_hessian":[1.09891846E2,1.173603E1,9.8155815E1,9.809875E0,1.926155E0,2.4249033E1,7.3906784E1,7.776107E0,2.033768E0,1.9912245E1,4.33679E0,3.626515E1,3.7641636E1],"tree_param":{"num_deleted":"0","num_feature":"8","num_nodes":"13","size_leaf_vector":"1"}},{"base_weights":[5.7830596E-3,-4.3709785E-2,1.579544E-1,-7.209531E-2,6.60987E-1,9.120088E-1,-9.6326925E-2,9.758602E-3,-6.0449284E-2,2.58635E-1,-4.711692E-2,-2.3916362E-2,2.7366218E-1,1.7188185E-1,-5.249831E-2],"categories":[],"categories_nodes":[],"categories_segments":[],"categories_sizes":[],"default_left":[0,0,0,0,0,0,0,0,0,0,0,0,0,0,0],"id":34,"left_children":[1,3,5,7,9,11,13,-1,-1,-1,-1,-1,-1,-1,-1],"loss_changes":[8.338368E-1,1.7206104E0,5.2962575E0,2.2766607E0,2.1959212E0,3.4330516E0,3.5952075E0,0E0,0E0,0E0,0E0,0E0,0E0,0E0,0E0],"parents":[2147483647,0,0,1,1,2,2,3,3,4,4,5,5,6,6],"right_children":[2,4,6,8,10,12,14,-1,-1,-1,-1,-1,-1,-1,-1],"split_conditions":[-1.547245E-2,1.9052055E-1,2.820482E-2,-2.1692106E-1,7.67047E-1,-7.4257366E-3,-1.0666774E-2,9.758602E-3,-6.0449284E-2,2.58635E-1,-4.711692E-2,-2.3916362E-2,2.7366218E-1,1.7188185E-1,-5.249831E-2],"split_indices":[1,4,4,0,6,1,1,0,0,0,0,0,0,0,0],"split_type":[0,0,0,0,0,0,0,0,0,0,0,0,0,0,0],"sum_hessian":[1.087981E2,8.263448E1,2.6163626E1,8.0297745E1,2.3367383E0,5.9456325E0,2.0217993E1,5.316204E1,2.71357E1,1.1109987E0,1.2257396E0,2.0496943E0,3.8959384E0,2.3765655E0,1.7841427E1],"tree_param":{"num_deleted":"0","num_feature":"8","num_nodes":"15","size_leaf_vector":"1"}},{"base_weights":[7.3706335E-3,-1.001772E-2,5.0805366E-1,1.4032801E-2,-6.304942E-1,-9.297869E-3,1.8225569E-1,9.138603E-3,-8.308966E-2,-1.5581207E-1,-1.8532384E-2],"categories":[],"categories_nodes":[],"categories_segments":[],"categories_sizes":[],"default_left":[0,0,0,0,0,0,0,0,0,0,0],"id":35,"left_children":[1,3,5,7,9,-1,-1,-1,-1,-1,-1],"loss_changes":[9.5881367E-1,1.6033634E0,8.6884177E-1,1.4309734E0,2.4813843E-1,0E0,0E0,0E0,0E0,0E0,0E0],"parents":[2147483647,0,0,1,1,2,2,3,3,4,4],"right_children":[2,4,6,8,10,-1,-1,-1,-1,-1,-1],"split_conditions":[5.717335E0,1.7668417E0,7.31573E-1,7.31573E-1,3.0324593E0,-9.297869E-3,1.8225569E-1,9.138603E-3,-8.308966E-2,-1.5581207E-1,-1.8532384E-2],"split_indices":[3,3,4,4,0,0,0,0,0,0,0],"split_type":[0,0,0,0,0,0,0,0,0,0,0],"sum_hessian":[1.0854725E2,1.05851105E2,2.6961393E0,1.02842186E2,3.008921E0,1.507553E0,1.1885864E0,9.6613686E1,6.2284975E0,2.0062203E0,1.0027003E0],"tree_param":{"num_deleted":"0","num_feature":"8","num_nodes":"11","size_leaf_vector":"1"}},{"base_weights":[4.8787813E-3,-2.5936112E-2,2.9116303E-1,1.1679633E-2,-6.782258E-1,4.93981E-1,-1.2941527E-1,-9.237493E-3,7.438856E-2,-2.9500162E-2,-1.5316944E-1,1.5467604E-1,-1.0160201E-2],"categories":[],"categories_nodes":[],"categories_segments":[],"categories_sizes":[],"default_left":[0,0,0,0,0,0,0,0,0,0,0,0,0],"id":36,"left_children":[1,3,5,7,9,11,-1,-1,-1,-1,-1,-1,-1],"loss_changes":[9.7357994E-1,2.456191E0,2.3601723E0,2.0044343E0,1.408174E-1,1.46768E0,0E0,0E0,0E0,0E0,0E0,0E0,0E0],"parents":[2147483647,0,0,1,1,2,2,3,3,4,4,5,5],"right_children":[2,4,6,8,10,12,-1,-1,-1,-1,-1,-1,-1],"split_conditions":[5.448925E-2,8.957624E-1,7.2438866E-1,7.933253E-2,-5.407223E-1,3.1162689E0,-1.2941527E-1,-9.237493E-3,7.438856E-2,-2.9500162E-2,-1.5316944E-1,1.5467604E-1,-1.0160201E-2],"split_indices":[1,3,5,3,2,2,0,0,0,0,0,0,0],"split_type":[0,0,0,0,0,0,0,0,0,0,0,0,0],"sum_hessian":[1.0850443E2,9.878128E1,9.723156E0,9.432397E1,4.457309E0,8.384247E0,1.3389093E0,8.202116E1,1.23028145E1,1.0118562E0,3.4454525E0,5.2646055E0,3.1196415E0],"tree_param":{"num_deleted":"0","num_feature":"8","num_nodes":"13","size_leaf_vector":"1"}},{"base_weights":[2.1131586E-3,-1.1983384E-2,1.1540778E-1,-6.477657E-2,1.391297E-1,1.5756091E-2,-6.745248E-2,-5.1856954E-2,8.643469E-2],"categories":[],"categories_nodes":[],"categories_segments":[],"categories_sizes":[],"default_left":[0,0,0,0,0,0,0,0,0],"id":37,"left_children":[1,3,-1,5,7,-1,-1,-1,-1],"loss_changes":[8.947716E-1,8.698856E-1,0E0,3.181494E0,3.411072E0,0E0,0E0,0E0,0E0],"parents":[2147483647,0,0,1,1,3,3,4,4],"right_children":[2,4,-1,6,8,-1,-1,-1,-1],"split_conditions":[4.8131323E0,7.67047E-1,1.1540778E-1,-3.253236E-1,-3.3250356E-1,1.5756091E-2,-6.745248E-2,-5.1856954E-2,8.643469E-2],"split_indices":[2,6,0,2,2,0,0,0,0],"split_type":[0,0,0,0,0,0,0,0,0],"sum_hessian":[1.0855155E2,1.0690941E2,1.6421438E0,7.9653E1,2.7256405E1,5.263405E1,2.7018951E1,1.1600236E1,1.5656169E1],"tree_param":{"num_deleted":"0","num_feature":"8","num_nodes":"9","size_leaf_vector":"1"}},{"base_weights":[2.010403E-3,-4.584958E-2,1.482662E-1,-8.79079E-2,4.5459884E-1,7.3743117E-1,-7.5680844E-2,6.2768036E-3,-7.0409335E-2,1.7072757E-1,-1.0091793E-1,2.2321033E-1,-2.6670715E-2,1.4104776E-1,-4.557052E-2],"categories":[],"categories_nodes":[],"categories_segments":[],"categories_sizes":[],"default_left":[0,0,0,0,0,0,0,0,0,0,0,0,0,0,0],"id":38,"left_children":[1,3,5,7,9,11,13,-1,-1,-1,-1,-1,-1,-1,-1],"loss_changes":[7.667479E-1,1.777761E0,3.618751E0,2.4373095E0,2.9426913E0,2.6316066E0,2.5936267E0,0E0,0E0,0E0,0E0,0E0,0E0,0E0,0E0],"parents":[2147483647,0,0,1,1,2,2,3,3,4,4,5,5,6,6],"right_children":[2,4,6,8,10,12,14,-1,-1,-1,-1,-1,-1,-1,-1],"split_conditions":[-1.547245E-2,3.1035072E-1,2.820482E-2,-2.1692106E-1,8.957624E-1,1.1585342E0,-1.0666774E-2,6.2768036E-3,-7.0409335E-2,1.7072757E-1,-1.0091793E-1,2.2321033E-1,-2.6670715E-2,1.4104776E-1,-4.557052E-2],"split_indices":[1,3,4,0,3,2,1,0,0,0,0,0,0,0,0],"split_type":[0,0,0,0,0,0,0,0,0,0,0,0,0,0,0],"sum_hessian":[1.0756739E2,8.156349E1,2.60039E1,7.600064E1,5.5628495E0,6.530481E0,1.9473421E1,5.296256E1,2.3038084E1,4.00623E0,1.5566194E0,4.355173E0,2.1753078E0,2.5830667E0,1.6890354E1],"tree_param":{"num_deleted":"0","num_feature":"8","num_nodes":"15","size_leaf_vector":"1"}},{"base_weights":[2.654023E-3,-2.6893385E-2,2.740529E-1,4.961416E-3,-6.238995E-1,4.742778E-1,-9.575462E-2,-5.4926137E-3,9.7930185E-2,-3.359994E-2,-1.4009826E-1,-1.3456851E-2,1.7784032E-1],"categories":[],"categories_nodes":[],"categories_segments":[],"categories_sizes":[],"default_left":[0,0,0,0,0,0,0,0,0,0,0,0,0],"id":39,"left_children":[1,3,5,7,9,11,-1,-1,-1,-1,-1,-1,-1],"loss_changes":[8.7388533E-1,1.8736101E0,1.8397019E0,1.496506E0,5.6564927E-2,2.0716782E0,0E0,0E0,0E0,0E0,0E0,0E0,0E0],"parents":[2147483647,0,0,1,1,2,2,3,3,4,4,5,5],"right_children":[2,4,6,8,10,12,-1,-1,-1,-1,-1,-1,-1],"split_conditions":[5.448925E-2,8.957624E-1,3.0039933E0,1.0425448E0,-5.024292E-1,1.2335954E0,-9.575462E-2,-5.4926137E-3,9.7930185E-2,-3.359994E-2,-1.4009826E-1,-1.3456851E-2,1.7784032E-1],"split_indices":[1,3,4,0,2,3,0,0,0,0,0,0,0],"split_type":[0,0,0,0,0,0,0,0,0,0,0,0,0],"sum_hessian":[1.0705597E2,9.735749E1,9.698479E0,9.3367325E1,3.990165E0,7.953211E0,1.7452677E0,8.8397125E1,4.9702015E0,1.0332654E0,2.9568996E0,3.8135598E0,4.1396513E0],"tree_param":{"num_deleted":"0","num_feature":"8","num_nodes":"13","size_leaf_vector":"1"}},{"base_weights":[1.4008422E-3,-7.073884E-2,8.513253E-2,-1.3113888E-1,5.6000364E-1,4.603398E-1,-1.9793436E-1,-4.808104E-3,-1.6223429E-1,2.6594755E-1,-8.519864E-2,-1.0049864E-1,1.12642765E-1,-1.4726523E-1,5.4446416E-4],"categories":[],"categories_nodes":[],"categories_segments":[],"categories_sizes":[],"default_left":[0,0,0,0,0,0,0,0,0,0,0,0,0,0,0],"id":40,"left_children":[1,3,5,7,9,11,13,-1,-1,-1,-1,-1,-1,-1,-1],"loss_changes":[6.5808713E-1,2.3034692E0,5.445657E0,3.9301276E0,4.592928E0,2.460133E0,3.1819568E0,0E0,0E0,0E0,0E0,0E0,0E0,0E0,0E0],"parents":[2147483647,0,0,1,1,2,2,3,3,4,4,5,5,6,6],"right_children":[2,4,6,8,10,12,14,-1,-1,-1,-1,-1,-1,-1,-1],"split_conditions":[-8.000567E-2,-2.642492E-2,-3.253236E-1,-3.637155E-2,8.872057E-2,-8.327072E-1,-1.726061E-2,-4.808104E-3,-1.6223429E-1,2.6594755E-1,-8.519864E-2,-1.0049864E-1,1.12642765E-1,-1.4726523E-1,5.4446416E-4],"split_indices":[4,1,2,1,2,2,1,0,0,0,0,0,0,0,0],"split_type":[0,0,0,0,0,0,0,0,0,0,0,0,0,0,0],"sum_hessian":[1.06951035E2,5.7535797E1,4.9415237E1,5.323052E1,4.305278E0,2.0979929E1,2.8435308E1,4.6882366E1,6.348153E0,2.222009E0,2.0832691E0,1.6502379E0,1.932969E1,6.995571E0,2.1439737E1],"tree_param":{"num_deleted":"0","num_feature":"8","num_nodes":"15","size_leaf_vector":"1"}},{"base_weights":[-2.4634786E-3,-1.438054E-2,9.334978E-2,7.021737E-3,-3.6289898E-1,-2.1027548E-3,1.2926093E-1,-1.1482717E-1,5.0900526E-2],"categories":[],"categories_nodes":[],"categories_segments":[],"categories_sizes":[],"default_left":[0,0,0,0,0,0,0,0,0],"id":41,"left_children":[1,3,-1,5,7,-1,-1,-1,-1],"loss_changes":[6.10791E-1,7.9564995E-1,0E0,1.1407719E0,9.5088583E-1,0E0,0E0,0E0,0E0],"parents":[2147483647,0,0,1,1,3,3,4,4],"right_children":[2,4,-1,6,8,-1,-1,-1,-1],"split_conditions":[4.8131323E0,1.0562044E0,9.334978E-2,3.9689262E0,8.485651E-1,-2.1027548E-3,1.2926093E-1,-1.1482717E-1,5.0900526E-2],"split_indices":[2,4,0,0,3,0,0,0,0],"split_type":[0,0,0,0,0,0,0,0,0],"sum_hessian":[1.0703265E2,1.0532691E2,1.7057424E0,1.00156235E2,5.170673E0,9.84396E1,1.7166413E0,3.9047756E0,1.2658972E0],"tree_param":{"num_deleted":"0","num_feature":"8","num_nodes":"9","size_leaf_vector":"1"}},{"base_weights":[-7.802093E-4,3.3804494E-1,-1.675342E-2,4.852952E-1,-6.439056E-3,-3.475565E-1,6.7621674E-3,1.3006975E-1,2.4289316E-2,6.727641E-3,-1.4637953E-1,-2.8343657E-2,1.2400205E-2],"categories":[],"categories_nodes":[],"categories_segments":[],"categories_sizes":[],"default_left":[0,0,0,0,0,0,0,0,0,0,0,0,0],"id":42,"left_children":[1,3,5,7,-1,9,11,-1,-1,-1,-1,-1,-1],"loss_changes":[5.8921164E-1,2.8284073E-1,8.1075406E-1,1.3534975E-1,0E0,1.0378978E0,8.1261104E-1,0E0,0E0,0E0,0E0,0E0,0E0],"parents":[2147483647,0,0,1,1,2,2,3,3,5,5,6,6],"right_children":[2,4,6,8,-1,10,12,-1,-1,-1,-1,-1,-1],"split_conditions":[-3.4099096E-1,-8.2792056E-1,-8.590337E-1,-3.4265912E-1,-6.439056E-3,-8.8536024E-1,1.06850065E-1,1.3006975E-1,2.4289316E-2,6.727641E-3,-1.4637953E-1,-2.8343657E-2,1.2400205E-2],"split_indices":[0,2,2,0,0,2,5,0,0,0,0,0,0],"split_type":[0,0,0,0,0,0,0,0,0,0,0,0,0],"sum_hessian":[1.06822365E2,3.9014397E0,1.0292092E2,2.568965E0,1.3324746E0,5.9161577E0,9.700477E1,1.2255844E0,1.3433807E0,3.4283514E0,2.4878066E0,2.5878513E1,7.112625E1],"tree_param":{"num_deleted":"0","num_feature":"8","num_nodes":"13","size_leaf_vector":"1"}},{"base_weights":[-8.2570844E-4,4.6409596E-2,-1.0875399E-1,-6.668203E-2,2.021481E-1,3.983433E-2,-4.4863325E-1,2.7071884E-2,-8.989122E-2,1.4997077E-1,1.36928065E-2,-2.6061196E-2,2.6513773E-1,-1.481586E-1,-7.0266775E-3],"categories":[],"categories_nodes":[],"categories_segments":[],"categories_sizes":[],"default_left":[0,0,0,0,0,0,0,0,0,0,0,0,0,0,0],"id":43,"left_children":[1,3,5,7,9,11,13,-1,-1,-1,-1,-1,-1,-1,-1],"loss_changes":[5.5387336E-1,1.3447025E0,1.6880565E0,3.505291E0,2.2949352E0,5.408028E0,1.1991711E0,0E0,0E0,0E0,0E0,0E0,0E0,0E0,0E0],"parents":[2147483647,0,0,1,1,2,2,3,3,4,4,5,5,6,6],"right_children":[2,4,6,8,10,12,14,-1,-1,-1,-1,-1,-1,-1,-1],"split_conditions":[1.3419273E0,-1.0366036E-1,-5.7194103E-2,-2.584167E-1,-5.7291124E-2,-1.20792955E-1,8.2310066E-2,2.7071884E-2,-8.989122E-2,1.4997077E-1,1.36928065E-2,-2.6061196E-2,2.6513773E-1,-1.481586E-1,-7.0266775E-3],"split_indices":[5,3,0,0,3,0,4,0,0,0,0,0,0,0,0],"split_type":[0,0,0,0,0,0,0,0,0,0,0,0,0,0,0],"sum_hessian":[1.0665465E2,7.458304E1,3.207161E1,4.3538673E1,3.1044367E1,2.2929916E1,9.141695E0,2.892004E1,1.4618631E1,5.1864104E0,2.5857956E1,2.1044088E1,1.8858277E0,4.893007E0,4.2486887E0],"tree_param":{"num_deleted":"0","num_feature":"8","num_nodes":"15","size_leaf_vector":"1"}},{"base_weights":[-7.2552543E-4,-2.2945736E-2,2.0028271E-1,2.1587858E-2,-4.089013E-1,3.5338342E-1,-1.17414035E-1,-3.1633673E-3,1.9595335E-1,5.306253E-2,-1.5279235E-1,1.2102004E-1,-2.6135212E-2],"categories":[],"categories_nodes":[],"categories_segments":[],"categories_sizes":[],"default_left":[0,0,0,0,0,0,0,0,0,0,0,0,0],"id":44,"left_children":[1,3,5,7,9,11,-1,-1,-1,-1,-1,-1,-1],"loss_changes":[4.8274562E-1,1.6811305E0,1.5043912E0,3.1758907E0,2.6241295E0,1.2526546E0,0E0,0E0,0E0,0E0,0E0,0E0,0E0],"parents":[2147483647,0,0,1,1,2,2,3,3,4,4,5,5],"right_children":[2,4,6,8,10,12,-1,-1,-1,-1,-1,-1,-1],"split_conditions":[5.448925E-2,-2.284781E-3,7.2438866E-1,-7.4257366E-3,-6.39153E-2,3.1162689E0,-1.17414035E-1,-3.1633673E-3,1.9595335E-1,5.306253E-2,-1.5279235E-1,1.2102004E-1,-2.6135212E-2],"split_indices":[1,1,5,1,3,2,0,0,0,0,0,0,0],"split_type":[0,0,0,0,0,0,0,0,0,0,0,0,0],"sum_hessian":[1.0605382E2,9.629487E1,9.758952E0,8.717968E1,9.115186E0,8.631695E0,1.1272572E0,8.485083E1,2.3288524E0,3.231587E0,5.8835993E0,5.514194E0,3.1175008E0],"tree_param":{"num_deleted":"0","num_feature":"8","num_nodes":"13","size_leaf_vector":"1"}},{"base_weights":[-9.26729E-4,1.0218202E-2,-8.89829E-2,-8.148529E-3,1.8558149E-1,1.2418462E-3,-1.4782815E-1],"categories":[],"categories_nodes":[],"categories_segments":[],"categories_sizes":[],"default_left":[0,0,0,0,0,0,0],"id":45,"left_children":[1,3,-1,5,-1,-1,-1],"loss_changes":[5.3388804E-1,1.7829665E0,0E0,1.0988289E0,0E0,0E0,0E0],"parents":[2147483647,0,0,1,1,3,3],"right_children":[2,4,-1,6,-1,-1,-1],"split_conditions":[3.0039933E0,2.4629407E0,-8.89829E-2,6.374631E0,1.8558149E-1,1.2418462E-3,-1.4782815E-1],"split_indices":[4,4,0,0,0,0,0],"split_type":[0,0,0,0,0,0,0],"sum_hessian":[1.05976364E2,1.0433436E2,1.642004E0,1.0325885E2,1.0755131E0,1.02242165E2,1.0166806E0],"tree_param":{"num_deleted":"0","num_feature":"8","num_nodes":"7","size_leaf_vector":"1"}},{"base_weights":[-1.3244711E-3,-3.730806E-2,1.2174825E-1,-6.9232166E-2,2.3584114E-1,5.964118E-1,-1.4258575E-1,6.442429E-3,-5.1763464E-2,-1.2355938E-2,1.6685335E-1,-9.070683E-2,4.5976575E-2],"categories":[],"categories_nodes":[],"categories_segments":[],"categories_sizes":[],"default_left":[0,0,0,0,0,0,0,0,0,0,0,0,0],"id":46,"left_children":[1,3,5,7,-1,9,11,-1,-1,-1,-1,-1,-1],"loss_changes":[4.7812295E-1,3.3248374E0,3.1499004E0,1.5915227E0,0E0,1.4496212E0,2.0148895E0,0E0,0E0,0E0,0E0,0E0,0E0],"parents":[2147483647,0,0,1,1,2,2,3,3,5,5,6,6],"right_children":[2,4,6,8,-1,10,12,-1,-1,-1,-1,-1,-1],"split_conditions":[7.933253E-2,3.9689262E0,-2.67602E-2,-2.1692106E-1,2.3584114E-1,-5.1068854E-1,5.448925E-2,6.442429E-3,-5.1763464E-2,-1.2355938E-2,1.6685335E-1,-9.070683E-2,4.5976575E-2],"split_indices":[3,0,1,0,0,5,1,0,0,0,0,0,0],"split_type":[0,0,0,0,0,0,0,0,0,0,0,0,0],"sum_hessian":[1.0593694E2,8.250986E1,2.3427092E1,8.131895E1,1.1909059E0,7.930336E0,1.5496755E1,5.3514297E1,2.780465E1,2.3016043E0,5.6287317E0,8.327257E0,7.1694975E0],"tree_param":{"num_deleted":"0","num_feature":"8","num_nodes":"13","size_leaf_vector":"1"}},{"base_weights":[7.21146E-4,-6.331494E-2,7.421582E-2,-1.7452607E-1,3.047057E-1,3.628216E-1,-1.6483709E-1,5.6495187E-3,-8.6325146E-2,1.04981974E-1,-1.3996817E-1,4.8726755E-3,1.2860583E-1,-1.3571794E-1,1.2789278E-3],"categories":[],"categories_nodes":[],"categories_segments":[],"categories_sizes":[],"default_left":[0,0,0,0,0,0,0,0,0,0,0,0,0,0,0],"id":47,"left_children":[1,3,5,7,9,11,13,-1,-1,-1,-1,-1,-1,-1,-1],"loss_changes":[5.042709E-1,2.3968997E0,3.5014665E0,2.3379223E0,3.3874807E0,2.1573188E0,2.4650931E0,0E0,0E0,0E0,0E0,0E0,0E0,0E0,0E0],"parents":[2147483647,0,0,1,1,2,2,3,3,4,4,5,5,6,6],"right_children":[2,4,6,8,10,12,14,-1,-1,-1,-1,-1,-1,-1,-1],"split_conditions":[-8.000567E-2,-2.6549062E-1,-3.253236E-1,-7.226145E-1,3.485462E-3,-3.5365712E-2,-1.726061E-2,5.6495187E-3,-8.6325146E-2,1.04981974E-1,-1.3996817E-1,4.8726755E-3,1.2860583E-1,-1.3571794E-1,1.2789278E-3],"split_indices":[4,2,2,2,0,1,1,0,0,0,0,0,0,0,0],"split_type":[0,0,0,0,0,0,0,0,0,0,0,0,0,0,0],"sum_hessian":[1.0514937E2,5.6264492E1,4.8884876E1,4.3611443E1,1.26530485E1,2.1912466E1,2.697241E1,2.487933E1,1.8732115E1,1.0769712E1,1.8833363E0,1.0416949E1,1.1495518E1,6.001852E0,2.0970558E1],"tree_param":{"num_deleted":"0","num_feature":"8","num_nodes":"15","size_leaf_vector":"1"}},{"base_weights":[-2.0836568E-3,8.880327E-3,-8.700051E-2,-7.027083E-3,1.5576586E-1,3.0575313E-3,-6.391233E-2],"categories":[],"categories_nodes":[],"categories_segments":[],"categories_sizes":[],"default_left":[0,0,0,0,0,0,0],"id":48,"left_children":[1,3,-1,5,-1,-1,-1],"loss_changes":[5.04232E-1,1.2767347E0,0E0,7.210191E-1,0E0,0E0,0E0],"parents":[2147483647,0,0,1,1,3,3],"right_children":[2,4,-1,6,-1,-1,-1],"split_conditions":[3.0039933E0,2.4629407E0,-8.700051E-2,6.7746776E-1,1.5576586E-1,3.0575313E-3,-6.391233E-2],"split_indices":[4,4,0,4,0,0,0],"split_type":[0,0,0,0,0,0,0],"sum_hessian":[1.04418175E2,1.0279432E2,1.6238532E0,1.0168436E2,1.1099606E0,9.57957E1,5.888658E0],"tree_param":{"num_deleted":"0","num_feature":"8","num_nodes":"7","size_leaf_vector":"1"}},{"base_weights":[-1.7086839E-3,-9.733443E-2,4.4439018E-2,-2.2460462E-1,4.551661E-1,2.7492774E-1,-5.9219517E-2,-6.2281586E-2,1.3533817E-1,1.7084828E-1,-1.3251828E-1,3.495041E-3,1.0349331E-1,-1.954995E-2,1.3851593E-1],"categories":[],"categories_nodes":[],"categories_segments":[],"categories_sizes":[],"default_left":[0,0,0,0,0,0,0,0,0,0,0,0,0,0,0],"id":49,"left_children":[1,3,5,7,9,11,13,-1,-1,-1,-1,-1,-1,-1,-1],"loss_changes":[4.691034E-1,2.534929E0,1.7299712E0,2.463009E0,3.6027162E0,1.3914102E0,1.5246866E0,0E0,0E0,0E0,0E0,0E0,0E0,0E0,0E0],"parents":[2147483647,0,0,1,1,2,2,3,3,4,4,5,5,6,6],"right_children":[2,4,6,8,10,12,14,-1,-1,-1,-1,-1,-1,-1,-1],"split_conditions":[-2.974101E-1,-2.9660377E-1,-2.1692106E-1,-2.5900425E-2,-4.095371E-2,-1.6576202E-1,4.2492704E0,-6.2281586E-2,1.3533817E-1,1.7084828E-1,-1.3251828E-1,3.495041E-3,1.0349331E-1,-1.954995E-2,1.3851593E-1],"split_indices":[0,2,0,4,1,3,6,0,0,0,0,0,0,0,0],"split_type":[0,0,0,0,0,0,0,0,0,0,0,0,0,0,0],"sum_hessian":[1.0432237E2,3.3596214E1,7.072616E1,2.7788519E1,5.807694E0,2.142798E1,4.929818E1,2.5944323E1,1.8441962E0,4.4534307E0,1.3542633E0,1.0914452E1,1.051353E1,4.7722355E1,1.5758252E0],"tree_param":{"num_deleted":"0","num_feature":"8","num_nodes":"15","size_leaf_vector":"1"}}]},"name":"gbtree"},"learner_model_param":{"base_score":"5.2570933E-1","boost_from_average":"1","num_class":"0","num_feature":"8","num_target":"1"},"objective":{"name":"binary:logistic","reg_loss_param":{"scale_pos_weight":"1"}}},"version":[2,1,1]}